inputs 33
trijetPtDR
dijetPtDR
bjetMass
LdgJetMass
SubldgJetMass
trijetMass
dijetMass
bjetBdisc
SoftDrop_n2
LdgJetCvsL
SubldgJetCvsL
bjetCvsL
LdgJetPtD
SubldgJetPtD
LdgJetAxis2
SubldgJetAxis2
bjetAxis2
LdgJetMult
SubldgJetMult
LdgJetCvsB
SubldgJetCvsB
bjetCvsB
DEtaDijetwithBJet
dijetPtOverSumPt
LdgJetPtTopCM
SubldgJetPtTopCM
bjetPtTopCM
LdgJetDeltaPtOverSumPt
SubldgJetDeltaPtOverSumPt
bjetDeltaPtOverSumPt
cosW_Jet1Jet2
cosW_Jet1BJet
cosW_Jet2BJet
scalerType Robust
center
[ 2.68411392e+02  1.63804916e+02  1.22906637e+01  1.38739638e+01
  9.10609818e+00  1.94204239e+02  9.18991013e+01  8.69061023e-01
  2.11263128e-01  7.98235089e-02  7.41782412e-02  7.36193597e-01
  4.25549805e-01  4.30737302e-01  2.28081467e-02  3.09646558e-02
  3.11167128e-02  1.40000000e+01  1.10000000e+01  8.55830729e-01
  8.51834327e-01  9.95354801e-02  7.05865920e-01  8.88909340e-01
  5.86974716e+01  4.64367561e+01  6.16859226e+01  2.93482304e-01
  4.92716715e-01  3.50241452e-01 -3.42615515e-01 -7.65143067e-01
 -5.14284998e-01 ]
scale
[ 1.30249561e+02 8.35157890e+01 7.64818573e+00 8.73330402e+00
 4.01828718e+00 1.85403755e+02 9.13389587e+01 7.31282361e-01
 3.98625117e-01 1.06632527e-01 9.00447229e-02 6.20853223e-01
 1.48106895e-01 1.41752198e-01 2.13373790e-02 2.68107327e-02
 2.64471336e-02 7.00000000e+00 5.00000000e+00 1.43370464e-01
 1.44782200e-01 5.23988938e-01 8.76320675e-01 3.30720484e-01
 5.41627369e+01 3.62162504e+01 3.56497307e+01 2.47405272e-01
 2.89252192e-01 3.19996644e-01 5.42303670e-01 4.30171199e-01
 7.11453367e-01 ]
isSparse 0
layers 8
Dense
33 32
[ -0.00954498 -0.03520844  0.14959672 -0.13534053 -0.05788042  0.22625597
  0.06301263 -0.25435033  0.08951057  0.00122473  0.19666249  0.07377791
 -0.09955037 -0.19999495 -0.1017894   0.28056493  0.28573427 -0.31304643
  0.29890895  0.1083461  -0.23551174  0.07350248  0.15313815  0.03633448
 -0.11329841 -0.0276191   0.26598385  0.17718887 -0.20837048 -0.37000778
 -0.23138438 -0.14014535 ]
[ -0.24587657 -0.01190946  0.30839875 -0.04567827 -0.20000064  0.38719767
 -0.14556615  0.4196735  -0.11187949 -0.18876591  0.04514229 -0.03469596
  0.20850618 -0.08869073  0.3810897   0.06359362  0.02866189 -0.37195662
  0.06796054 -0.47953916  0.5773142   0.30769184 -0.26018196  0.41432858
  0.10755148  0.14025347 -0.29337505 -0.36324474  0.15310313 -0.00900155
  0.16687964 -0.26865405 ]
[ -0.06820166  0.11045736  0.05003212  0.18292457  0.22279288  0.2194377
  0.06648926 -0.08831403  0.14767937 -0.12962568  0.11451533  0.27838615
 -0.19783852 -0.05608834 -0.4129859   0.13004307 -0.11917318  0.0093827
 -0.02551125 -0.13562697 -0.1557031  -0.01624502  0.04081325  0.20023273
 -0.02173377 -0.13989998  0.137372    0.1180421   0.18872397  0.05408763
  0.33363694  0.17037868 ]
[ -0.15695965  0.05958184 -0.05009935 -0.06724263 -0.03912813 -0.02918852
  0.13067141  0.25464725 -0.11465181 -0.28658673  0.28184348  0.2753788
 -0.15245512 -0.0265831  -0.1341007   0.10134483 -0.1940003  -0.17972563
  0.0775764  -0.24531323 -0.15107508  0.19568768  0.13341129  0.10935447
 -0.0309048   0.2220146   0.091524    0.26808625  0.03277518 -0.01431077
 -0.28405395  0.00531636 ]
[ 0.10108905  0.02281516  0.22207367  0.02281915 -0.00086473  0.26956832
  0.06385549  0.04141141  0.17846784 -0.04786134  0.16181126  0.06364151
 -0.05863359  0.32482734 -0.20164518 -0.11986475 -0.29789174 -0.2606939
 -0.08443341  0.15082107  0.19237974  0.07782489  0.27874547  0.08877242
  0.109533   -0.14410481 -0.08657982  0.11727665  0.11373363  0.09353152
  0.12764245 -0.23876695 ]
[ -0.1607352  -0.37811053 -0.37517998 -0.37371945  0.3291513  -0.07636286
  0.4708911  -0.31241536 -0.10436057 -0.02390569  0.18095635  0.07510941
 -0.03775087  0.15000245  0.31787908  0.32551238  0.05127083 -0.06897185
 -0.02497917 -0.16460782  0.1804606  -0.15923019  0.12489664 -0.40388578
 -0.2563753  -0.30824158  0.38367823 -0.29758164  0.2920137  -0.12057596
 -0.00528629  0.09421986 ]
[ -0.03750998 -0.2939837   0.13473429  0.06823076  0.19726379  0.11655878
  0.29735902  0.00918664  0.14848243  0.33314276  0.10145672 -0.16262066
  0.49564862 -0.06213516  0.16468208  0.28577924 -0.16717355 -0.09782901
 -0.01593238 -0.37905136  0.31853753 -0.1645836   0.05500675 -0.02735861
  0.30923176  0.03322225 -0.473556   -0.29854214  0.20099516  0.5029687
  0.12119947 -0.26287127 ]
[ 0.32790214  0.21306922  0.012635    0.1395807  -0.3201269  -0.02150171
 -0.11548724  0.11997352 -0.42100072  0.11834667  0.01593928  0.00492743
  0.34046632  0.12802103 -0.12594604 -0.27026215 -0.19617766 -0.00718988
 -0.10961258 -0.07928904 -0.13529253 -0.2935174  -0.19571556  0.12205623
 -0.33446807 -0.19334748 -0.04709655  0.23746994  0.05799668  0.10415554
  0.01228506  0.18802366 ]
[ 0.19880597  0.04922517  0.06316398 -0.07670341 -0.08208426  0.08370718
  0.0962051  -0.39137912  0.29601526  0.02135001  0.10118104 -0.16765028
 -0.48855525  0.1779549  -0.28965905 -0.15461949  0.11436139 -0.07082883
 -0.01592375 -0.14580953  0.1704535   0.2833716   0.2484261   0.01117423
  0.2041279   0.21527658  0.34761605 -0.03750724 -0.32000557 -0.21909836
  0.14390078  0.16827177 ]
[ -0.01298588  0.15805691  0.14063853 -0.2796644   0.11373437  0.17046149
 -0.00620553  0.03428994  0.17537339 -0.12824649 -0.02890171  0.06999812
 -0.02463365 -0.16278124 -0.43748873  0.22028808  0.18744843  0.22931041
  0.05190181  0.09195858  0.00943374 -0.04749041 -0.06262743 -0.05579753
 -0.22424492  0.27230668  0.15938276  0.02309665 -0.04413475  0.14893652
  0.02831427 -0.3537742 ]
[ 0.1420769  -0.09230479  0.26392218  0.21318437  0.06819626 -0.25969145
  0.16691197  0.01135411 -0.13607313 -0.09771448  0.29903343  0.08823747
 -0.0586641  -0.14788796 -0.17770933 -0.01133354 -0.00712681  0.19307654
 -0.04834004  0.05007831  0.00818306  0.04644413 -0.11270375  0.3660603
  0.2620917  -0.19214445 -0.23873623  0.22480382  0.26124483 -0.00815348
 -0.35907322  0.21277027 ]
[ 0.08497618 -0.18801108 -0.00408793  0.10216201 -0.14774063 -0.03783242
 -0.31573823  0.0613598   0.08896757 -0.2066844  -0.11936014  0.09271691
  0.10416503  0.2874276   0.07402102 -0.2724091  -0.21915625 -0.01050415
 -0.2015666   0.16312942 -0.07779773  0.13612452 -0.18747097  0.01296489
 -0.2164188   0.18865892 -0.1746987  -0.16954486 -0.11702792 -0.08467737
  0.172115   -0.21840353 ]
[ -0.18365465 -0.3437626   0.08012889 -0.08867133  0.3567348   0.1927566
  0.05169794  0.10128837 -0.04517008 -0.12212613 -0.02232042 -0.08037017
  0.07592984 -0.06574859 -0.15361989  0.11415131  0.21507317  0.04270661
 -0.2564591  -0.06803374  0.02004232  0.21582472  0.27504635  0.13620758
 -0.17870027  0.05962406  0.06379767  0.04961967 -0.15099826 -0.07914741
 -0.18017386 -0.2090054 ]
[ 0.25770316  0.28811872  0.18694286  0.27639353 -0.13691375  0.00724237
 -0.19868192  0.11105563 -0.27890834  0.19887322 -0.06680179 -0.26761878
 -0.30240792 -0.12795088  0.02848994 -0.11435878  0.18534413  0.07517233
  0.04943687 -0.03033699 -0.10004368 -0.15570863 -0.03696802 -0.00278499
 -0.17718673 -0.2372435   0.03334307  0.12997325  0.13327499 -0.14884016
  0.03815989 -0.07764742 ]
[ -0.06914488 -0.24274431 -0.34138867  0.18779494  0.18390726  0.16838649
 -0.19544813  0.09565274  0.02298595  0.1209793  -0.15261386 -0.18954313
  0.17941757 -0.19001411  0.2602394  -0.04502253 -0.21901673  0.23564163
  0.1058773   0.09580858  0.03564546 -0.10873564 -0.07639945  0.27805072
  0.11686985 -0.18149075 -0.05821171  0.05365339  0.17189068 -0.1561738
  0.12215921  0.27018642 ]
[ 0.11450364  0.16272491 -0.00416346  0.14781019  0.11497036  0.09185593
 -0.21542093 -0.1596658  -0.06034789 -0.21427515 -0.17700969  0.2743945
 -0.00648251 -0.19507533  0.13962394 -0.26138157  0.17862956  0.12894
 -0.22844528 -0.04695923 -0.14164357 -0.25385296  0.00203511 -0.18354614
  0.30501485 -0.0761648   0.20877568 -0.08350316 -0.07563668  0.17935507
  0.28145066 -0.11976622 ]
[ -0.09394664 -0.27293178 -0.258833   -0.04130856 -0.20513709 -0.16974369
 -0.16478558  0.04444301 -0.12620066  0.2591283  -0.00754938 -0.1348442
 -0.10651895 -0.34613842  0.1511455  -0.02469556 -0.07503662  0.06106883
  0.19162011  0.06572002 -0.06002235 -0.13313992  0.21614376 -0.01872926
  0.11347052 -0.09186991 -0.23829961 -0.09105522  0.14600019 -0.09414725
  0.19615221  0.23377009 ]
[ -0.1224952   0.18707332  0.01850718 -0.25946978 -0.04303553 -0.14097011
  0.20985495  0.13417341  0.11112734  0.2078402  -0.12314863  0.07998019
 -0.33550736  0.02800093 -0.13792351 -0.04737332  0.04789231 -0.05205816
 -0.27019072  0.04342424  0.08669262  0.05063922 -0.25887775 -0.17411648
 -0.03908585  0.2839162   0.16789602 -0.02463811 -0.10520536  0.06536026
  0.10465108 -0.08992038 ]
[ -0.0597782  -0.26020595 -0.07284041  0.13335048  0.13745816 -0.04571668
 -0.14724213  0.31266665 -0.19704664  0.04414338 -0.0751952  -0.18007545
  0.14406753 -0.11372565  0.20560548  0.22279595  0.34881583 -0.07013478
  0.19076172 -0.04499589 -0.00962649 -0.00371254  0.09078881  0.12025873
 -0.28407457 -0.06981297 -0.19944106  0.20439143 -0.21115705 -0.25293
  0.08085757 -0.10180026 ]
[ -0.16733414  0.11663716  0.1532936  -0.13596645 -0.12775093 -0.1636508
  0.1945574   0.11010035 -0.20573737 -0.07135455  0.0913682   0.02229447
 -0.252978   -0.01973549 -0.03774903 -0.27761897  0.00159876  0.15542409
  0.04250371  0.03529164  0.04635517 -0.12582083  0.20727897  0.08139122
  0.2637655   0.21587941 -0.06904204 -0.02826825  0.0200233  -0.14003636
 -0.09086905  0.17187096 ]
[ -0.18169451  0.10615663 -0.06905662 -0.16517173 -0.19976425 -0.33342415
 -0.01928336  0.00876755 -0.1256891  -0.19328769  0.22700429 -0.12195997
 -0.18020228 -0.11114045 -0.07263526  0.18894671  0.10120641  0.14904413
  0.0362063  -0.18639271  0.0620903   0.03811782  0.3224175   0.01798979
  0.15266265  0.18083747 -0.07163925 -0.04002227 -0.1550723  -0.06242737
  0.02851202  0.18412548 ]
[ -0.107215   -0.15845412  0.06122395  0.20234318  0.18091367 -0.02422665
  0.4196139   0.12452992 -0.074129    0.02078193 -0.07961866  0.03359006
  0.1136926   0.13605735  0.26410618  0.22433598 -0.06450517  0.00750246
 -0.36323357  0.16009039 -0.03169676 -0.10250986  0.05801742  0.12197639
  0.00731032 -0.23970364  0.10675356  0.09359965  0.02119157  0.06164231
  0.21953796  0.35915017 ]
[ 0.34315488 -0.06627192 -0.20525804 -0.3164437  -0.11201566 -0.08658669
  0.0725058  -0.15472202 -0.20122124  0.30544683 -0.00210122 -0.1999706
  0.12628573  0.08844274  0.30595523  0.03607037 -0.20034514 -0.01426511
  0.07710738  0.05335171 -0.10871156 -0.1917767   0.14802472 -0.30673364
  0.20124026  0.18302032  0.15452771  0.08369479  0.03454155 -0.16175489
  0.2051858  -0.10891284 ]
[ -0.09686125  0.00156412  0.263746    0.33159986  0.2851546  -0.26993045
  0.09958068 -0.3152442  -0.11819629 -0.3318733   0.29161927 -0.0219782
  0.05151703 -0.03847539  0.2493771  -0.27749753 -0.13515395 -0.11786966
  0.08753887  0.15721877 -0.26254025 -0.17123905  0.00466931 -0.11756057
 -0.13758117 -0.23595665  0.06420065  0.39431757 -0.20620507 -0.10707758
  0.10702535  0.20284511 ]
[ -0.20818509 -0.06422161 -0.14356522 -0.13958791  0.12006403 -0.00287018
 -0.40315875  0.13617213 -0.14407025 -0.24754143  0.15150039  0.02464578
 -0.2200669   0.06854879  0.14932524 -0.04420537  0.3291618   0.00773903
  0.02430014 -0.08998927 -0.22743358  0.25815567 -0.0349633   0.009915
  0.11959025 -0.02880885 -0.24565324  0.17398025 -0.06413082  0.2683724
 -0.3882324   0.23942405 ]
[ -0.08616656  0.16714178 -0.12445863 -0.03532119 -0.12845159 -0.12975152
 -0.129169    0.09267378  0.02750107 -0.13718425  0.0402111  -0.11578614
 -0.15976515  0.00710448  0.06638562 -0.12923193 -0.08262614 -0.24285033
  0.08820464  0.2213495   0.05060269  0.11443248 -0.2362296  -0.09911586
 -0.17342928 -0.25499848 -0.32252532 -0.00335825  0.04866115 -0.14074038
  0.13595252 -0.06905621 ]
[ -0.21875106 -0.15576838 -0.25607383 -0.1629427  -0.22535118 -0.21137014
 -0.26384103  0.0440719   0.11043455  0.15733756 -0.0854956   0.21523441
  0.15055835 -0.14874929  0.22338739  0.20104447  0.17593268  0.24066536
  0.24586305  0.3178108  -0.07998862 -0.09731361  0.05947454 -0.24422085
 -0.36223656  0.07844474  0.03777563  0.18715464 -0.02927673 -0.3648597
 -0.06602778  0.26086754 ]
[ 0.01683394  0.16587898  0.20832044  0.01757565 -0.21798737 -0.03809104
 -0.09110543  0.0542291  -0.03686066 -0.04201949  0.07005195  0.15794495
  0.0976986   0.29398426  0.05985574 -0.2061086   0.12506664  0.05762973
  0.05136992  0.04330978 -0.10506856  0.19951679 -0.057415    0.06474344
  0.15640557  0.27394956 -0.17491356 -0.0741869   0.29476178 -0.17879456
 -0.16584037  0.16352962 ]
[ 0.08543388  0.03504717  0.06461107 -0.25208682 -0.2724653  -0.156059
 -0.22226763  0.00632465  0.01234087 -0.31513667 -0.15079638  0.01801839
  0.14598143  0.13925238  0.05784966  0.12315303  0.06334805 -0.438774
  0.26859722 -0.1953954   0.02392138  0.47618526 -0.12250468 -0.07643345
 -0.19970849  0.04683469  0.16600749 -0.09521149 -0.2916041  -0.02964759
 -0.2939968   0.11462853 ]
[ -0.20414968 -0.04875928 -0.04673453 -0.19230178  0.10753178 -0.03633239
 -0.22375864  0.21396294  0.29988408 -0.24061671  0.18515326 -0.08980072
 -0.13350302 -0.21762545 -0.01847476  0.27858153  0.267091   -0.18755859
 -0.00584012  0.1966458   0.02863698 -0.08113021  0.34039065 -0.00192026
 -0.29776764  0.3261903  -0.27524033 -0.07531191  0.02230082  0.07814743
 -0.30480057  0.17655803 ]
[ 0.16530964 -0.30383056  0.16335987 -0.16451809  0.28133255 -0.09614424
 -0.15370637 -0.41806278 -0.11198283 -0.19707611  0.147761    0.26043537
 -0.3542482  -0.06874306  0.16461937  0.15623388  0.01118972  0.28106776
 -0.13872468  0.3870137  -0.34990466  0.02609921 -0.06008174  0.1418433
  0.22765672  0.15444784  0.17648998  0.28862417 -0.36093166 -0.38398317
  0.12056547  0.29508764 ]
[ -0.4237945   0.30075404  0.01721044  0.11522926  0.0025669  -0.0946543
  0.00316089  0.30529833  0.15451181 -0.1314732  -0.16869478  0.1918237
  0.04587881 -0.01697856  0.06608319  0.06470378  0.10345183 -0.20651545
  0.07377278  0.03736315  0.05322762  0.0748667   0.20977671  0.1891222
 -0.02834081  0.22014648  0.12047302 -0.34076253  0.08380138  0.37145606
 -0.04840678  0.05908445 ]
[ 1.6296802e-01 -1.6488898e-01 -1.9265550e-01 -2.9387131e-01
  9.8197229e-02  2.3271109e-01  1.2815265e-01 -3.7677962e-02
  3.4941480e-02 -6.7151859e-02  2.7367458e-01 -1.5359354e-01
  8.7506346e-02 -6.4074107e-02 -5.7603348e-02 -1.4900385e-01
  9.7169708e-03 -4.6088973e-01  2.4772244e-02 -4.5833915e-01
  2.0214500e-01 -1.0139946e-01 -1.1134594e-01 -1.2519161e-04
  3.0116886e-01  7.0054144e-02 -1.2087132e-01 -2.9786968e-01
  1.9677640e-01  6.3889936e-02  3.2512358e-01  1.4310337e-02 ]
[ -0.03665593  0.13842587  0.16119163  0.0370375  -0.10248382  0.09481654
 -0.211603    0.09449841  0.15697743 -0.0047038   0.05484683  0.0963998
 -0.06424192  0.01346703 -0.12766944 -0.04351943  0.00763174  0.11714927
  0.18242913  0.05990045 -0.12292736  0.21186034  0.07978482  0.19633701
  0.05405479  0.08870856 -0.0966612   0.03474997 -0.06767064 -0.14972901
 -0.02688559 -0.04329618 ]
Activation
relu
Dense
32 32
[ -0.0712517  -0.13677979  0.08326357 -0.07976794 -0.1189355  -0.25484145
  0.13375196  0.23421226 -0.09460829  0.22013237 -0.06384894  0.00182832
 -0.14875567  0.15738025  0.03464141  0.23848614  0.05336362  0.23604167
  0.16805543 -0.00623008  0.34609053  0.28911284  0.2126191   0.25969473
 -0.13334632 -0.25309962  0.01978149 -0.20788528 -0.20065825  0.21068102
  0.12728144  0.17706394 ]
[ 0.25793502  0.14342198  0.24588299 -0.00802498  0.30275995 -0.03276554
 -0.11513124 -0.14358611 -0.10828184 -0.2714133   0.31559053 -0.19687052
 -0.05887916 -0.19423002 -0.23705924  0.2332615   0.09434779 -0.10270175
  0.35614648  0.06167915  0.24778868 -0.12237522  0.2787306   0.1945681
  0.10538971  0.1417484  -0.26049197  0.20248072 -0.05143842 -0.11655179
  0.19829665 -0.05861847 ]
[ 0.07258704 -0.02236312  0.07024486  0.19034438  0.04010547  0.00147692
  0.13552304 -0.09170831  0.23685975 -0.22925736  0.26392585 -0.11772594
  0.1156864   0.25023443  0.17620264  0.01804251  0.30696687 -0.13999695
 -0.21082036  0.08056137 -0.03312547  0.02937914 -0.0386884  -0.05021148
 -0.0226282   0.2636362   0.02048404  0.2874757   0.26866147  0.1416637
 -0.12567428  0.24209519 ]
[ 0.21125823 -0.14893992 -0.1840022  -0.1740332   0.09605468 -0.27118725
  0.29042187  0.10267325  0.22453757 -0.27810243  0.15280612 -0.28100255
  0.20280257 -0.17163967 -0.2461577  -0.09291315 -0.24871872 -0.21578164
  0.16599897 -0.145767    0.25430775 -0.00441993  0.04341034 -0.28605986
  0.1803192   0.17465092  0.12250374  0.23696955 -0.17428868  0.21759114
  0.12280357  0.12174499 ]
[ -0.2549615  -0.2558067  -0.32782692 -0.08978745  0.05760606  0.06335949
 -0.207324    0.104899   -0.0363553   0.05893951 -0.01360348  0.20765142
 -0.11815429 -0.05356478  0.15631601  0.10239553 -0.05022857  0.27306935
  0.05313136 -0.09488297  0.0590208   0.16462788  0.13391928  0.00147808
 -0.07689907  0.2428679  -0.10753948  0.03356763  0.15996726  0.11457489
 -0.17363033 -0.20815587 ]
[ 0.03541769 -0.0503674   0.06360511 -0.31617245  0.16680911  0.05965069
  0.1056592  -0.25181612  0.16541119 -0.04749545  0.23149148  0.09299153
 -0.25899953  0.30982712  0.12451018 -0.20664711  0.14495042 -0.07917432
 -0.08348101 -0.10492153 -0.0354865  -0.19055371 -0.08456779  0.29258555
  0.25091204  0.3074621   0.25826064  0.05365128 -0.07602722  0.21220331
 -0.20045698  0.11014809 ]
[ 0.08556573  0.14772414  0.1749927   0.06663842  0.23243295  0.20443259
  0.22710988 -0.11673521 -0.06222631  0.22310479 -0.0747298   0.08382779
  0.24946174 -0.3049885  -0.1727745  -0.2509573  -0.20141421  0.23192191
 -0.17561571 -0.10823759  0.26859605 -0.07057849  0.27127796 -0.26625848
  0.08674745 -0.01641668 -0.20480998 -0.1569088  -0.04149043 -0.01161726
 -0.12195605 -0.09949152 ]
[ 0.07209216  0.40628445  0.07251191 -0.00888335  0.0109482   0.014508
 -0.2916528  -0.23930648 -0.18138586 -0.01946412  0.17071627 -0.06489216
  0.16776338 -0.06437471  0.105303   -0.06161709 -0.375521   -0.16360854
 -0.12779133 -0.16653432 -0.11539805 -0.33732843  0.32827044 -0.14933339
  0.29831603 -0.19419572 -0.40494323 -0.03304771  0.1713945   0.22814621
  0.31273007  0.00331492 ]
[ 0.31206784  0.14918245 -0.13358276  0.17109023 -0.23458277  0.10943808
 -0.19491772 -0.03033786  0.18951213  0.25399706 -0.06232938 -0.25416458
  0.04917574  0.19602214  0.04690034 -0.1592133   0.06439064 -0.24902569
  0.28471997  0.17755587  0.3419711  -0.26297754 -0.13536805 -0.13482244
 -0.00598998 -0.18256377  0.15955691 -0.04553228 -0.18724108  0.08922248
 -0.23704164  0.09767165 ]
[ 0.0936703   0.24369045  0.0130835   0.30997828 -0.18664145 -0.24117044
 -0.11955132 -0.2454086   0.0340247   0.2311297  -0.08732078  0.0645975
  0.01685464 -0.01448671  0.15296136  0.01695471  0.21222398  0.1563368
 -0.16662776  0.3420995  -0.17160305 -0.20503984  0.20708497  0.23623207
  0.11771269 -0.22060013 -0.05991172  0.19808032  0.0867577   0.2930283
 -0.02349411  0.0295727 ]
[ 0.24731682  0.13184157 -0.16562398 -0.14627051  0.06799968 -0.08828457
  0.2314813   0.10317868  0.12620038 -0.1912595   0.19038461 -0.11737023
 -0.1484116   0.01527996 -0.13695428 -0.16130911 -0.15533565 -0.16156176
 -0.12695423 -0.04176845  0.00402443 -0.12807357 -0.09233343  0.20930511
  0.2970307   0.13478908  0.24417761  0.09368634 -0.00385558 -0.09329294
 -0.24554044  0.25613743 ]
[ 0.16343261  0.02334684  0.09215878 -0.14685002  0.01356758  0.21917209
  0.09881766  0.16662562  0.2197095  -0.2574688   0.15813974 -0.14342602
 -0.12999375 -0.23325974 -0.3033661  -0.18330282  0.00490924  0.12776119
 -0.06486443  0.10520989  0.17627819 -0.10725661 -0.19898951 -0.19752888
 -0.02642268  0.00294537 -0.1170036  -0.33387038 -0.25075346 -0.15887679
  0.28680584  0.2933016 ]
[ -0.3220101   0.15791065 -0.02499388  0.36614764  0.11476672  0.05163095
  0.17053902 -0.20313667  0.0198951   0.19984755  0.25788802  0.24330421
 -0.12787479 -0.255796    0.15941712  0.14142096  0.09872457  0.04946166
  0.0539351  -0.15142673  0.13617618 -0.27150494  0.28623486  0.08815006
  0.2704815   0.08577524 -0.3311907  -0.13477898  0.2571309  -0.10228515
  0.15846373  0.13651316 ]
[ 0.06124162  0.06614654 -0.04980095  0.24261378 -0.03944853  0.0384288
 -0.11593008 -0.18283308  0.29327428 -0.14366814 -0.11671839  0.29509586
 -0.21957262 -0.16094269  0.11699393  0.21011223 -0.24376762  0.19607463
  0.14666073 -0.12449674  0.00735652  0.2832209   0.00342437  0.1759295
 -0.13057709 -0.04354612  0.24283272 -0.26022226  0.22148947 -0.28044552
  0.0561325  -0.12618579 ]
[ -0.13458875  0.10282072  0.2506656  -0.15988013 -0.03954362  0.01717485
  0.0337301   0.00990995 -0.22219196 -0.13248946  0.13403003  0.10624065
 -0.2751074  -0.19037782  0.00621792 -0.2244719  -0.05397285 -0.11717871
 -0.24542122  0.13956638 -0.04746624  0.3099976   0.11299461 -0.19757873
  0.25958404 -0.07160936 -0.13680713 -0.14861925  0.06934223  0.07251199
  0.006689   -0.18286604 ]
[ 0.09154285  0.10853769  0.01931703  0.21446125  0.27563778  0.01024491
 -0.13103853  0.21111418  0.22328806  0.20588872 -0.09538271  0.2688929
  0.18026045  0.3114388  -0.21745321 -0.10890869 -0.073094    0.02213749
 -0.103084   -0.12620313  0.32501525  0.21577972  0.13513438  0.2707098
  0.09671858  0.03172871 -0.03716785  0.22774032  0.26800716  0.10942668
  0.2717605   0.09583924 ]
[ 0.3101053   0.21118824 -0.07460407  0.28567195  0.21636738  0.12482313
  0.05714884  0.16871819  0.22508734 -0.03933664 -0.1820268   0.06757773
 -0.21458139 -0.17669281 -0.30604225  0.11129542  0.28240886 -0.20630088
 -0.03071998  0.16160138 -0.01320135  0.06666022  0.07874852  0.09279032
 -0.31281558  0.11129262 -0.06950346 -0.20589568  0.15062226  0.15878472
  0.27052933  0.06302588 ]
[ 0.07298011 -0.3205374  -0.29079884  0.14666346 -0.13824742  0.09186876
 -0.11158478  0.37911847 -0.32187098  0.0548317   0.00689689  0.16705689
  0.16404891  0.20767681  0.01158579  0.1964734  -0.42983446  0.25317428
 -0.1817507   0.00840684  0.29224715  0.21616639  0.15700094  0.2865353
  0.16905634 -0.21520601  0.37623978  0.32562774  0.2506895   0.10935539
  0.02051589 -0.10835117 ]
[ 0.2035069   0.27242512 -0.09454468 -0.13946289  0.12596175  0.18247288
  0.00215955  0.20575956  0.0120721   0.05368079 -0.17865725 -0.05763783
  0.22969641  0.27178285 -0.27760714  0.41758913  0.00369347 -0.28314364
 -0.12776916  0.33369657  0.07961465 -0.20959944 -0.11728136 -0.20875968
 -0.09255019 -0.01975604  0.34545907  0.05251269  0.08229541 -0.2938561
  0.02671827  0.16843188 ]
[ -0.11726467  0.13679868  0.08518309 -0.13390261 -0.029015    0.08057153
  0.2771738   0.2339015   0.00784814 -0.26103902  0.03186819 -0.32664815
 -0.17453887  0.0850354  -0.15207905 -0.03958728 -0.11988176  0.34808135
  0.00114117  0.30165944  0.14787777  0.1950963   0.05786529 -0.31601596
 -0.4075389   0.235903   -0.14202096  0.07333346 -0.10834118 -0.12498552
  0.01889184 -0.02674234 ]
[ 0.07240225  0.22614123 -0.38172564 -0.05785517 -0.07478096 -0.3612386
  0.25576904  0.03646239  0.0049404   0.02166914 -0.3354565   0.11709308
 -0.17626265  0.02100022 -0.30693388 -0.14594488 -0.07393435 -0.10379735
 -0.09088206 -0.2940956  -0.20640394 -0.14649116  0.48680088 -0.2858951
  0.14659782  0.17172058  0.09198791 -0.06933025 -0.24661349  0.18770944
 -0.15842383 -0.14388171 ]
[ 0.2375371  -0.10909603 -0.01419939 -0.27098653 -0.32967925  0.18121083
  0.21570335  0.11674986 -0.2484003  -0.21982457 -0.2458231   0.1024007
  0.3236112   0.3190523  -0.10208001  0.12286554  0.29467213 -0.09952348
  0.25902542  0.29252556  0.10489368  0.13397087  0.02650047  0.27711844
  0.11918978 -0.23406595 -0.07936332  0.06179119  0.16267744  0.11811002
  0.24123396 -0.20480295 ]
[ 0.27018237  0.071908    0.06743973 -0.09601668  0.3030319  -0.3318823
  0.12590612 -0.01210417 -0.32761446  0.3649533   0.1245134  -0.22126165
  0.20910124  0.10325706  0.2711965   0.26532736 -0.1910237   0.30165172
 -0.2286405  -0.02508008  0.26429573 -0.13205963  0.04075428 -0.1969818
 -0.10465947  0.18272176 -0.26788166  0.11262953  0.02762873  0.1161331
  0.16444385  0.13311161 ]
[ 0.2808715   0.18167447  0.3045141   0.00693849 -0.28142005  0.24947734
 -0.23596409 -0.24676923 -0.07490037  0.06662831 -0.21921776 -0.03449446
  0.23823018  0.11321419 -0.13977782 -0.15327857  0.02967964 -0.1716859
  0.19277908  0.15988849  0.06011282 -0.26474702  0.15002269  0.15670548
 -0.08347601  0.11184204  0.08751105  0.06166739  0.07402271  0.28426045
 -0.0471465  -0.22736955 ]
[ -0.12803082  0.18164359 -0.11942899  0.13697518  0.19364001  0.21219513
 -0.1414829  -0.26244405 -0.06915773  0.23982105 -0.23292235  0.08185998
  0.33192763  0.07985913 -0.34456956 -0.11539744  0.2380067   0.22617675
  0.3295934   0.3642685   0.01382595 -0.02691192 -0.04264538  0.2679689
  0.19090593  0.04326582  0.3269086  -0.2310066  -0.2320942   0.19179563
  0.20050338  0.07113044 ]
[ 0.11189683 -0.2278338  -0.05078768  0.02400491 -0.22288865  0.19096522
  0.11345328 -0.04573051  0.06671714 -0.17179711  0.22979717  0.07130584
  0.18237583 -0.2290263   0.22028244  0.31997076  0.04295408 -0.06788392
  0.27568826 -0.12654316  0.19037323 -0.02803455  0.16222042 -0.16126195
  0.26589793  0.15819459 -0.0369602   0.02293135 -0.22925162 -0.04062237
  0.20508485  0.18107396 ]
[ -0.04580172 -0.05418268 -0.21881059  0.2722218  -0.28488654 -0.22087242
 -0.05303419  0.40743783  0.3122451  -0.06317145 -0.09769841  0.00958913
 -0.33632684 -0.19164808  0.0995488  -0.1730772   0.05059049  0.2938705
  0.17493148 -0.29656482  0.08271416 -0.02018736  0.30662426 -0.09280887
 -0.27446166  0.08886399 -0.06773273  0.1503697   0.08761463 -0.24257138
  0.0579595   0.07653546 ]
[ -0.16401555 -0.06286881  0.27158007 -0.14256586  0.25777376 -0.11151033
 -0.15294439  0.09189449  0.26017666  0.14580034 -0.35660237 -0.1584757
  0.05035671 -0.16738684 -0.12285977 -0.08525088 -0.07266591  0.271115
  0.26680216 -0.06074787 -0.21911137  0.3686307   0.11012927 -0.08495662
  0.04156127  0.08143856 -0.0437328  -0.02201621  0.22678661  0.29680943
  0.21356103  0.2073949 ]
[ -0.19550404  0.09371606  0.08526678  0.03823887  0.10652006 -0.23121288
  0.07342566 -0.22058663 -0.23055556  0.11853944 -0.0762872  -0.16021523
 -0.22965744  0.0762582  -0.26776487  0.10507294 -0.12844138  0.01769589
 -0.23771468 -0.18143712 -0.13873927 -0.2950411   0.18717727  0.09479362
  0.02920563  0.21310236 -0.16821684  0.05945185  0.29397276  0.05696047
 -0.12004057 -0.29164982 ]
[ -0.1077252   0.3367237  -0.28240138 -0.18231858  0.32219797 -0.00689833
  0.19376862 -0.2394323  -0.23365946  0.25935295 -0.14166605 -0.3328825
 -0.23520997  0.09164677  0.08240484 -0.03407336 -0.04222324 -0.08075034
 -0.04241621  0.00209356 -0.32510388 -0.2744996   0.2985047   0.27399677
  0.39752352 -0.28707513  0.09936798 -0.14415386 -0.28978452 -0.15368
  0.23004031  0.01803196 ]
[ 0.2879971   0.18123432 -0.00433089 -0.08130635 -0.26727736 -0.33444932
 -0.15046297  0.3042639   0.23541307 -0.05800753 -0.27102226 -0.32067034
 -0.08273733  0.14152996 -0.10764128  0.2747845  -0.10023334  0.25573125
 -0.35296527 -0.13524258  0.09905667 -0.09755233  0.20446657  0.21222688
  0.17318927 -0.1153238  -0.1905771  -0.05845338  0.03597771  0.22820821
  0.18337564  0.05109169 ]
[ -2.6134503e-01  4.6829402e-02  3.5852951e-03  2.8903764e-01
  1.8630598e-01  2.2369467e-01 -6.7769237e-02  2.0368621e-01
  1.4036596e-01  2.0190902e-01 -2.3869719e-01 -1.7147215e-01
 -3.4424484e-02 -1.3079195e-01  1.7946988e-04  8.8491753e-02
 -1.6083790e-01  3.6013335e-02  2.8331938e-01  1.3782141e-01
 -1.4078280e-01  2.4111333e-01 -2.1112454e-01  1.2321023e-01
 -1.4699194e-01 -1.7686071e-01 -2.4336781e-01 -2.0877820e-01
 -2.2625541e-02  2.8271776e-01  2.5527993e-01  2.7098808e-01 ]
[ 0.11276377 -0.02244012  0.08847417 -0.07700417 -0.11465406 -0.02257858
 -0.05081183 -0.04983814  0.03764394 -0.08203218  0.11810967  0.04661611
  0.14894691  0.12019948  0.02988771  0.1578225   0.19002579 -0.05967093
  0.16483785  0.25392     0.16223592 -0.01313125 -0.14479248  0.12867793
 -0.00667348  0.10354313  0.19494875  0.13645083  0.10417526 -0.04749607
 -0.06161672  0.0635533 ]
Activation
relu
Dense
32 32
[ 0.09050284 -0.07266397  0.27673852  0.20669584 -0.07201437 -0.26491517
  0.1608793  -0.31459555  0.33224696 -0.11079048  0.17648005  0.04171276
 -0.01540279 -0.19998811  0.12415002 -0.3557365  -0.05629195 -0.19562596
  0.17269148 -0.10086035 -0.13133521 -0.21112941  0.30225608 -0.03465245
 -0.02929416  0.18346229 -0.12008363 -0.05614078  0.2672298  -0.23808317
  0.27523375 -0.34734842 ]
[ -0.15271181  0.04300242 -0.10048582  0.09700371  0.14152542  0.13544543
  0.20189886 -0.11723396  0.08192296 -0.15005288  0.14131181  0.1951374
 -0.3993462  -0.2641097   0.37146223  0.22018981 -0.03691733  0.31822255
 -0.2250813   0.42521983 -0.04999965  0.20517428  0.15007946  0.04404055
  0.0018806  -0.15590331  0.34011373 -0.0998636   0.14672649  0.18554485
  0.0702496   0.24164002 ]
[ -0.12917206 -0.11710522  0.03005469 -0.16797774 -0.02013317 -0.04416642
 -0.16313836  0.07549705  0.23030785 -0.06006908  0.3147596  -0.24560489
  0.3378778   0.14006652  0.04254881  0.1626028  -0.10731996 -0.18627186
  0.31442502  0.00190645 -0.00979355  0.14488403 -0.05995597  0.00213815
 -0.20729725 -0.03945993  0.12914912  0.11694966  0.31399512  0.3072313
  0.11978702 -0.22190465 ]
[ -0.2557081  -0.2580412  -0.00446818  0.00249327  0.04145562  0.34398097
 -0.13466497  0.16590148 -0.01047088 -0.03183753  0.15212186  0.2798025
  0.18752202 -0.28814548 -0.07865939 -0.19132884  0.04715633  0.1258359
  0.00702917  0.10109285 -0.26453668 -0.30939525 -0.23473215 -0.04962556
  0.15587878 -0.32435662  0.10863061 -0.1279861  -0.01743951 -0.25319034
 -0.27273354  0.15137058 ]
[ 0.0432082  -0.28836966 -0.25119334 -0.17644131  0.32000014  0.1518353
  0.3273827  -0.17062071 -0.18312514  0.07664648 -0.19763583 -0.1867995
  0.21014577  0.02847047 -0.23628417 -0.25200692 -0.02292076  0.07896861
  0.14248763  0.09107506 -0.16575792 -0.11669757 -0.3136136  -0.18254046
  0.1438808   0.09104385 -0.07004454 -0.14915301 -0.20250036  0.25470546
 -0.15368639 -0.08986976 ]
[ -0.12769715  0.0864899  -0.1201901  -0.19680393  0.00847516 -0.11828759
 -0.15127036  0.06818342  0.27061364 -0.31328747  0.13505447  0.06201082
 -0.08606058  0.09666096 -0.226554   -0.34395853 -0.06860898  0.1563731
 -0.18898481 -0.18611741  0.2623233  -0.23104593  0.08972242 -0.10446787
 -0.10801644 -0.10096525 -0.03237592  0.14242373  0.14444917 -0.11703163
  0.17706041  0.13339959 ]
[ -0.18264762 -0.3109983   0.17160173  0.09068124  0.24934286  0.18075766
  0.18364413  0.18952732 -0.01938241  0.0595517   0.01442435  0.0238909
  0.28232068  0.22663034 -0.12004576  0.13328913 -0.0155296  -0.16677254
 -0.20919651  0.07928349  0.1668936   0.04218829  0.2312622  -0.16191156
 -0.00954694 -0.1662183   0.02147003 -0.01720592  0.14590934 -0.1044708
  0.07347538 -0.2625643 ]
[ -0.33616772 -0.06498455 -0.21433046 -0.22138582  0.15443854 -0.15029955
 -0.4273518  -0.04711626 -0.27285525  0.02774059  0.16172592  0.29310435
 -0.32611609  0.37671527 -0.2990899  -0.20991284  0.07396472 -0.26305717
 -0.15896545  0.23188631  0.19837853 -0.15891641  0.10925015  0.03339735
  0.38268128 -0.33683884  0.08939846  0.05691047  0.09906229  0.0107315
 -0.14878467  0.03314393 ]
[ 0.12538433  0.16077931  0.09502707 -0.01885916 -0.20609547  0.16239059
  0.10835962 -0.11794981 -0.02025134  0.18903695  0.23165578  0.11731222
 -0.04261475  0.2697584   0.25016192 -0.18610342  0.2265884  -0.25093237
  0.1271579   0.07863442  0.28251958 -0.28784248 -0.05812912  0.1606846
 -0.07941181 -0.12373292  0.05303735  0.15334535 -0.14764921 -0.10798141
  0.08882837 -0.07314338 ]
[ 0.02041606  0.0690459  -0.09246531 -0.2007931   0.2949329   0.2582986
  0.3416288   0.041736   -0.228654    0.15187366  0.21099131 -0.0029072
 -0.12554461  0.22688544  0.33013868 -0.19521615 -0.07873237  0.11656664
 -0.2433267   0.2157368  -0.04904599 -0.16931868  0.14646392 -0.130165
 -0.25684172  0.12981781  0.2840416  -0.3158062   0.15874873 -0.30578834
  0.04653383  0.11668237 ]
[ 0.06065988 -0.01185191  0.29319376 -0.25979134 -0.13876112  0.15836884
  0.09244698 -0.09848218  0.16041924 -0.072853   -0.20834869  0.08586185
  0.26813135  0.05386567 -0.2138336  -0.13208793  0.22157131 -0.15349875
  0.24998952  0.3051525   0.24213096  0.18925422  0.03665525  0.10835903
 -0.22791985  0.24229428  0.11136729  0.07335899 -0.01458718 -0.15308395
  0.18499295  0.14461099 ]
[ -0.19791521  0.1304523   0.3264385  -0.0666377  -0.13193032 -0.323521
  0.07769521 -0.18990481  0.24897996 -0.27276188  0.00445123  0.13433565
  0.26659164  0.1491511   0.30128717 -0.10736635 -0.28829092 -0.17082167
  0.03645535  0.2363251  -0.0824297   0.01560542  0.18543054 -0.21886377
 -0.26524723  0.34451798 -0.20529975  0.25718105  0.27032948  0.25525936
  0.26039812 -0.22900578 ]
[ 0.3415231   0.14940105 -0.00355975 -0.08527014 -0.15700804  0.2998963
  0.2865501  -0.11622119 -0.12889943  0.28089994 -0.14040756  0.06669601
 -0.02476418  0.01804608  0.25700298  0.185203    0.04944854  0.04347776
  0.20465818 -0.24808942 -0.24191576  0.13290879  0.22260627  0.2545505
 -0.22389753 -0.13489667  0.2584447   0.09707019  0.13089362  0.31672376
 -0.17943835 -0.07269166 ]
[ -0.01492665  0.11737413 -0.06047824 -0.24921805  0.0047576   0.12222297
 -0.08777042 -0.22695851  0.3213312  -0.014895   -0.13018702  0.2121056
  0.16533998 -0.20859504  0.01895811  0.06940725 -0.1815777  -0.0217573
 -0.04025504 -0.14473863  0.1050967   0.14135419 -0.06192006 -0.09325079
 -0.21845205  0.1582734   0.20609447 -0.05647314 -0.1099524   0.14465532
 -0.34048465 -0.01524225 ]
[ -0.1429172   0.21037176  0.08076303  0.14846022  0.05790618  0.12462055
 -0.32168832  0.18838984  0.16893296 -0.01381149 -0.02531654  0.2110478
 -0.0603133  -0.20883846 -0.19371265 -0.0732125  -0.15177144  0.19595025
  0.01739155 -0.13821645  0.26559392  0.132037    0.19884881 -0.24872363
  0.03706709  0.24578193  0.32937196  0.19484825  0.15649298  0.2062664
  0.28237113 -0.071423  ]
[ 0.37895092  0.35162044 -0.17857723  0.04857256 -0.1607808   0.27376658
  0.15371788 -0.22525662  0.0305761  -0.01656836  0.14302598  0.2548004
  0.24208726 -0.14598915 -0.15559714  0.20688821  0.12501131 -0.13379477
  0.39646986  0.04011171  0.08039261 -0.29611674 -0.01660053  0.17950833
 -0.08296194  0.32635462  0.01660827  0.35448134 -0.04488046  0.24680272
  0.19199747  0.27921447 ]
[ 0.22522637  0.35535282 -0.31036735 -0.16593327  0.17481549 -0.28486758
  0.1150188  -0.07254031 -0.09848866 -0.25100023  0.07797428 -0.30673233
 -0.03417588 -0.25463194 -0.17989087  0.22551845 -0.13795574 -0.06801508
  0.03616847 -0.04038688  0.33078787  0.07272249  0.19227114  0.2276851
  0.17398901  0.15315495  0.17788947  0.3611615   0.12181989  0.2934008
 -0.08195104  0.0062605 ]
[ -0.12078014  0.13018802  0.16462888 -0.18984206  0.23245835  0.26371613
 -0.37671822  0.03360352  0.10178004  0.19684495  0.02653396  0.25233242
 -0.00144608  0.16718766 -0.12137941  0.1483643   0.2963151   0.25830948
  0.002556    0.0048902  -0.21271294  0.14922653 -0.2706269   0.04932452
  0.28835478 -0.01285378  0.05976424 -0.24777588  0.05725373  0.12302521
  0.31849065 -0.17277871 ]
[ -0.07944632  0.0793768  -0.20902099 -0.05034835 -0.08092696 -0.07477793
 -0.37756464 -0.11588972 -0.12040651  0.06940582  0.02529489 -0.18592952
  0.2740968   0.12478655  0.24531049  0.22081485  0.09641446 -0.10392243
 -0.11272459 -0.24732316 -0.02687774 -0.10280997  0.22584948  0.18341088
  0.0520555   0.22384676 -0.26134437 -0.06897038  0.15971072  0.34722283
  0.05303581 -0.31682467 ]
[ 0.31067276  0.17684302  0.02823424 -0.12365609 -0.01806745 -0.18505171
  0.0251948  -0.04802217  0.17320019 -0.24399248 -0.06071822 -0.3685656
  0.25883096 -0.17927045 -0.10056806  0.01952671  0.15488698 -0.36448935
  0.3275933   0.12896544 -0.09439557 -0.2605632   0.19631757  0.26792377
  0.10067329  0.492446   -0.04875743  0.3934097   0.29779845 -0.11226358
  0.03318881 -0.14287378 ]
[ -0.08227551 -0.17808262 -0.26223233 -0.23350833  0.25540674 -0.01415705
 -0.18485716 -0.13580935 -0.02714521 -0.03435551 -0.10205129 -0.0470025
  0.11652488  0.12299675 -0.31730545  0.06630937  0.22937047  0.26118305
  0.21012664 -0.05180642  0.280284   -0.17183398 -0.03420152  0.2377314
  0.09423813  0.3530512  -0.29931414 -0.06929565  0.13645692  0.20416534
 -0.33068368 -0.22451761 ]
[ -0.10201617  0.08324146  0.03297714  0.17751826 -0.1141149   0.41003072
 -0.13675898  0.39268708 -0.4801379  -0.02693773 -0.20713659  0.2582039
 -0.19721536  0.20390686  0.02440447  0.22129361  0.35021016  0.28096372
 -0.13726869 -0.05243966 -0.36922187  0.10574262 -0.26562616 -0.43367916
  0.42637083 -0.49141684  0.43573573 -0.04112414 -0.24262904 -0.42090744
  0.24372846  0.3823958 ]
[ 0.07770317 -0.28484517 -0.04732929  0.1745924   0.22591132  0.17080249
  0.2680055   0.10737167  0.17474452  0.35806027 -0.30537754  0.00149683
  0.15609622 -0.27367005  0.01959146  0.00796636 -0.2644044   0.34300402
 -0.08829336  0.05230958  0.21632755 -0.20602322 -0.18183368 -0.31941903
 -0.13124481 -0.24584246  0.34407136  0.07515279  0.02744289 -0.35131794
 -0.12869889  0.04115624 ]
[ 0.13058397  0.01533604 -0.05581876  0.19965738  0.08534968  0.18396012
  0.11219846  0.09292086 -0.01850583 -0.07977673  0.12284676  0.28336778
  0.26227146  0.00935698  0.3001025  -0.01209818 -0.02192408 -0.05374959
 -0.09362278  0.16561869  0.20650703  0.21060002  0.12980776  0.24780865
 -0.22874495  0.07473361  0.08063181  0.20680647  0.2668315   0.24381901
 -0.02816514 -0.08578948 ]
[ -0.28579095 -0.06717837 -0.03397533 -0.02790036  0.01823731  0.01957861
  0.46700418  0.10845276 -0.33451584  0.2843699   0.16459613  0.00895776
  0.0344425  -0.27259284  0.04352125 -0.24321616 -0.05545758 -0.17817365
  0.20939055  0.01179978  0.17733796  0.1004004  -0.1129244   0.08569505
 -0.3535987  -0.07281262  0.06881385  0.08966555 -0.26194504  0.09046514
  0.37164783  0.38089687 ]
[ 0.18316397  0.29210413 -0.05411209 -0.01604164 -0.26779386  0.190619
 -0.06467102  0.02745354  0.15646407  0.17656828  0.09091061  0.29553294
 -0.2743033   0.13741627 -0.23618989 -0.08157403 -0.21745692  0.319657
 -0.10060859  0.03469009  0.11940299  0.02797304 -0.04711545  0.22365265
 -0.09005157 -0.25367346  0.22608182  0.29752675  0.2847501   0.01543755
  0.09563944 -0.03106489 ]
[ -0.1022263   0.1608633   0.04652065  0.20545691  0.02848206 -0.3280752
  0.20505182  0.17412832  0.29314315 -0.29970962  0.10563417 -0.323829
 -0.11019054 -0.08523774 -0.11286426  0.03308377  0.03232884  0.04334666
  0.15097086 -0.13867402  0.33377126 -0.20549521  0.08675322  0.32283115
  0.05172496  0.12432067 -0.27164546  0.40724742 -0.02715598  0.32045153
 -0.08802992 -0.15447654 ]
[ -0.06142533  0.18378098 -0.26612392 -0.28954253  0.20350142 -0.07030685
 -0.07886895 -0.14731099  0.2251266  -0.23094106  0.2870492  -0.12739034
  0.11695792  0.0716916   0.03170667  0.0664829  -0.31171975  0.03412096
 -0.15393808  0.15172817  0.2551276  -0.25328377 -0.1540009   0.02338949
  0.30637348  0.24686883  0.10333665 -0.25367612  0.32937378  0.14015011
 -0.3258459   0.04603852 ]
[ 0.04123612  0.17322807 -0.14826246  0.04352576  0.0147139   0.03444365
  0.06930728  0.01375568  0.23048297  0.09189671  0.11943925 -0.11156745
  0.2000294  -0.00832099  0.04931343  0.26258373 -0.10331205  0.00116257
 -0.13398078 -0.06146891  0.0276758   0.10601426  0.03929039 -0.02066656
 -0.2499262   0.32152823 -0.04354174 -0.2674479   0.10969359 -0.00731344
 -0.28363562 -0.0450866 ]
[ -0.07314612  0.25054422  0.11889846  0.24211514  0.25580338  0.07927305
 -0.0031063   0.2716838   0.15905079  0.09104019 -0.11406671  0.06180583
 -0.22330055  0.23065555 -0.10111404 -0.06251282  0.04606421  0.16881688
  0.27540156  0.28749388 -0.05879065 -0.22902349 -0.21609318  0.02958545
  0.1623887  -0.01968312  0.21098357 -0.08461919  0.21678114  0.14179355
  0.2903186   0.23271543 ]
[ -0.04222129  0.04327919 -0.05821394 -0.1408692   0.01027143  0.10477647
 -0.08296063  0.15857226 -0.18362652  0.27761534 -0.16165319 -0.19575633
 -0.11964434  0.2157742   0.1182349  -0.18150917  0.25419414  0.1015983
 -0.126066   -0.11744157  0.11204326 -0.08488832  0.10423803  0.13616678
  0.01436695 -0.08537167 -0.026497    0.10242923 -0.0032127  -0.2513351
  0.31820583  0.21148512 ]
[ 0.32148853  0.01248716 -0.11330897 -0.02085441  0.0533949  -0.25926504
 -0.12555203 -0.06143342 -0.23930258  0.21163     0.2731766   0.22600462
  0.20852269  0.08656919  0.2646921  -0.2794955  -0.20963196  0.19169839
  0.1941802  -0.22839238  0.28981254 -0.05218497  0.05900097  0.2271169
  0.27146843 -0.2583678  -0.16691269  0.10396284  0.09018265 -0.2948726
  0.09951704  0.19025974 ]
[ 0.11036544  0.11983801 -0.02140782  0.00029329 -0.06472436 -0.04370797
 -0.1216539  -0.0181234   0.10826596 -0.04533115  0.08019324 -0.0568121
  0.09251327 -0.05031921 -0.05234536 -0.08709393 -0.06976487 -0.05352201
  0.09011433 -0.05397683  0.0731178  -0.03299092  0.1405738   0.09117109
 -0.04369839  0.2271696  -0.08408888  0.11886057  0.07718958  0.13368559
 -0.05933575 -0.03345373 ]
Activation
relu
Dense
32 1
[ 0.45076412 ]
[ 0.21456099 ]
[ -0.23305716 ]
[ -0.15646896 ]
[ -0.42251682 ]
[ -0.03666076 ]
[ -0.15632816 ]
[ -0.11873971 ]
[ 0.10585738 ]
[ -0.38808334 ]
[ 0.24120267 ]
[ -0.09771062 ]
[ 0.16924089 ]
[ -0.394319 ]
[ -0.42022076 ]
[ -0.19357525 ]
[ -0.33631477 ]
[ -0.4662097 ]
[ 0.2446699 ]
[ -0.42401665 ]
[ 0.02674609 ]
[ 0.04513368 ]
[ 0.50683516 ]
[ 0.44182014 ]
[ -0.3655195 ]
[ 0.23813228 ]
[ -0.1451707 ]
[ 0.05645483 ]
[ 0.29268047 ]
[ 0.3014579 ]
[ -0.24902253 ]
[ -0.36191535 ]
[ 0.07471 ]
Activation
sigmoid
