inputs 33
trijetPtDR
dijetPtDR
bjetMass
LdgJetMass
SubldgJetMass
trijetMass
dijetMass
bjetBdisc
SoftDrop_n2
LdgJetCvsL
SubldgJetCvsL
bjetCvsL
LdgJetPtD
SubldgJetPtD
LdgJetAxis2
SubldgJetAxis2
bjetAxis2
LdgJetMult
SubldgJetMult
LdgJetCvsB
SubldgJetCvsB
bjetCvsB
DEtaDijetwithBJet
dijetPtOverSumPt
LdgJetPtTopCM
SubldgJetPtTopCM
bjetPtTopCM
LdgJetDeltaPtOverSumPt
SubldgJetDeltaPtOverSumPt
bjetDeltaPtOverSumPt
cosW_Jet1Jet2
cosW_Jet1BJet
cosW_Jet2BJet
scalerType Robust
center
[ 2.68899139e+02  1.64082031e+02  1.26815071e+01  1.43494954e+01
  9.44979525e+00  1.94636314e+02  9.22429886e+01  9.33785826e-01
  2.12735556e-01  7.71143809e-02  7.12332986e-02  8.22490603e-01
  4.25497949e-01  4.30939481e-01  2.26417556e-02  3.08522396e-02
  3.08056101e-02  1.40000000e+01  1.10000000e+01  8.65589380e-01
  8.63777816e-01  5.60409594e-02  7.02913225e-01  8.89962494e-01
  5.87314014e+01  4.64319134e+01  6.17122097e+01  2.93206036e-01
  4.93567675e-01  3.51009682e-01 -3.42494771e-01 -7.65383810e-01
 -5.13938546e-01 ]
scale
[ 1.31188797e+02 8.41019745e+01 7.67253876e+00 8.82132339e+00
 4.06757295e+00 1.84739056e+02 9.17976418e+01 6.11891769e-01
 4.02985506e-01 1.19771585e-01 1.00176204e-01 5.31325832e-01
 1.47202939e-01 1.41204029e-01 2.10674428e-02 2.66511701e-02
 2.63973200e-02 7.00000000e+00 5.00000000e+00 1.32130653e-01
 1.33003607e-01 4.69140567e-01 8.73920783e-01 3.30636501e-01
 5.41014099e+01 3.63328552e+01 3.56811056e+01 2.47621860e-01
 2.89837167e-01 3.19860868e-01 5.43818746e-01 4.28311057e-01
 7.10379603e-01 ]
isSparse 0
layers 8
Dense
33 32
[ 0.00781357 -0.01113881  0.14518993 -0.12931602 -0.05552207  0.22818086
  0.02293479 -0.25675735  0.095157    0.00699938  0.17772792  0.07092515
 -0.11558935 -0.19429573 -0.11314064  0.30199888  0.29709014 -0.33067247
  0.27949008  0.0883671  -0.22300556  0.10013201  0.14599442  0.03524538
 -0.11706694 -0.02966369  0.25275475  0.19974548 -0.17980787 -0.37057585
 -0.2327164  -0.13551128 ]
[ -0.25640976 -0.0237033   0.30636594 -0.04855491 -0.1735598   0.39732814
 -0.15999687  0.4079446  -0.10383954 -0.19795652  0.04534993 -0.00818487
  0.1945568  -0.07483422  0.32605958  0.04947604  0.02931698 -0.37660533
  0.04595536 -0.48034355  0.57057387  0.347788   -0.24765955  0.39426756
  0.10789448  0.15256941 -0.29465836 -0.37500292  0.16866212  0.00091193
  0.16596572 -0.26144916 ]
[ -0.05336663  0.10257204  0.08172448  0.17379995  0.23274708  0.19515859
  0.02865502 -0.11139604  0.12204538 -0.13933824  0.11177973  0.24864206
 -0.13005829 -0.07408953 -0.38881204  0.10314099 -0.08400626  0.03192988
 -0.01028486 -0.1181403  -0.15659982 -0.02528935  0.08219916  0.18232827
 -0.02910854 -0.15183103  0.1607915   0.12458549  0.15041801  0.06300279
  0.34202218  0.16035043 ]
[ -0.1604622   0.07819328 -0.05946039 -0.00928024 -0.04846536 -0.00780706
  0.04944125  0.22234297 -0.11340995 -0.29136378  0.27456984  0.27187422
 -0.20688865 -0.00624681 -0.18458295  0.12970848 -0.1740279  -0.15026483
  0.09161709 -0.2637727  -0.13766704  0.19249508  0.15406182  0.10162214
 -0.04192365  0.22704864  0.03276898  0.26393348  0.01389969 -0.02073371
 -0.31778762  0.00846077 ]
[ 0.13655162  0.04948838  0.24097194 -0.02846153  0.00254509  0.27853066
  0.01432052  0.029004    0.13704826 -0.04239438  0.16446765  0.03737177
 -0.17163342  0.3051015  -0.15994798 -0.09779087 -0.2479539  -0.23976135
 -0.09279265  0.17323259  0.20108469  0.08048638  0.26373714  0.1070035
  0.11340749 -0.15818065 -0.07237101  0.12397236  0.07758375  0.09017902
  0.13525942 -0.22381558 ]
[ -0.15826227 -0.3658784  -0.36732134 -0.39992973  0.35709152 -0.08277422
  0.45999217 -0.3321123  -0.11630437 -0.0270538   0.15226407  0.03328025
 -0.02366797  0.18366323  0.29503593  0.3547058   0.06693183 -0.07517191
 -0.06280946 -0.17414418  0.20246165 -0.07989993  0.1518449  -0.41606668
 -0.2196338  -0.31620443  0.38802987 -0.28529277  0.31932804 -0.11723921
 -0.02307095  0.10492232 ]
[ -0.03883817 -0.28490123  0.16946208  0.05618887  0.22288567  0.09139611
  0.30666193  0.02163996  0.14657219  0.32262626  0.10029613 -0.1675759
  0.4990048  -0.05811572  0.11668613  0.3290468  -0.154635   -0.11133555
 -0.01656515 -0.3751127   0.3308477  -0.15288559  0.11794733 -0.04063719
  0.31037718  0.05180518 -0.48040807 -0.30668527  0.21812037  0.5102089
  0.11214713 -0.25861013 ]
[ 0.3447377   0.20807602  0.00966556  0.10908417 -0.32547885 -0.03056188
 -0.09617513  0.18614076 -0.440429    0.11446307  0.02447252 -0.04622352
  0.30612195  0.13942306 -0.16581222 -0.3023845  -0.1584998  -0.03781853
 -0.10384317 -0.06381138 -0.19729172 -0.27674985 -0.2759746   0.11886219
 -0.32248762 -0.20290153 -0.02268725  0.20385447 -0.00065985  0.08992527
  0.01716515  0.18804914 ]
[ 0.21208097  0.08719193  0.04861354 -0.06235575 -0.08164687  0.09021886
  0.0761551  -0.43506968  0.30263218  0.03237314  0.10740633 -0.17632833
 -0.5081508   0.17426644 -0.18072256 -0.14694461  0.11563658 -0.05306876
  0.01533107 -0.12461863  0.17780407  0.26820555  0.24112587 -0.00928661
  0.19207501  0.21559504  0.33046898 -0.0356442  -0.3363135  -0.2255068
  0.1491672   0.16897951 ]
[ -0.01153144  0.14348243  0.12865303 -0.3027279   0.13605992  0.17740633
  0.00755447  0.03509695  0.1618694  -0.09712348 -0.0460971   0.06472252
 -0.00376244 -0.15815307 -0.3831147   0.21362863  0.20513514  0.22409628
  0.05021952  0.06231965 -0.00933448 -0.07155487 -0.07311156 -0.12983988
 -0.25746793  0.28748015  0.14540848  0.01477116 -0.05743218  0.14883973
  0.04883947 -0.33502772 ]
[ 0.14124493  0.00885815  0.25030354  0.21528909  0.06727206 -0.28247184
  0.18946671 -0.00653231 -0.08111391 -0.09602961  0.30500385  0.0791503
 -0.2510279  -0.17427462 -0.19068633 -0.02118047 -0.00427865  0.1865761
 -0.04030832  0.02838795 -0.00587336  0.01348124 -0.07901499  0.36181235
  0.27087522 -0.16901284 -0.31122816  0.22469383  0.27991197 -0.00871504
 -0.36230078  0.2197648 ]
[ 0.13505197 -0.26043206 -0.02525188  0.09047323 -0.1490015  -0.10706037
 -0.29490256  0.1233289   0.11581109 -0.2208433  -0.10966346  0.0073206
  0.07373362  0.2824139   0.06467876 -0.30989742 -0.18753627 -0.03222514
 -0.24001387  0.1663315  -0.14203872  0.13091268 -0.2853102   0.00636309
 -0.22685719  0.20084822 -0.12557913 -0.17250653 -0.13150927 -0.06796443
  0.18335626 -0.22197661 ]
[ -1.5723440e-01 -2.8011855e-01  7.0824593e-02 -1.4803578e-01
  3.5109484e-01  1.7073870e-01  7.4680492e-02  6.1048381e-02
 -2.2383699e-02 -1.1338772e-01 -2.6031742e-02 -7.2894126e-02
  2.6015179e-02 -5.6608558e-02 -1.6536945e-01  7.5327776e-02
  1.8807977e-01  1.0725403e-02 -1.9570556e-01 -9.5428899e-02
 -1.9354455e-04  2.1479499e-01  2.6306051e-01  1.3028118e-01
 -1.8126112e-01  7.5294420e-02  9.5749334e-02  2.8636755e-02
 -1.4599906e-01 -8.0158345e-02 -1.9130158e-01 -2.2961849e-01 ]
[ 2.0844142e-01  3.0302927e-01  1.9529672e-01  2.7472216e-01
 -1.3085485e-01  3.6639813e-03 -1.8714082e-01  6.9914266e-02
 -2.5348589e-01  1.9134766e-01 -4.5006957e-02 -2.5713176e-01
 -2.7807903e-01 -1.3544717e-01 -1.3823775e-04 -9.0049691e-02
  1.5033150e-01  8.0026992e-02  3.0134704e-02 -5.9896462e-02
 -9.1673292e-02 -1.9309013e-01 -2.0334933e-02 -6.7935637e-03
 -1.6782770e-01 -2.1269284e-01  5.4204017e-02  1.1254102e-01
  1.2403254e-01 -1.5027079e-01  4.0262520e-02 -8.4922850e-02 ]
[ -0.09055156 -0.25603175 -0.34820288  0.19141643  0.15439938  0.19648573
 -0.19220835  0.11789124  0.02136232  0.11847931 -0.14514829 -0.16888735
  0.16993639 -0.18206032  0.29473305 -0.01651679 -0.18770953  0.19467948
  0.11340822  0.09482086  0.04365507 -0.13223891 -0.09817997  0.23979671
  0.13208587 -0.15899672 -0.06957533  0.06426699  0.14257647 -0.15222922
  0.11876698  0.29253033 ]
[ 0.10908036  0.18191586  0.00902695  0.13819923  0.11307887  0.10198678
 -0.22376074 -0.09645936 -0.09720919 -0.21469487 -0.17649394  0.27335143
 -0.00587298 -0.21700777  0.2223914  -0.28127083  0.20326638  0.12327843
 -0.17553274 -0.07006858 -0.11752111 -0.3100187   0.05312127 -0.14205101
  0.29818273 -0.11263639  0.17541066 -0.10285152 -0.08561756  0.17950627
  0.3240578  -0.11776238 ]
[ -0.13870512 -0.25623024 -0.2680936  -0.06098181 -0.19339578 -0.16979119
 -0.18764746  0.0749113  -0.1498593   0.2617751  -0.02593051 -0.14303991
 -0.09850846 -0.34024402  0.14370875 -0.0052084  -0.07049175  0.06942738
  0.20498483  0.09822483 -0.05905101 -0.19606727  0.21111481  0.01116743
  0.04804382 -0.09117352 -0.25852683 -0.11155783  0.19193067 -0.08514334
  0.16889864  0.20947935 ]
[ -0.10427456  0.21678968 -0.00098529 -0.22318879 -0.03714369 -0.12228703
  0.13189979  0.17442256  0.11547402  0.22598325 -0.14933042  0.05822114
 -0.34189108  0.03695431 -0.16405466 -0.00886021  0.10016909  0.00790499
 -0.2964829   0.04282038  0.14184646 -0.01674892 -0.23048392 -0.20135246
 -0.01366575  0.27106962  0.09848721 -0.00128744 -0.1045119   0.05452666
  0.08934264 -0.04229529 ]
[ -0.02825695 -0.25395113 -0.05254323  0.14738831  0.09261516 -0.07773232
 -0.1658541   0.30978617 -0.2343341   0.05273983 -0.07596153 -0.1456361
  0.12841968 -0.15411092  0.24089007  0.20512113  0.38537917 -0.04504392
  0.18356243 -0.06561241 -0.00808996 -0.02632977  0.09702057  0.17743722
 -0.27822426 -0.09941408 -0.19871521  0.17861284 -0.23253475 -0.25449157
  0.09114017 -0.1268112 ]
[ -1.58444017e-01  1.08704910e-01  1.34558350e-01 -1.49813876e-01
 -1.42451823e-01 -1.70402497e-01  2.14539200e-01  1.24688499e-01
 -2.23230749e-01 -1.31613269e-01  1.48163527e-01  3.54885822e-04
 -2.22155407e-01 -2.57626995e-02 -2.52066422e-02 -2.76472300e-01
 -4.30053994e-02  2.17785612e-01  2.16377135e-02  4.36714441e-02
  5.62619679e-02 -9.31908786e-02  2.44867235e-01  1.12690516e-01
  2.28269204e-01  2.00013563e-01 -4.98578325e-02 -4.32607420e-02
  1.03815401e-05 -1.32552594e-01 -7.68505484e-02  1.65007696e-01 ]
[ -0.1888784   0.06371099 -0.08066591 -0.1745014  -0.18507098 -0.2862788
 -0.03905109 -0.06706163 -0.07329565 -0.19721903  0.21241526 -0.13285153
 -0.0939609  -0.06368559 -0.10541673  0.17875563  0.09854174  0.13877812
  0.0099109  -0.18564938  0.02698461  0.1255638   0.33223134 -0.00960069
  0.09331092  0.15207396 -0.10270266 -0.06331743 -0.1371016  -0.08351987
  0.03590342  0.15134607 ]
[ -0.14117227 -0.14606105  0.08659235  0.23403391  0.16979308 -0.00351383
  0.37283593 -0.01464595 -0.02977214  0.01989398 -0.07244964  0.07677037
  0.11537158  0.1263711   0.2680277   0.2284757  -0.10126314  0.03218926
 -0.31653404  0.10889159  0.02273343 -0.09742835  0.1449284   0.14933519
 -0.00360094 -0.21257384  0.03336322  0.0814212   0.04653282  0.05320759
  0.18905886  0.338315  ]
[ 0.30233854 -0.05686927 -0.1885822  -0.32455173 -0.13225746 -0.03796202
  0.06258605 -0.14219043 -0.17077002  0.29773566 -0.01582244 -0.1681481
  0.14488107  0.0930038   0.24192725  0.04846459 -0.19139668 -0.04458473
  0.05717292  0.01476501 -0.09359525 -0.19358553  0.12186204 -0.27875036
  0.20257361  0.16634646  0.14140907  0.09166989 -0.0071419  -0.1665157
  0.1778066  -0.12048174 ]
[ -0.08603489 -0.00219292  0.24095418  0.32003778  0.2883308  -0.2567547
  0.09500431 -0.32535124 -0.13158718 -0.3227133   0.28188643 -0.05204912
  0.06887835 -0.03161514  0.26445845 -0.27192545 -0.14776975 -0.11358106
  0.01752521  0.1409468  -0.26814485 -0.11723104 -0.00947859 -0.14225885
 -0.1371674  -0.23678327  0.06810519  0.4020159  -0.16840255 -0.100426
  0.10825837  0.2176129 ]
[ -0.1987216  -0.06304189 -0.16006586 -0.09336102  0.1602924  -0.00966471
 -0.42094395  0.12202684 -0.12854806 -0.22836888  0.13273734  0.00302889
 -0.23994204  0.08527642  0.16852084 -0.06420285  0.32152745  0.07245579
  0.04208568 -0.08320433 -0.21319005  0.24640958 -0.00230976 -0.00855692
  0.07579959 -0.02763039 -0.24163553  0.17874083 -0.06914907  0.2658842
 -0.4045992   0.24992271 ]
[ -0.06669906  0.15210076 -0.09169992 -0.04913041 -0.09978788 -0.1768672
 -0.17659234  0.06866019 -0.05749746 -0.15668607  0.03982205 -0.11235739
 -0.13831389  0.0082097   0.02349585 -0.13272803 -0.05972317 -0.29350117
  0.07424025  0.3171236   0.07397242  0.0940043  -0.21563248 -0.09214731
 -0.15134466 -0.2562121  -0.32994306 -0.00875643  0.07191541 -0.12886813
  0.13949697 -0.0693747 ]
[ -0.1765009  -0.08079031 -0.28225082 -0.15356116 -0.19071518 -0.26250723
 -0.27174     0.05761058  0.0750537   0.16618533 -0.08535159  0.11508581
  0.16864777 -0.13437209  0.2108529   0.18949069  0.17679308  0.28499845
  0.22315279  0.34642664 -0.07789514 -0.02078776  0.11512032 -0.23635066
 -0.36717632  0.12125957  0.0196879   0.1582966   0.00459581 -0.36130956
 -0.07375368  0.29064047 ]
[ 0.04182079  0.18373778  0.24106805 -0.00480686 -0.22396432 -0.01518586
 -0.06381636  0.04413536 -0.03217095 -0.04223542  0.07220598  0.136009
  0.11161458  0.28473222  0.07750154 -0.22139421  0.14478187  0.03929046
  0.04853512  0.036472   -0.10149475  0.21967421 -0.04574898  0.06444718
  0.18269797  0.25883788 -0.17270096 -0.04990843  0.2847022  -0.17676158
 -0.16855681  0.15271442 ]
[ 0.10644482  0.03106239  0.06392091 -0.23270579 -0.2745541  -0.14966848
 -0.22327067  0.01597582  0.02143221 -0.31129202 -0.16038752  0.0410159
  0.14914648  0.13695034  0.07664929  0.10341669  0.07044176 -0.45888522
  0.2844254  -0.20658785  0.03873378  0.46449223 -0.12690009 -0.08240765
 -0.19900243  0.03032364  0.19299152 -0.06466752 -0.29661065 -0.01186513
 -0.2957932   0.1117281 ]
[ -0.20327136 -0.06557897 -0.06633072 -0.1969512   0.10356876 -0.03687759
 -0.23624448  0.19929019  0.30817035 -0.2441499   0.18576933 -0.06813204
 -0.17982818 -0.2159456  -0.05998699  0.31007367  0.26891798 -0.19890624
 -0.01010542  0.18590899  0.02329472 -0.10000004  0.3254527   0.02123095
 -0.2973017   0.32603016 -0.2641865  -0.06558762  0.03973322  0.08629102
 -0.30071178  0.17880325 ]
[ 0.18008634 -0.2818128   0.16025431 -0.1650416   0.27172756 -0.09689876
 -0.17944501 -0.4289035  -0.1443834  -0.1469399   0.13993639  0.24282826
 -0.35613802 -0.06230476  0.22057304  0.14834653 -0.00241849  0.28625715
 -0.09518208  0.40928662 -0.36550152  0.00515595 -0.06856465  0.13338812
  0.2312623   0.1454062   0.18549603  0.2934453  -0.37978023 -0.39049804
  0.11715002  0.29479665 ]
[ -0.42173383  0.30207497  0.0494048   0.10797429 -0.01304225 -0.07413508
  0.00919743  0.28738728  0.15111677 -0.14480646 -0.15043752  0.2489129
  0.0635532  -0.02600434  0.06224804  0.04382519  0.14203025 -0.28972793
  0.04337234  0.05425279  0.06530059 -0.02470987  0.19412735  0.19377716
 -0.02134919  0.23130292  0.11947747 -0.34571704  0.09094882  0.3729828
 -0.06333217  0.07227354 ]
[ 0.0923706  -0.22700763 -0.21573713 -0.28833893  0.04917637  0.25421536
  0.19863059 -0.00903264  0.10467375 -0.07634787  0.29182363 -0.20531894
  0.08476018 -0.06964986 -0.0386756  -0.13291599 -0.0113971  -0.40770146
  0.03846459 -0.4899093   0.21060745 -0.02205654 -0.11970638  0.01729216
  0.27045804  0.05905958 -0.13018024 -0.31521246  0.20257008  0.06819651
  0.34321976 -0.01143897 ]
[ -0.05923209  0.14537022  0.16170308  0.0586801  -0.15695387  0.11437175
 -0.19419748  0.10467726  0.19015774 -0.00175408  0.07109195  0.13351479
 -0.08931439 -0.00026058 -0.0908071  -0.07877393 -0.0013148   0.10300948
  0.2269175   0.03496233 -0.12777027  0.17387627  0.06423601  0.20933045
  0.03115207  0.0967547  -0.10996456  0.01694986 -0.11323303 -0.15531683
 -0.02460186 -0.05068005 ]
Activation
relu
Dense
32 32
[ -0.07198515 -0.10857145  0.08746082 -0.09321997 -0.1179979  -0.25582922
  0.12564656  0.24980935 -0.09288178  0.226301   -0.06904255 -0.01931429
 -0.14665036  0.16082613  0.02492197  0.17932951  0.02522263  0.23643237
  0.16550829 -0.00549348  0.34315866  0.27876762  0.20827079  0.27171993
 -0.11341316 -0.25191367  0.01067198 -0.2086369  -0.19908908  0.20677061
  0.12082014  0.1763508 ]
[ 0.26172632  0.12406186  0.21496631 -0.01200445  0.29821083 -0.02953839
 -0.09029736 -0.17799842 -0.09795641 -0.22322518  0.31834182 -0.20036176
 -0.06772862 -0.18984339 -0.26455486  0.24586512  0.11021807 -0.08551844
  0.3390945   0.0835649   0.2494321  -0.16478123  0.28186527  0.19696806
  0.09448239  0.14824142 -0.2954472   0.19047455 -0.05302337 -0.12453475
  0.18448582 -0.06465423 ]
[ 0.07219309 -0.0186482   0.06447329  0.1862022   0.03840269  0.0049999
  0.13849863 -0.07960871  0.23588325 -0.22464521  0.2547821  -0.14658187
  0.13162437  0.24770404  0.1270847   0.01076101  0.31387678 -0.13736917
 -0.20614602  0.10541709 -0.00919267  0.03461225 -0.03874778 -0.04230767
 -0.05537241  0.26604262  0.03164241  0.28482726  0.2696558   0.13797273
 -0.12995906  0.24642359 ]
[ 0.23642708 -0.11578446 -0.17129983 -0.17511918  0.09165293 -0.26789498
  0.28876814  0.15646555  0.22256877 -0.2583972   0.15374339 -0.3039917
  0.20969382 -0.1873587  -0.2223222  -0.11967015 -0.25100696 -0.21888797
  0.17558675 -0.13051265  0.24142136 -0.03495246  0.04388269 -0.27130932
  0.20289974  0.1845074   0.14237443  0.24889936 -0.18072559  0.21154676
  0.1199047   0.13768761 ]
[ -0.2574999  -0.21915571 -0.33444852 -0.09485973  0.04369918  0.07649715
 -0.19577105  0.12248063 -0.05351703  0.061414   -0.00642744  0.19193964
 -0.10879629 -0.0532587   0.15726283  0.09643005 -0.06434274  0.27424064
  0.05328417 -0.1055684   0.03447589  0.14669228  0.1377277   0.00577763
 -0.07766049  0.25146905 -0.08735052  0.01989184  0.15768597  0.11683953
 -0.17415367 -0.20457666 ]
[ 0.03926933 -0.04559287  0.05412185 -0.32404715  0.16868408  0.06386551
  0.12149595 -0.22128364  0.16843016 -0.05474627  0.2557366   0.04799356
 -0.25636858  0.30482495  0.13230056 -0.19330402  0.16055945 -0.0757148
 -0.08182882 -0.10521375 -0.01373397 -0.13900155 -0.08106116  0.2927376
  0.22679776  0.31578505  0.28210798  0.05266679 -0.06844391  0.2152205
 -0.19668946  0.11265601 ]
[ 0.08967235  0.13721372  0.16849452  0.06674093  0.25015908  0.21279712
  0.23703206 -0.11555173 -0.0783054   0.21621703 -0.0782465   0.09674582
  0.25928897 -0.27691895 -0.16879615 -0.25676924 -0.14080222  0.22466888
 -0.14833644 -0.08279422  0.3190067  -0.08680019  0.25390884 -0.24792264
  0.07272913 -0.00522327 -0.1651661  -0.1472306  -0.03572282 -0.01557625
 -0.13241945 -0.102902  ]
[ 0.07129519  0.41425273  0.06453203 -0.0712556   0.05318413  0.07716967
 -0.27080458 -0.17802337 -0.14827107 -0.00906415  0.18020138  0.00601409
  0.15577458 -0.11506988  0.03558142 -0.0629946  -0.36454925 -0.1914911
 -0.13695878 -0.17354621 -0.14208272 -0.3279763   0.3330862  -0.20030664
  0.31228814 -0.18531582 -0.4273382  -0.06087776  0.15738732  0.22856009
  0.3146821   0.02869759 ]
[ 0.3176009   0.1785706  -0.14113393  0.15703866 -0.23347129  0.12423566
 -0.1788934  -0.00617432  0.19065876  0.25184256 -0.03668889 -0.26767704
  0.06117138  0.18707706  0.06669702 -0.14803158  0.07083116 -0.265834
  0.28887543  0.21101351  0.3323246  -0.22444266 -0.13839003 -0.11264122
 -0.00784068 -0.17734295  0.1724404  -0.0465195  -0.19268599  0.08996296
 -0.23522958  0.10316466 ]
[ 0.0959754   0.22847655  0.02610969  0.3224885  -0.16401027 -0.21948169
 -0.15092939 -0.17827153  0.12700737  0.22862323 -0.05629713  0.06842033
 -0.01617091  0.00510427  0.15411785  0.02642164  0.21629468  0.15880151
 -0.19719741  0.35181284 -0.16409788 -0.1682877   0.20624754  0.22778252
  0.134674   -0.2209893  -0.05936383  0.2089661   0.08372122  0.2916989
 -0.02171897  0.01573455 ]
[ 0.2497181   0.14567806 -0.1673091  -0.15619951  0.10584758 -0.09202997
  0.23530678  0.12281317  0.12364206 -0.17460883  0.21601619 -0.10220101
 -0.15008466 -0.00061863 -0.12844504 -0.15571298 -0.12804039 -0.1655129
 -0.12596665 -0.04060521  0.00117776 -0.12087712 -0.09818386  0.21199606
  0.29887012  0.12943193  0.20947722  0.08680395 -0.00435339 -0.09321003
 -0.24926215  0.25153157 ]
[ 0.16427383  0.08030276  0.09421761 -0.13207439  0.00826795  0.22009234
  0.11186755  0.16503373  0.20040818 -0.24935272  0.17074652 -0.26731524
 -0.10841848 -0.26406884 -0.30975965 -0.16536616  0.00593604  0.11665834
 -0.07564057  0.12443935  0.1920072  -0.11473976 -0.19607836 -0.18476987
 -0.05671688  0.01690003 -0.10363925 -0.3219593  -0.24139245 -0.15770896
  0.26761395  0.29944894 ]
[ -0.3452704   0.1647526   0.00917523  0.37024364  0.16241813  0.05767403
  0.15828323 -0.13080828 -0.01213962  0.21083921  0.2528721   0.23370336
 -0.13802916 -0.24757788  0.15583125  0.12734877  0.07367261  0.06817044
  0.041568   -0.13266055  0.1258904  -0.25479782  0.2978037   0.06465164
  0.24453355  0.08738842 -0.33938828 -0.15351698  0.24107872 -0.08977894
  0.17045139  0.11874964 ]
[ 0.07234131  0.07032318 -0.05171995  0.22940217 -0.04839496  0.04882454
 -0.12907267 -0.16317229  0.29530415 -0.11914402 -0.12479699  0.25819078
 -0.20595884 -0.1430099   0.1273063   0.20269047 -0.22386812  0.20091861
  0.15366971 -0.11770378  0.01554254  0.2525159  -0.00742292  0.1877546
 -0.13654985 -0.03399523  0.23052257 -0.25235158  0.21937059 -0.28884944
  0.05182346 -0.11317556 ]
[ -0.12896958  0.09043571  0.29410887 -0.16828422 -0.05215061  0.05542091
  0.03658115  0.00037652 -0.2266367  -0.13114747  0.16227078  0.1121856
 -0.2551749  -0.1827806   0.00546302 -0.18378057 -0.01455363 -0.1206691
 -0.2711083   0.17042579 -0.05661739  0.29996547  0.11092038 -0.21022575
  0.24697903 -0.06038114 -0.12267115 -0.17263852  0.06361718  0.06952665
  0.00526051 -0.15067099 ]
[ 0.08740868  0.11884502  0.00068671  0.20036568  0.23562494  0.0203958
 -0.10292356  0.21503153  0.2403021   0.22718146 -0.0853495   0.26063308
  0.16063839  0.29997098 -0.20783404 -0.10933602 -0.09294248  0.02042309
 -0.09639854 -0.16970523  0.29859948  0.26650652  0.14713658  0.26815277
  0.07818758  0.03177254 -0.05333024  0.20494808  0.2680415   0.11962261
  0.28261897  0.09929056 ]
[ 0.30616716  0.20969269 -0.06778584  0.27515498  0.18742353  0.12741725
  0.068907    0.15874639  0.230984   -0.03057377 -0.17266577  0.04551075
 -0.19536373 -0.17333862 -0.32912707  0.11526369  0.26137114 -0.20358916
 -0.05930276  0.18532307 -0.01718016  0.07566587  0.08498608  0.09332076
 -0.29137957  0.1152084  -0.10162438 -0.22115028  0.16082585  0.1604524
  0.26922065  0.06124198 ]
[ 0.08538281 -0.32141438 -0.29714465  0.11322932 -0.14582917  0.09608577
 -0.09785557  0.39496273 -0.29957888  0.04783389  0.01810385  0.20585053
  0.15160428  0.21834423  0.00204627  0.19440536 -0.39505228  0.253063
 -0.17970957 -0.01204574  0.2905514   0.22102827  0.14773612  0.29170105
  0.22046441 -0.20448563  0.36748567  0.3238473   0.25019333  0.10527869
  0.00829246 -0.1318375 ]
[ 0.19627558  0.21571976 -0.07821921 -0.20586476  0.13738066  0.15985674
  0.1027221   0.22460607  0.05481733  0.04615399 -0.17817059 -0.04129991
  0.20207843  0.26974493 -0.26866806  0.3977316  -0.0390071  -0.29709122
 -0.07137621  0.34733748  0.08584813 -0.19104412 -0.12510864 -0.22321878
 -0.12192489 -0.0339866   0.3429698   0.03010326  0.08310336 -0.29443893
  0.02499435  0.16256146 ]
[ -0.10310974  0.14222567  0.09131145 -0.17499313 -0.04398697  0.09238902
  0.29196826  0.24712573  0.00313907 -0.27468267  0.0316765  -0.2707511
 -0.1571293   0.06476813 -0.14394483 -0.02544454 -0.1514757   0.3445182
 -0.02078124  0.29935285  0.14985771  0.1967026   0.05558161 -0.29372582
 -0.3851219   0.23935662 -0.17484254  0.03752296 -0.10887329 -0.12514743
  0.01350897 -0.03581828 ]
[ 0.07761383  0.22950487 -0.38959974 -0.04549672 -0.02673655 -0.34022763
  0.26457652  0.09782056 -0.00184732  0.02383619 -0.34924707  0.1158959
 -0.18795706  0.04190377 -0.32612675 -0.14343111 -0.06678635 -0.11000457
 -0.06947161 -0.2932872  -0.1842965  -0.11200088  0.48344845 -0.28476623
  0.14003232  0.16759458  0.08493488 -0.04890839 -0.2546729   0.17644994
 -0.17060977 -0.14649542 ]
[ 0.22854596 -0.07354957 -0.03380896 -0.27806893 -0.25933927  0.18311879
  0.21804245  0.14858817 -0.25227222 -0.20395762 -0.26768693  0.08263104
  0.31585947  0.28690198 -0.0969918   0.11215777  0.2702387  -0.08575843
  0.24837889  0.261574    0.08190882  0.18402113  0.0416568   0.2751323
  0.1443913  -0.23609586 -0.06948438  0.05562694  0.14951672  0.12367097
  0.24567063 -0.19847786 ]
[ 0.25850844  0.09932928  0.11446839 -0.11628345  0.32239133 -0.3330369
  0.14021955 -0.00285874 -0.3385724   0.38003072  0.10548351 -0.23435284
  0.20905964  0.11154748  0.24264757  0.2562543  -0.18747976  0.28731322
 -0.2802068  -0.02064671  0.27390724 -0.13107175  0.05527645 -0.1824093
 -0.08408698  0.1921248  -0.27987343  0.10177555  0.04449815  0.11606865
  0.15747634  0.12025351 ]
[ 0.28094816  0.21503757  0.30250096  0.00477807 -0.2810641   0.25357527
 -0.23630896 -0.19800386 -0.08175218  0.09061575 -0.22107473 -0.10859885
  0.23617882  0.10101188 -0.1892404  -0.20267636  0.01191887 -0.17275466
  0.19573268  0.17223786  0.05833609 -0.2649206   0.15086241  0.16151983
 -0.05070635  0.10688692  0.09620856  0.06308008  0.0695618   0.28133985
 -0.05181568 -0.22360635 ]
[ -0.13212831  0.19779845 -0.12374185  0.13019387  0.20333137  0.21931334
 -0.13367602 -0.20519297 -0.08807781  0.24487525 -0.20640483  0.07438383
  0.30766904  0.06441554 -0.3566164  -0.13293341  0.22822739  0.2355937
  0.29701626  0.36014724  0.01175755 -0.00913925 -0.05186914  0.26428568
  0.19701277  0.03249016  0.337562   -0.24157843 -0.2355852   0.18927836
  0.2057285   0.06008421 ]
[ 0.11700855 -0.20730232 -0.05493643  0.02844955 -0.1802884   0.18582326
  0.11964192 -0.06414845  0.07569661 -0.16553694  0.23619321  0.06391022
  0.20096466 -0.24609712  0.21978843  0.32323793  0.0259952  -0.09318592
  0.25929734 -0.12576607  0.16651054  0.0074073   0.14926851 -0.15929343
  0.29812247  0.15239644 -0.04684624  0.00189965 -0.23613438 -0.04489917
  0.20234214  0.17278741 ]
[ -0.04334332 -0.04735696 -0.24812412  0.27153304 -0.29383364 -0.20656206
 -0.01828735  0.40545037  0.31960875 -0.06387454 -0.07665209 -0.00147723
 -0.3373023  -0.20859464  0.1030058  -0.1559304   0.04207087  0.2978574
  0.1734064  -0.3129973   0.08781223  0.01413813  0.30720365 -0.07473829
 -0.2834783   0.09738344 -0.0634961   0.14408383  0.07857218 -0.23665385
  0.05818989  0.07211367 ]
[ -0.15213507 -0.01852434  0.26857477 -0.15101513  0.25237948 -0.10756358
 -0.15206304  0.0928819   0.23515546  0.14275707 -0.33108222 -0.15474395
  0.05218388 -0.18223387 -0.12986912 -0.08832932 -0.06127903  0.2636276
  0.2797442  -0.05660406 -0.20645103  0.3833183   0.09544458 -0.07256526
  0.01551448  0.08203801 -0.02773155 -0.02115936  0.22838463  0.2940911
  0.20837569  0.21187605 ]
[ -0.19865113  0.12263291  0.07850493  0.03840018  0.14468679 -0.23473155
  0.06995618 -0.17471714 -0.25353944  0.12479715 -0.11294874 -0.1629803
 -0.2288675   0.08523079 -0.27799648  0.06871706 -0.19071074  0.01661936
 -0.24250382 -0.18068203 -0.14231364 -0.30880708  0.19331576  0.09377346
  0.0529939   0.2053059  -0.16143607  0.06495557  0.29247162  0.05113675
 -0.13773936 -0.28616568 ]
[ -0.10694888  0.34307337 -0.2925104  -0.19668424  0.35383642  0.00329551
  0.22121462 -0.20732568 -0.2278765   0.26150376 -0.13644265 -0.33601904
 -0.24120115  0.09324293  0.07999086 -0.00455788  0.00193063 -0.08075289
 -0.06892306  0.00701476 -0.3122561  -0.26395664  0.29651234  0.26658818
  0.3845517  -0.2766437   0.09434821 -0.14022255 -0.293224   -0.15559962
  0.22158152  0.0250744 ]
[ 0.29113376  0.1854705   0.02426376 -0.10849421 -0.2539466  -0.32440215
 -0.14999828  0.35112944  0.2642062  -0.06665141 -0.22716439 -0.30610424
 -0.1333635   0.15676953 -0.09965034  0.3071394  -0.10352243  0.26324323
 -0.42070773 -0.13526504  0.11835385 -0.09596448  0.20036528  0.20418406
  0.17811097 -0.10146837 -0.20490433 -0.04441796  0.03328935  0.23000577
  0.17948972  0.03576163 ]
[ -2.57720530e-01  4.61198688e-02  1.01578800e-04  2.78647035e-01
  1.83206588e-01  2.24747971e-01 -6.04577027e-02  2.08384886e-01
  1.26740202e-01  2.05932528e-01 -2.28659019e-01 -2.06005380e-01
 -4.16115597e-02 -1.41429231e-01  2.03926265e-02  1.09259680e-01
 -1.93327874e-01  3.13486867e-02  2.80902982e-01  1.52511314e-01
 -1.38745219e-01  2.62393862e-01 -2.13372603e-01  1.23589255e-01
 -1.71737179e-01 -1.81133553e-01 -2.50779271e-01 -2.23435953e-01
 -2.59408783e-02  2.81093955e-01  2.52960026e-01  2.67589957e-01 ]
[ 0.11990918 -0.02028077  0.09488892 -0.08810577 -0.16681321 -0.01433428
 -0.04858454 -0.02860428  0.05350737 -0.09133125  0.13697013  0.01311335
  0.14283803  0.12540437  0.02988705  0.13514447  0.18103337 -0.07530393
  0.16095     0.25975373  0.17242597 -0.03088683 -0.14962786  0.12425461
  0.03906429  0.10638215  0.21735156  0.12727727  0.10212033 -0.05109907
 -0.05939201  0.06384333 ]
Activation
relu
Dense
32 32
[ 0.09599635 -0.06983079  0.2751154   0.17304812 -0.07631755 -0.24620381
  0.15151602 -0.32921052  0.33375448 -0.11215501  0.18028282  0.04090544
 -0.01389165 -0.20618837  0.11508415 -0.35480723 -0.05755551 -0.20315564
  0.17484386 -0.09393688 -0.13015881 -0.21438423  0.3114826  -0.03301174
 -0.02849774  0.1798973  -0.12392025 -0.04257442  0.2689634  -0.2337769
  0.26689127 -0.35175633 ]
[ -0.13679715  0.05070686 -0.09935346 -0.04662584  0.13840052  0.13042393
  0.19741978 -0.09102005  0.09234531 -0.1513123   0.16130538  0.19574714
 -0.38757625 -0.26968417  0.35621592  0.21349324 -0.05844434  0.3111181
 -0.22181442  0.42686602 -0.05183154  0.20560358  0.18045294  0.06389634
  0.00539088 -0.14924632  0.33156478 -0.07019739  0.14946547  0.17442007
  0.06347232  0.24471237 ]
[ -0.11901875 -0.10947878  0.02885115 -0.17044196 -0.02969676 -0.05187945
 -0.17600113  0.07521275  0.23653765 -0.07556578  0.32159    -0.2566509
  0.34736377  0.12312055  0.03394347  0.16044615 -0.12203265 -0.19745108
  0.3221983  -0.00816424 -0.00187297  0.14299084 -0.01865178  0.00862631
 -0.22587922  0.00538365  0.12224749  0.13153458  0.32053274  0.31521723
  0.10600638 -0.221017  ]
[ -0.25840446 -0.26965284 -0.00474218 -0.00518596  0.04232325  0.34553906
 -0.1393652   0.15319239 -0.01069294 -0.0303894   0.15081592  0.27962747
  0.18532017 -0.28668314 -0.07630276 -0.18117814  0.04555827  0.12728511
  0.00529959  0.0939996  -0.26677808 -0.31056133 -0.24398853 -0.05064595
  0.15311871 -0.33804148  0.10739335 -0.12171957 -0.01881235 -0.2653606
 -0.27465084  0.14422745 ]
[ 0.04217505 -0.30226696 -0.24884571 -0.17630029  0.33169153  0.16019683
  0.3201555  -0.16288887 -0.19400884  0.08864264 -0.20549777 -0.17401652
  0.20247164  0.03341427 -0.24962115 -0.24808432 -0.04789059  0.09060668
  0.13135636  0.10443029 -0.18161507 -0.12215932 -0.29659837 -0.19095685
  0.14687987  0.06884108 -0.05827947 -0.13922605 -0.21398127  0.2398947
 -0.15396532 -0.08627496 ]
[ -0.13005272  0.07853445 -0.11949431 -0.19534576  0.00960147 -0.11641865
 -0.18608329  0.07489951  0.26943234 -0.31229776  0.13309042  0.06314722
 -0.08898457  0.09821258 -0.22870456 -0.3311297  -0.06481458  0.1565741
 -0.1919482  -0.18111265  0.26093653 -0.23730366  0.09391017 -0.10709088
 -0.10531754 -0.12251987 -0.03187344  0.14382051  0.14217088 -0.12414119
  0.18098314  0.13344735 ]
[ -0.17428991 -0.31792253  0.16750443  0.07637767  0.25159577  0.18899429
  0.17476323  0.17660663 -0.02513769  0.06332631  0.01472928  0.02854946
  0.284228    0.22756137 -0.122664    0.12386499 -0.01016736 -0.16455467
 -0.2119214   0.08572819  0.16085657  0.04200222  0.23813878 -0.16504148
 -0.00084854 -0.16052975  0.02406221 -0.02077263  0.14354342 -0.10352349
  0.07035262 -0.26091793 ]
[ -0.3285328  -0.02497014 -0.20970327 -0.18163261  0.1455155  -0.14017752
 -0.42756724 -0.07839949 -0.24965723  0.01828443  0.1773198   0.28239316
 -0.3300799   0.36301914 -0.29879615 -0.19602491  0.06931422 -0.27576894
 -0.14301598  0.22175662  0.20602056 -0.16236748  0.11999708  0.04746273
  0.38283858 -0.29700938  0.07404727  0.06632584  0.10834184  0.05700776
 -0.16572261  0.00564079 ]
[ 0.13584863  0.16640942  0.09545159 -0.02183306 -0.20989385  0.16778421
  0.06540942 -0.1156577  -0.00997284  0.18529314  0.23561361  0.11376742
 -0.03995638  0.26619202  0.24297135 -0.19176053  0.23719658 -0.25522858
  0.13213223  0.07362454  0.2862777  -0.29395843 -0.03667618  0.16622433
 -0.07713795 -0.12077293  0.04681121  0.16377282 -0.14360498 -0.09414148
  0.08648926 -0.07565418 ]
[ -0.01392612  0.0600721  -0.0882015  -0.2829797   0.30208233  0.26031816
  0.3491195   0.03332056 -0.23690516  0.16032971  0.20676307  0.0007856
 -0.1305947   0.24215624  0.3299765  -0.18469062 -0.12022216  0.12363692
 -0.25005937  0.22328551 -0.05515725 -0.17030415  0.14716509 -0.13613485
 -0.25797027  0.14111331  0.2903721  -0.27369207  0.15202807 -0.3057599
  0.0421084   0.11774649 ]
[ 0.06758545 -0.02843416  0.27733806 -0.27784005 -0.1576377   0.16665386
  0.10442933 -0.11029863  0.1585456  -0.0782892  -0.20466642  0.08840775
  0.26835477  0.03769795 -0.23341796 -0.11475269  0.21643505 -0.1674946
  0.25114286  0.3007977   0.24345884  0.18747303  0.03499884  0.10825349
 -0.2873869   0.23313549  0.10455661  0.08387727 -0.01229359 -0.17567165
  0.17797713  0.09894612 ]
[ -0.23261087  0.08591173  0.33056226 -0.07868272 -0.11528475 -0.3180338
  0.10769423 -0.18577223  0.22638662 -0.25908014 -0.01639741  0.15080139
  0.24577676  0.18518907  0.30550382 -0.07717265 -0.27610093 -0.15419689
 -0.02911686  0.24332233 -0.09584882  0.01482736  0.16058667 -0.24458702
 -0.24819392  0.25803778 -0.18777378  0.24842852  0.25341064  0.2367802
  0.28291306 -0.2420566 ]
[ 0.316743    0.13728833 -0.00460607 -0.09582679 -0.15610972  0.30617055
  0.29508722 -0.10867747 -0.13692193  0.28389978 -0.13485572  0.06400463
 -0.02617349  0.01326042  0.24830374  0.17768382  0.05141624  0.03878525
  0.1993779  -0.23419775 -0.24167924  0.13544     0.2460954   0.25031298
 -0.21579294 -0.1322377   0.259571    0.10648488  0.12623222  0.30592725
 -0.17603777 -0.07212266 ]
[ -0.0131854   0.1108872  -0.06103275 -0.29085487  0.00934935  0.14935477
 -0.09517704 -0.24296837  0.32119936 -0.00380142 -0.13104558  0.21491626
  0.15318386 -0.21175718  0.01301834  0.10125847 -0.18867093 -0.01911149
 -0.04165237 -0.1294423   0.10293012  0.1389173  -0.05736031 -0.09690324
 -0.2006517   0.15725219  0.21007049 -0.0358147  -0.11381768  0.14278388
 -0.3458546  -0.02068188 ]
[ -0.13538162  0.22293024  0.07809626  0.1026082   0.04582193  0.12540226
 -0.2572278   0.1845419   0.18098289 -0.01705801 -0.00944394  0.19762236
 -0.05184034 -0.2306495  -0.1971236  -0.06945455 -0.14626111  0.18580963
  0.03802288 -0.14154992  0.27437726  0.13096061  0.19419493 -0.23244539
 -0.00159878  0.29139748  0.32678676  0.21345769  0.16764314  0.21587719
  0.25995085 -0.06590167 ]
[ 0.33289987  0.34618518 -0.17580853 -0.0337739  -0.14739653  0.31486768
  0.22953594 -0.26688632  0.00209008  0.00806648  0.12242591  0.26440325
  0.21854974 -0.16827315 -0.159117    0.22544265  0.13955413 -0.12581882
  0.37358615  0.04627765  0.06422883 -0.29642162 -0.05741801  0.15894175
 -0.09823043  0.2843457   0.03528574  0.34220213 -0.06595975  0.23595797
  0.18719396  0.26496056 ]
[ 0.21538971  0.32923117 -0.31110403 -0.21223764  0.18259788 -0.22291443
  0.08939779 -0.1129166  -0.09968426 -0.20664902  0.06634186 -0.29262042
 -0.06042293 -0.24523136 -0.13813621  0.23402065 -0.06532229 -0.04535722
  0.02252023 -0.03867127  0.3256395   0.07145857  0.15992837  0.21520622
  0.17296745  0.12560754  0.18192561  0.35466424  0.11040854  0.29220393
 -0.05746766  0.06934187 ]
[ -0.14191979  0.13805826  0.16795073 -0.2027413   0.23386812  0.26303995
 -0.38560456  0.02947004  0.10084917  0.19687068  0.02981301  0.2519255
 -0.00138759  0.16006137 -0.12477475  0.15940747  0.2906474   0.2597561
  0.00495803  0.00886832 -0.21278931  0.14873917 -0.24673223  0.05230943
  0.28515673  0.01028059  0.06105541 -0.24004385  0.05637147  0.12309103
  0.3166533  -0.1908239 ]
[ -0.08316574  0.06976416 -0.2097182  -0.05042794 -0.08446654 -0.0585095
 -0.4022337  -0.09592479 -0.12308886  0.0689126   0.0291869  -0.18831617
  0.27737895  0.11185581  0.24389432  0.21977107  0.10183997 -0.10733355
 -0.11495519 -0.21826625 -0.02607234 -0.10379639  0.24637839  0.18272616
  0.05832628  0.20930271 -0.25836918 -0.07097542  0.15903914  0.34863457
  0.05865968 -0.29766905 ]
[ 0.29486057  0.17409894  0.01370921 -0.16202538 -0.02078491 -0.16914076
  0.00257647 -0.01452944  0.19313586 -0.24503933 -0.05046496 -0.3707835
  0.26709008 -0.19938165 -0.14323966  0.01698905  0.14342517 -0.38053992
  0.3289308   0.11720899 -0.08812051 -0.25801998  0.21593803  0.26751378
  0.12247873  0.49170303 -0.06796511  0.37201118  0.29918784 -0.09675709
  0.03172349 -0.18484278 ]
[ -0.08565066 -0.17026687 -0.2633055  -0.2642768   0.25755814  0.00739306
 -0.15462278 -0.14491816 -0.02955826 -0.02601155 -0.09830029 -0.04511264
  0.10768846  0.11102443 -0.32376155  0.10219128  0.22813669  0.26192886
  0.2088272  -0.01698789  0.2774445  -0.17665225 -0.01440937  0.23738603
  0.09015602  0.34982663 -0.29728007 -0.055356    0.13295713  0.20589988
 -0.33553055 -0.21725029 ]
[ -0.12279482  0.08195314  0.02737552  0.22715724 -0.10575286  0.42678916
 -0.11651748  0.3860633  -0.46342438 -0.01885488 -0.21020576  0.26494285
 -0.22477648  0.20921005  0.06253431  0.36062974  0.35446566  0.29190674
 -0.14722556 -0.0506807  -0.37974912  0.10466943 -0.23570143 -0.44249767
  0.4302686  -0.48365864  0.4247545  -0.05923957 -0.2487734  -0.41940445
  0.24276324  0.33554953 ]
[ 0.07751335 -0.28151113 -0.04925094  0.098308    0.22344433  0.17294633
  0.2689802   0.09223913  0.17713381  0.35590217 -0.29334483 -0.00169201
  0.15569463 -0.27931267  0.00948387  0.0151108  -0.26566187  0.3407178
 -0.08396074  0.05504961  0.21591447 -0.20567796 -0.16949195 -0.31924847
 -0.13107331 -0.26958588  0.34232703  0.08393993  0.02951461 -0.35217598
 -0.13638335  0.0388827 ]
[ 0.11951229  0.0073396  -0.0683659   0.17034921  0.08459731  0.19739437
  0.08821618  0.07784242 -0.01478166 -0.08052308  0.1265079   0.27916875
  0.2584096   0.00890118  0.28780755 -0.00349899 -0.01600308 -0.05233954
 -0.09438632  0.16974065  0.20911725  0.2100406   0.10393141  0.23995255
 -0.20729327  0.0686513   0.08147231  0.2176401   0.26653776  0.23672393
 -0.03369032 -0.09434636 ]
[ -0.29185882 -0.06308573 -0.03425816 -0.1444298   0.01367656  0.02131778
  0.46560574  0.09281103 -0.32987335  0.281237    0.1768499   0.00476474
  0.04072328 -0.291981    0.03970907 -0.24962884 -0.07326531 -0.18536086
  0.21468928  0.01507034  0.17677373  0.10050549 -0.10518942  0.09227815
 -0.3597181  -0.08412937  0.06620886  0.10096829 -0.25941753  0.09726557
  0.37027642  0.38952178 ]
[ 0.1868764   0.2872964  -0.05205743 -0.03300431 -0.26580662  0.1965332
 -0.07129484  0.0239086   0.153171    0.17868435  0.09231539  0.30016884
 -0.27860838  0.13376972 -0.25029966 -0.07936892 -0.20939952  0.32097965
 -0.10252745  0.04131414  0.11367632  0.0255187  -0.01591085  0.22222216
 -0.09159835 -0.27136716  0.2295296   0.30735853  0.28154814  0.01220413
  0.09012158 -0.03721859 ]
[ -0.12968802  0.17491852  0.03548156  0.08090828  0.02218383 -0.31639323
  0.17032102  0.15078722  0.29978928 -0.3098621   0.1290184  -0.33225942
 -0.11477671 -0.10115259 -0.10201682  0.0563626   0.05167965  0.0294436
  0.15379894 -0.11242282  0.34314933 -0.20809697  0.12342148  0.3284974
  0.11722221  0.1159174  -0.28228953  0.41193792 -0.02213632  0.32883844
 -0.08016173 -0.21719931 ]
[ -0.06429797  0.18326934 -0.26819676 -0.3209485   0.20280352 -0.04294674
 -0.04250406 -0.17369449  0.22108176 -0.23147982  0.28900146 -0.13219406
  0.10816664  0.05229104  0.02689729  0.07848707 -0.2964278   0.03089344
 -0.15702939  0.15860358  0.25276238 -0.25522053 -0.1452054   0.01912085
  0.29115617  0.22812432  0.10689119 -0.23835455  0.32606527  0.12301122
 -0.3379824   0.0369488 ]
[ 0.03845277  0.16690417 -0.1415565   0.03167695  0.02013637  0.04189968
  0.06433168  0.0080485   0.22653398  0.0944495   0.11628598 -0.10905157
  0.18977405 -0.0079893   0.04305966  0.26792243 -0.09267223  0.00552385
 -0.13847794 -0.06116797  0.02239381  0.10559036  0.04859922 -0.02631938
 -0.2566584   0.30796885 -0.0397286  -0.24840687  0.10370309 -0.0177852
 -0.28841698 -0.05234701 ]
[ -0.07382854  0.25069064  0.12084276  0.22887969  0.25499588  0.08443303
 -0.0294564   0.26949546  0.16055009  0.08868454 -0.10972051  0.05974054
 -0.21927194  0.22462222 -0.10912538 -0.06115053  0.0516731   0.16697446
  0.2772962   0.28916386 -0.05713379 -0.229902   -0.18568194  0.03012212
  0.1683054  -0.00806768  0.21049343 -0.07556644  0.21789996  0.14094841
  0.28754115  0.23151056 ]
[ -0.03316534  0.05283171 -0.06618953 -0.24828666  0.00264699  0.1139992
 -0.07182764  0.14169575 -0.17421326  0.27453417 -0.14982136 -0.19815814
 -0.1193435   0.2083232   0.10496415 -0.18471695  0.2524317   0.09414309
 -0.1191458  -0.1207203   0.11546636 -0.08462671  0.10386594  0.13670765
  0.01666885 -0.09311267 -0.03762481  0.10942835  0.00093909 -0.2630203
  0.31232002  0.20305479 ]
[ 0.3295249   0.01476006 -0.1132254  -0.02008504  0.04959248 -0.25289267
 -0.14585695 -0.05866275 -0.23618443  0.20826371  0.27716768  0.22351076
  0.21224843  0.08188246  0.25636426 -0.26582843 -0.20338382  0.18613185
  0.1976122  -0.2300313   0.2920422  -0.05539802  0.08010916  0.23080698
  0.27226514 -0.23196942 -0.17116286  0.11067987  0.09344558 -0.28423306
  0.09655427  0.18870771 ]
[ 0.10116456  0.12115848 -0.02469238 -0.01314128 -0.06836533 -0.04119517
 -0.11816555 -0.02255897  0.10791051 -0.04728141  0.08340987 -0.06047967
  0.08576968 -0.0571243  -0.05681449 -0.07733642 -0.06927932 -0.05829552
  0.0915887  -0.06300263  0.07996162 -0.03390659  0.15406977  0.09221832
 -0.0502408   0.2393533  -0.08824382  0.13605472  0.07793435  0.13574235
 -0.06312809 -0.03185188 ]
Activation
relu
Dense
32 1
[ 0.43883893 ]
[ 0.20840217 ]
[ -0.2321806 ]
[ -0.13215338 ]
[ -0.42636257 ]
[ -0.03780163 ]
[ -0.16566108 ]
[ -0.10927012 ]
[ 0.10445015 ]
[ -0.38369924 ]
[ 0.24629933 ]
[ -0.09751754 ]
[ 0.15477508 ]
[ -0.39132878 ]
[ -0.40882957 ]
[ -0.20663576 ]
[ -0.3379229 ]
[ -0.46796533 ]
[ 0.24598219 ]
[ -0.42500505 ]
[ 0.03337095 ]
[ 0.04535532 ]
[ 0.5140233 ]
[ 0.44228145 ]
[ -0.3634335 ]
[ 0.23358718 ]
[ -0.14324643 ]
[ 0.05633523 ]
[ 0.2908725 ]
[ 0.29308215 ]
[ -0.24487786 ]
[ -0.35242313 ]
[ 0.07553873 ]
Activation
sigmoid
