inputs 33
trijetPtDR
dijetPtDR
bjetMass
LdgJetMass
SubldgJetMass
trijetMass
dijetMass
bjetBdisc
SoftDrop_n2
LdgJetCvsL
SubldgJetCvsL
bjetCvsL
LdgJetPtD
SubldgJetPtD
LdgJetAxis2
SubldgJetAxis2
bjetAxis2
LdgJetMult
SubldgJetMult
LdgJetCvsB
SubldgJetCvsB
bjetCvsB
DEtaDijetwithBJet
dijetPtOverSumPt
LdgJetPtTopCM
SubldgJetPtTopCM
bjetPtTopCM
LdgJetDeltaPtOverSumPt
SubldgJetDeltaPtOverSumPt
bjetDeltaPtOverSumPt
cosW_Jet1Jet2
cosW_Jet1BJet
cosW_Jet2BJet
scalerType Robust
center
[ 2.68476456e+02  1.63635841e+02  1.24119940e+01  1.40460529e+01
  9.19856453e+00  1.94073708e+02  9.17725945e+01  8.83749664e-01
  2.11989522e-01  7.96902403e-02  7.44280405e-02  7.47039646e-01
  4.24373507e-01  4.30145711e-01  2.26869863e-02  3.07921823e-02
  3.09661534e-02  1.40000000e+01  1.10000000e+01  8.57020795e-01
  8.53401810e-01  8.96711014e-02  7.07299441e-01  8.89291227e-01
  5.87039795e+01  4.63262005e+01  6.16877918e+01  2.93255597e-01
  4.93120328e-01  3.50746915e-01 -3.41599524e-01 -7.66396046e-01
 -5.13950616e-01 ]
scale
[ 1.30642731e+02 8.36808319e+01 7.69449806e+00 8.78573799e+00
 4.05419648e+00 1.85706085e+02 9.18459778e+01 7.20973015e-01
 3.98968544e-01 1.07953276e-01 9.21406643e-02 6.16464272e-01
 1.48360386e-01 1.42275721e-01 2.12101629e-02 2.67079319e-02
 2.63759186e-02 7.00000000e+00 5.00000000e+00 1.41363144e-01
 1.43926680e-01 5.18086785e-01 8.76206502e-01 3.30328017e-01
 5.45218153e+01 3.62804732e+01 3.56929722e+01 2.47376837e-01
 2.89148964e-01 3.20831779e-01 5.43023735e-01 4.28593382e-01
 7.12233062e-01 ]
isSparse 0
layers 8
Dense
33 32
[ 0.03962226 -0.0256627   0.16075791 -0.20230705 -0.06028748  0.22470844
  0.08871919 -0.2434447   0.06822439  0.04899385  0.12233619  0.10663516
 -0.13498016 -0.20837219 -0.11217777  0.29860082  0.2723094  -0.36130008
  0.27040324  0.10697101 -0.25845644  0.05779067  0.16233905 -0.00852863
 -0.07795059 -0.0455638   0.22495684  0.17759982 -0.14580026 -0.35042238
 -0.25255612 -0.1264731 ]
[ -0.28351352 -0.01795744  0.30913082 -0.08792624 -0.1642565   0.424523
 -0.09358783  0.36725685 -0.0934429  -0.17219731  0.04586679 -0.07152453
  0.22241297 -0.17750116  0.37890065 -0.01005639 -0.06844065 -0.366265
  0.07598287 -0.5010947   0.59707785  0.36278015 -0.25838625  0.4098238
  0.089123    0.15639031 -0.3734751  -0.40850425  0.16767098  0.0052345
  0.11368302 -0.31011048 ]
[ -0.01140734  0.09947539  0.06104931  0.14818309  0.23852545  0.21035829
  0.06048699 -0.04926734  0.15374139 -0.14994177  0.1362755   0.2493806
 -0.1702977  -0.09350812 -0.44216746  0.09608265 -0.11889893 -0.04338204
  0.00061665 -0.14635538 -0.08794466  0.01665921  0.12780093  0.18682876
 -0.02475968 -0.15201601  0.1256288   0.1701049   0.20049211  0.05881983
  0.34856486  0.1746623 ]
[ -0.16081256  0.05438505 -0.04057941 -0.04092375 -0.08568691 -0.06538924
  0.08749107  0.23369522 -0.11000039 -0.28172532  0.23703909  0.2882428
 -0.18621616 -0.06076686 -0.11782674  0.14334384 -0.21422933 -0.10537416
  0.08219791 -0.26963535 -0.14833005  0.214154    0.13811627  0.09543078
 -0.04229399  0.17345537  0.06903369  0.28650832 -0.01579976 -0.02143689
 -0.33221602  0.00703519 ]
[ 1.54708728e-01 -2.52895933e-02  2.15649113e-01  7.60849863e-02
 -1.31046836e-04  2.71955729e-01  9.09663588e-02  4.42245416e-02
  1.45811677e-01 -7.48494864e-02  1.34242073e-01  4.86192256e-02
 -8.31078887e-02  3.19617093e-01 -2.33887747e-01 -8.85800943e-02
 -3.22803557e-01 -2.10449323e-01 -1.32137358e-01  1.18270405e-01
  1.61743909e-01  1.08722046e-01  2.49958605e-01  9.15868729e-02
  7.28726983e-02 -1.96008548e-01 -7.61380419e-02  9.23451930e-02
  1.09030947e-01  1.06644720e-01  7.51726180e-02 -1.85562596e-01 ]
[ -0.11531787 -0.3532014  -0.3455885  -0.41628957  0.3864482  -0.08246179
  0.46327356 -0.3403651  -0.13027792 -0.0300224   0.19291894  0.0826024
 -0.08320531  0.19887483  0.30778766  0.35567787  0.09828981 -0.14722422
 -0.02901573 -0.02918795  0.14491946 -0.048612    0.08860116 -0.4412761
 -0.25708675 -0.28604954  0.38880417 -0.27365962  0.23259543 -0.17692795
 -0.04394513  0.11661229 ]
[ -0.09320834 -0.2818046   0.1274757   0.01625448  0.22689565  0.11436772
  0.3819772   0.12564345  0.13787803  0.39677367  0.10489088 -0.23940882
  0.6380961  -0.15723546  0.16315866  0.21223016 -0.2199242  -0.18224984
  0.00580818 -0.4348668   0.4407645  -0.15027189  0.13688229 -0.02785492
  0.29955086  0.00095454 -0.5354757  -0.35597423  0.29786414  0.55411106
  0.13774723 -0.31599805 ]
[ 0.37178093  0.20351554 -0.0086473   0.08251034 -0.29599613 -0.0201536
 -0.07136215  0.15512133 -0.46241558  0.12884368 -0.02143934 -0.04778425
  0.34153166  0.13524634 -0.14298409 -0.26451418 -0.21499637 -0.05695413
 -0.12505196 -0.05195281 -0.17561556 -0.31398833 -0.23388767  0.09895281
 -0.36422586 -0.25714844 -0.07030468  0.24251278  0.00333425  0.1385933
  0.03806089  0.18522772 ]
[ 0.21595739  0.07650765  0.08558197 -0.04507346 -0.13826852  0.08525589
  0.06847131 -0.3947061   0.31329727  0.0091898   0.10340811 -0.13608234
 -0.5259432   0.17717598 -0.3881301  -0.14503571  0.10781465 -0.06607111
 -0.05748517 -0.21446642  0.17263831  0.2947682   0.21930923  0.02091039
  0.20478146  0.22472928  0.31658995 -0.04720783 -0.3426424  -0.20799704
  0.09890394  0.15997015 ]
[ -0.02905417  0.1319034   0.14001317 -0.28219768  0.12302874  0.16976622
  0.02122501  0.00977453  0.16545443 -0.12968765 -0.04918365  0.06568262
 -0.00649208 -0.19074377 -0.37271982  0.23029695  0.16696009  0.20050392
  0.02597746  0.07892072  0.0366147   0.00130594 -0.04730471 -0.06773864
 -0.22613546  0.2814819   0.15180983 -0.00697433 -0.0666762   0.15098141
  0.04123513 -0.25700727 ]
[ 0.11920182 -0.02850636  0.25537926  0.18551813  0.06812361 -0.25836885
  0.17432025 -0.0077708  -0.09511207 -0.08106799  0.30741158  0.08601005
 -0.08233414 -0.07238483 -0.17123073 -0.05323666 -0.01257877  0.17916246
 -0.00618906  0.03653795  0.00869947  0.00491753 -0.07479566  0.35306624
  0.2649044  -0.23469503 -0.26802573  0.21701515  0.27501824 -0.02005875
 -0.3929209   0.20415558 ]
[ 0.16134278 -0.20549047 -0.03446711  0.06103289 -0.14489526 -0.0285029
 -0.30087745  0.0826838   0.09104395 -0.20866153 -0.15674691  0.03145482
  0.16336818  0.26674792  0.06025565 -0.26518166 -0.2238482  -0.02438712
 -0.22465113  0.16536582 -0.11800229  0.15734741 -0.2515627  -0.01376033
 -0.23543257  0.17992838 -0.191906   -0.13053426 -0.17245413 -0.05401662
  0.1620273  -0.2269723 ]
[ -0.17861699 -0.34969932  0.08469023 -0.08145042  0.3522134   0.21584393
  0.03541167  0.09802344 -0.01015995 -0.17856963 -0.03351361 -0.08338428
  0.05315988 -0.02446166 -0.20179702  0.04268647  0.21319637  0.01027766
 -0.22993149 -0.05687053  0.01697687  0.1978363   0.2587041   0.13333604
 -0.1823257   0.10111905  0.04854744  0.02622683 -0.1144571  -0.08871974
 -0.16043657 -0.16276945 ]
[ 0.20777099  0.27405506  0.17542507  0.27638686 -0.13553804  0.01611637
 -0.20202002  0.10364024 -0.25293288  0.18452685 -0.03601019 -0.27143395
 -0.24140473 -0.22441408  0.00124796 -0.04564565  0.20746765  0.11289825
  0.03146945 -0.0681238  -0.07212757 -0.14129844 -0.03795944  0.02903205
 -0.14917594 -0.22840424  0.02834912  0.10864235  0.10890772 -0.15088195
  0.01951646 -0.08905219 ]
[ -0.08642929 -0.21121885 -0.3157864   0.20378198  0.17980021  0.19092225
 -0.18897612  0.11236375  0.0324338   0.11096729 -0.15038936 -0.1769735
  0.1495596  -0.15092714  0.3154112   0.02985205 -0.14829999  0.26035854
  0.13548212  0.0791214   0.0344663  -0.08993606 -0.06777712  0.24716899
  0.08955971 -0.16495597 -0.02578874  0.02262175  0.14138274 -0.14858504
  0.10864203  0.25803143 ]
[ 0.12128346  0.19390711  0.04851792  0.07293891  0.11665584  0.08803154
 -0.20036885 -0.09518925 -0.10726303 -0.17979817 -0.17813541  0.24830997
 -0.04386211 -0.1836836   0.16676559 -0.2662433   0.16930726  0.11210222
 -0.20134316 -0.08666397 -0.16382271 -0.30222797 -0.01792833 -0.13357206
  0.3270319  -0.0987398   0.21799831 -0.07624872 -0.00793068  0.19271432
  0.29727033 -0.10282913 ]
[ -0.11275731 -0.24870755 -0.2656579  -0.00398947 -0.21617825 -0.16355614
 -0.14644201  0.02707618 -0.14381653  0.2005241  -0.02148461 -0.13894603
 -0.10557228 -0.28439415  0.12192516 -0.06810893 -0.1295964   0.07784998
  0.12881427  0.06284048 -0.06765439 -0.09055633  0.1759852  -0.02446599
  0.03622887 -0.12440317 -0.2408244  -0.14815088  0.19916624 -0.08717458
  0.10080187  0.21400718 ]
[ -0.12167557  0.2217219  -0.00605454 -0.21670549 -0.05824912 -0.15639362
  0.14537975  0.21159182  0.1339745   0.22879933 -0.15075536  0.06654114
 -0.2796545  -0.03710667 -0.09239709 -0.03497941 -0.06326766  0.04873341
 -0.2851472   0.03859424  0.10482276  0.05432316 -0.25135693 -0.18043925
 -0.04903261  0.25104797  0.10327382 -0.00670392 -0.12994488  0.05189669
  0.07575835 -0.10094103 ]
[ 0.05345954 -0.24410859 -0.04106395  0.1663845   0.10136208 -0.07443304
 -0.13815595  0.28579697 -0.2304338   0.07091246 -0.05244743 -0.1625796
  0.12288648 -0.09852623  0.20676492  0.19082358  0.20313253 -0.07113986
  0.21674795 -0.09846856 -0.06030486  0.00216688  0.12425035  0.13801533
 -0.3140336  -0.08512942 -0.19601536  0.21232124 -0.18989787 -0.2571042
  0.05126699 -0.1119856 ]
[ -0.14600714  0.11194822  0.16066644 -0.13927689 -0.14067538 -0.15503073
  0.21722667  0.11811136 -0.20122783 -0.08115337  0.20143846  0.00814046
 -0.22490183 -0.01654804 -0.06337782 -0.27377242 -0.06620377  0.2124723
  0.01609122  0.06160986  0.02351949 -0.0550212   0.18023558  0.05972499
  0.246184    0.2340787  -0.09429114 -0.03509239  0.06536341 -0.15348256
 -0.08513357  0.14838372 ]
[ -0.16242106  0.12588027 -0.05599117 -0.19361964 -0.19355018 -0.28465632
 -0.02495035 -0.03349989 -0.10415308 -0.14766721  0.19986132 -0.16660035
 -0.16202796 -0.06072592 -0.07653297  0.1293068   0.15241647  0.17029554
  0.00861523 -0.16927962  0.08327937  0.08047108  0.31498262  0.01115636
  0.15255566  0.2478769  -0.10697278 -0.04199831 -0.153963   -0.12208913
  0.07483816  0.18419139 ]
[ -0.13115188 -0.14977105  0.05576127  0.21870485  0.18897684 -0.05274432
  0.4257298   0.05067701 -0.0368445   0.02465643 -0.07502487  0.05800343
  0.12063132  0.12870757  0.27884933  0.2169766   0.02538892  0.0381775
 -0.31357655  0.15839201  0.00258687 -0.08401495  0.12530628  0.11508979
  0.03290826 -0.19666229  0.12169921  0.07836901  0.06909704  0.03947895
  0.1887415   0.38991034 ]
[ 0.3160346  -0.04834189 -0.17642011 -0.31137264 -0.13712786 -0.00496219
  0.04067675 -0.10047295 -0.1873218   0.30986664 -0.01798204 -0.11874223
  0.09908592  0.10199649  0.22758909  0.02166043 -0.20497936 -0.03927459
  0.05886524  0.05243416 -0.10573967 -0.25709796  0.13090703 -0.2721679
  0.1990504   0.16430543  0.14456192  0.05519299 -0.01892968 -0.16517672
  0.22570178 -0.09083062 ]
[ -0.05078689 -0.01037378  0.2522924   0.3020873   0.28587905 -0.30133286
  0.08202516 -0.36450887 -0.16581061 -0.33828908  0.22609048 -0.06236095
  0.06277089 -0.01963347  0.27658406 -0.25799575 -0.1675392  -0.09650161
  0.02840987  0.17320906 -0.26214314 -0.15602735 -0.04196994 -0.13663277
 -0.16448563 -0.25341335  0.03367772  0.41544417 -0.16474347 -0.11393796
  0.08610632  0.22098158 ]
[ -0.22952124 -0.03845281 -0.17930865 -0.10910601  0.22305918 -0.042071
 -0.36740294  0.09321835 -0.17025274 -0.28898853  0.16875719 -0.01202517
 -0.24404809 -0.02725095  0.12543179 -0.06945042  0.36072522  0.05509936
  0.0525232  -0.08415843 -0.24887466  0.25887913  0.00241795 -0.03898776
  0.07862712 -0.00229451 -0.23909236  0.1667976  -0.09344176  0.25185937
 -0.38281184  0.21504962 ]
[ -0.05943581  0.14608474 -0.12984155 -0.00860627 -0.10998005 -0.12751788
 -0.14585698  0.00816478 -0.01440409 -0.13068287  0.05012722 -0.05899584
 -0.18629849  0.0543034   0.03802536 -0.16158266 -0.09297812 -0.24750622
  0.05031582  0.2944714   0.07083966  0.10478472 -0.23232162 -0.141303
 -0.16954754 -0.22785243 -0.3138458  -0.02253737  0.05315634 -0.18796042
  0.14758496 -0.06510381 ]
[ -0.25576672 -0.14338715 -0.2659973  -0.21393874 -0.18355773 -0.22844048
 -0.23721881  0.03234314  0.08825986  0.1528073  -0.0524646   0.13922249
  0.16294335 -0.23974486  0.21542338  0.13423009  0.22975373  0.18776788
  0.25203416  0.35332483 -0.07720779 -0.08858823  0.06658819 -0.291065
 -0.37604523  0.10676008  0.00137132  0.13569075  0.02977167 -0.34115556
 -0.07591942  0.22403109 ]
[ 6.94828331e-02  1.92024663e-01  2.26520300e-01 -3.82889062e-03
 -2.07481325e-01 -4.12464328e-03 -4.55489531e-02  3.73233147e-02
 -3.32268588e-02 -6.15018420e-02  7.82282129e-02  1.68833658e-01
  1.37956634e-01  2.74219960e-01 -1.04611665e-02 -1.84688941e-01
  1.73309043e-01 -2.29862504e-04  2.58345064e-02  7.35911503e-02
 -1.08285330e-01  2.09405735e-01 -8.08062323e-05  8.96837860e-02
  1.71097398e-01  2.66577363e-01 -1.90975919e-01 -6.06148466e-02
  2.83788502e-01 -1.72428563e-01 -1.26785964e-01  1.62032127e-01 ]
[ 0.12705967  0.04463306  0.10313104 -0.28509808 -0.30008972 -0.17376737
 -0.2502757  -0.01347153  0.03828341 -0.29790187 -0.16510691  0.06829411
  0.13680238  0.08951116  0.0489413   0.114224    0.0601422  -0.49302366
  0.2668499  -0.17495236 -0.01102306  0.4697218  -0.07851397 -0.03497653
 -0.16147758  0.06992097  0.13673154 -0.08879312 -0.2705105  -0.05961947
 -0.28205356  0.09458071 ]
[ -0.1953065  -0.07576927 -0.05418942 -0.20228922  0.09273503 -0.05268887
 -0.17045988  0.18777026  0.28933832 -0.2248718   0.13938105 -0.0783613
 -0.14679442 -0.24773955 -0.03150202  0.31685627  0.25495544 -0.15906037
 -0.05666018  0.20595238  0.04882461 -0.11408595  0.3686599   0.01862521
 -0.306877    0.28816345 -0.28650784 -0.09794313  0.04420573  0.09038118
 -0.3751321   0.17588921 ]
[ 0.20147842 -0.28298238  0.21939567 -0.16003226  0.24210466 -0.10938248
 -0.25985238 -0.46769023 -0.11516578 -0.22969079  0.149512    0.3120856
 -0.39122912  0.044025    0.17185082  0.20198387  0.09539413  0.3056451
 -0.1078709   0.4218584  -0.37628356  0.036951   -0.13648096  0.1630411
  0.23235692  0.18231581  0.19222789  0.30379012 -0.37049606 -0.3890824
  0.10592234  0.30273503 ]
[ -0.40702417  0.29549778 -0.00875295  0.1522555  -0.01529712 -0.06232345
  0.04247364  0.2367176   0.1851715  -0.10731002 -0.18428268  0.29596245
  0.05464705  0.10046613  0.04647314 -0.0145776   0.03039039 -0.2469493
  0.03579881  0.05895282  0.03835675 -0.02887904  0.19635499  0.18864727
 -0.03110853  0.25494698  0.08495744 -0.38216698  0.05935339  0.3251301
 -0.05748067  0.05862848 ]
[ 0.14335385 -0.2124273  -0.22220638 -0.3002171   0.09417268  0.20546225
  0.12358963 -0.02281798  0.03954117 -0.12256261  0.27142087 -0.26984087
  0.03550671 -0.21678145 -0.03053078 -0.10401445  0.04565702 -0.3328674
  0.08015653 -0.39050236  0.12523317 -0.0075615  -0.12045425  0.00946808
  0.25895217  0.02715881 -0.04426061 -0.21130897  0.11262596  0.02565777
  0.29653051  0.04687683 ]
[ -0.04678627  0.13087273  0.16703513  0.0559526  -0.16039573  0.13643423
 -0.19152084  0.11410241  0.19456391 -0.00684453  0.05740133  0.10948687
 -0.09469595 -0.00538818 -0.09327568 -0.07620397  0.00968441  0.14109246
  0.20693341  0.03252187 -0.1123798   0.19867435  0.07239524  0.21317622
  0.08029194  0.10743342 -0.1016878   0.04756188 -0.06891044 -0.1290815
 -0.04481471 -0.05048567 ]
Activation
relu
Dense
32 32
[ -0.0724344  -0.12174792  0.08021055 -0.08378861 -0.15189731 -0.24235082
  0.11116994  0.23560853 -0.04772227  0.21751636 -0.04771038 -0.02992244
 -0.16965486  0.16577931  0.06777878  0.22565958  0.08267274  0.24219534
  0.16312246 -0.00795818  0.33262312  0.29030117  0.20362288  0.27361852
 -0.08657986 -0.2521176   0.01012445 -0.22125874 -0.19784603  0.20629005
  0.14780062  0.2175399 ]
[ 0.24246413  0.12987585  0.23990268  0.02674683  0.26992723 -0.06859986
 -0.06196313 -0.14718412 -0.10659236 -0.2386554   0.29126215 -0.18047687
 -0.05844449 -0.1918959  -0.3122559   0.19742689  0.09181552 -0.07310805
  0.3335824   0.04647329  0.2480147  -0.11106054  0.2966368   0.17780031
  0.06316271  0.14427795 -0.28711203  0.21816042 -0.08986437 -0.11951678
  0.19029814 -0.05478734 ]
[ 0.06841346 -0.02449953  0.07801291  0.1901223   0.04647116  0.01531674
  0.14162593 -0.07504309  0.2122631  -0.2422636   0.27214825 -0.16217612
  0.11827778  0.26007256  0.21077928  0.00260269  0.30900744 -0.14429708
 -0.20657557  0.09585339 -0.0382934   0.0351823  -0.03023617 -0.06455191
 -0.03480175  0.2623032   0.0371132   0.2880109   0.2592073   0.14223446
 -0.1334215   0.24837917 ]
[ 0.23314375 -0.14191148 -0.18043907 -0.18975848  0.07708445 -0.27295652
  0.29179016  0.17592464  0.2241234  -0.26607075  0.15828891 -0.26878402
  0.19002463 -0.1787949  -0.1888696  -0.09348833 -0.26412955 -0.22066927
  0.1823438  -0.14844358  0.26757562 -0.00038991  0.03791257 -0.25828505
  0.1721719   0.1766426   0.14842325  0.26087296 -0.18094632  0.20672001
  0.10428178  0.1443353 ]
[ -0.26575616 -0.22503544 -0.33077267 -0.11072209  0.08036935  0.0783024
 -0.19770437  0.14453664 -0.06520903  0.04336017 -0.01153204  0.2027604
 -0.12644793 -0.07486872  0.16975054  0.11861798 -0.07230663  0.28340736
  0.06625894 -0.12620479  0.03013     0.11605214  0.14007798 -0.00374024
 -0.07387082  0.25343388 -0.10728679  0.03127348  0.1525702   0.11955168
 -0.17839888 -0.20125374 ]
[ 0.03652949 -0.04039584  0.06202643 -0.34655106  0.202142    0.07265643
  0.10799304 -0.23636276  0.15112226 -0.05908809  0.22779834  0.08173917
 -0.2795703   0.3161924   0.17242979 -0.22642145  0.1454553  -0.08724458
 -0.08516278 -0.12171528 -0.04041813 -0.16380757 -0.08241833  0.26428384
  0.25453553  0.3065629   0.29577526  0.03391529 -0.10472921  0.21292101
 -0.18729232  0.10244557 ]
[ 0.08031047  0.1502399   0.18705669  0.09301668  0.24416864  0.20399937
  0.23825176 -0.10262693 -0.0374417   0.230255   -0.0656879   0.04834662
  0.25602695 -0.296537   -0.21314391 -0.25135344 -0.20757583  0.2329864
 -0.13402556 -0.1029797   0.28123093 -0.0896168   0.26453525 -0.25093243
  0.0597166  -0.0228455  -0.21345043 -0.1732939  -0.04581815 -0.00759301
 -0.12099236 -0.08313907 ]
[ 0.08329077  0.38531938  0.03923751 -0.04284107 -0.02813241  0.03054561
 -0.27199632 -0.16220719 -0.13260183  0.01661997  0.19729558 -0.05453024
  0.1586785  -0.13771795  0.1453024  -0.1175156  -0.37829885 -0.15250209
 -0.12644106 -0.23554763 -0.12174448 -0.3024156   0.31973502 -0.20820601
  0.28412306 -0.16905111 -0.40451303 -0.04656483  0.06104249  0.21765453
  0.31465682  0.01267269 ]
[ 0.3095769   0.18456495 -0.1520173   0.16265906 -0.1990366   0.09173024
 -0.15441349 -0.01312587  0.18790658  0.25304586 -0.07674997 -0.27214688
  0.0613632   0.18870902  0.06195911 -0.15908535  0.05750435 -0.24041732
  0.2928452   0.19043031  0.3276548  -0.26616058 -0.12995389 -0.14645854
  0.00237137 -0.2110627   0.2305886  -0.06206432 -0.18314134  0.08870479
 -0.22250222  0.07292527 ]
[ 0.08885139  0.2200848   0.01641556  0.28422552 -0.22963662 -0.15456066
 -0.20716617 -0.18500091  0.16922382  0.22460264 -0.07978737  0.07801416
 -0.00170157  0.0068991   0.15301633  0.03999337  0.18903877  0.15187645
 -0.18222709  0.34397358 -0.16363277 -0.17193544  0.19421285  0.26740655
  0.1399472  -0.18344319 -0.05480855  0.1994163   0.0967697   0.28964087
 -0.01945343  0.05259588 ]
[ 0.24545722  0.09470937 -0.15900303 -0.10688467  0.06029012 -0.08632553
  0.23575191  0.10461524  0.15197451 -0.19456758  0.21437083 -0.11008362
 -0.1552064   0.01209748 -0.13296403 -0.1559152  -0.12518348 -0.1635255
 -0.12516108 -0.02883404  0.0115714  -0.10475121 -0.11274868  0.20498721
  0.27907908  0.11863688  0.23065549  0.08411509  0.00064549 -0.09221923
 -0.23950472  0.24605012 ]
[ 0.1713514   0.07236674  0.12191234 -0.15070386  0.00291628  0.20866984
  0.11506499  0.16218601  0.24527445 -0.2734587   0.18806039 -0.27445266
 -0.11724718 -0.26472443 -0.3156837  -0.16445701  0.01028705  0.12216938
 -0.04132177  0.1596829   0.20239234 -0.10579098 -0.21438318 -0.1868298
 -0.08207642  0.03665173 -0.07396378 -0.29008934 -0.2456971  -0.1699766
  0.2752635   0.33328152 ]
[ -0.35125536  0.17533804  0.02103496  0.38052595  0.10740396  0.06077748
  0.19218986 -0.1323938  -0.07278899  0.23362151  0.20312124  0.20385462
 -0.10402675 -0.28600505  0.18462066  0.11708733  0.07997274  0.03853641
  0.02352551 -0.08331807  0.12798958 -0.34207603  0.31730583  0.05987978
  0.30455843  0.07590995 -0.32134116 -0.1522712   0.23498382 -0.08830079
  0.16950436  0.0745557 ]
[ 0.06617906  0.01791483 -0.03059521  0.2604968  -0.04884967  0.05852332
 -0.07661865 -0.01553494  0.3138925  -0.14281984 -0.10660272  0.19825017
 -0.22131954 -0.15054718  0.1242971   0.19062161 -0.22622648  0.20786892
  0.1871138  -0.11749105  0.0546752   0.34429744 -0.02621689  0.15095732
 -0.22917701 -0.04337727  0.237263   -0.27176496  0.16291927 -0.29460517
  0.05097051 -0.11721696 ]
[ -0.14447336  0.1318103   0.2740871  -0.14495127 -0.06956841  0.05765281
  0.02263003  0.00847241 -0.26128513 -0.10473426  0.1675479   0.0994444
 -0.28008527 -0.22028093  0.01145172 -0.17979889 -0.05604076 -0.11709729
 -0.25611788  0.15300885 -0.07828188  0.21066664  0.13257274 -0.19782135
  0.2823036  -0.0412131  -0.13381413 -0.14779486  0.066439    0.07682551
  0.00687947 -0.1574868 ]
[ 0.09218989  0.10407111  0.02686985  0.1959997   0.25882593  0.00430757
 -0.09943753  0.21057612  0.23096567  0.21102402 -0.09725372  0.25652012
  0.23430167  0.28664562 -0.21263541 -0.11106116 -0.09461705  0.05659618
 -0.10259367 -0.1467562   0.3132991   0.25519484  0.12708047  0.25166655
  0.07923862  0.03027204 -0.00673545  0.20025878  0.27532455  0.11100664
  0.27678084  0.08131026 ]
[ 0.30340955  0.2348296  -0.07466426  0.29109496  0.23996921  0.11259091
  0.07604264  0.15163541  0.2284802  -0.03920051 -0.17068434  0.05532091
 -0.19521083 -0.1854182  -0.28231338  0.1499862   0.28843966 -0.18405782
 -0.05171499  0.1716777  -0.04630918  0.06527576  0.08463072  0.07876818
 -0.3007081   0.11668629 -0.06435291 -0.21162985  0.14110424  0.16294079
  0.25767687  0.06306978 ]
[ 0.05698601 -0.30522734 -0.28740096  0.16831627 -0.12122684  0.10717747
 -0.10607958  0.38450208 -0.28744656  0.02457169 -0.00288222  0.2047451
  0.14262311  0.20111097  0.03911218  0.20522423 -0.3418946   0.2503734
 -0.20209792 -0.01122814  0.26569062  0.21374078  0.15219674  0.28840393
  0.20911057 -0.20139828  0.38919222  0.34915417  0.24503416  0.11142508
 -0.00252132 -0.10335293 ]
[ 0.19522989  0.24594198 -0.06377489 -0.13265942  0.10899566  0.18808107
  0.07525041  0.1730081   0.05186783  0.07350077 -0.1524655   0.00771454
  0.18967254  0.24736825 -0.26342934  0.38757786  0.09360389 -0.24350064
 -0.13710873  0.31705588  0.08072337 -0.19270213 -0.14506088 -0.22601593
 -0.11177893 -0.0025569   0.3276086   0.02662176  0.05760075 -0.29819512
  0.02857713  0.17873082 ]
[ -0.12563637  0.14582603  0.06191497 -0.13165145 -0.01390989  0.12444691
  0.3089871   0.24218889  0.03741648 -0.29384413  0.03262711 -0.260559
 -0.19780998  0.07586758 -0.13749337 -0.02660246 -0.0746074   0.36518323
 -0.03889091  0.2718302   0.14005971  0.19760256  0.0462192  -0.32344076
 -0.4000369   0.24672808 -0.11830378  0.08615462 -0.11748739 -0.12819745
  0.01559023 -0.02673922 ]
[ 0.08429449  0.2263727  -0.42152783 -0.0815072  -0.08560556 -0.35547194
  0.3069494   0.0434445  -0.01284787  0.0352801  -0.33749962  0.14249079
 -0.18123792  0.07037884 -0.2576063  -0.1280017  -0.0489125  -0.14933339
 -0.04841128 -0.29204425 -0.19948338 -0.15360835  0.48138982 -0.26766375
  0.13586542  0.17137212  0.12524205 -0.06825409 -0.2371141   0.18696928
 -0.16471645 -0.17728798 ]
[ 0.23239848 -0.11445816 -0.03666861 -0.31835347 -0.26045012  0.16219628
  0.2532487   0.14055526 -0.23680569 -0.20634885 -0.23985265  0.11525368
  0.30337837  0.29115564 -0.08563872  0.138649    0.28404737 -0.08970767
  0.25101328  0.22902112  0.06943215  0.17327563  0.04678541  0.260294
  0.15047973 -0.2357038  -0.05397596  0.03480498  0.15854469  0.12078889
  0.24499728 -0.21851549 ]
[ 0.27489704  0.1006543   0.10983735 -0.10978049  0.3144653  -0.35087758
  0.15996124 -0.05509692 -0.30905655  0.37231103  0.14919542 -0.25236923
  0.19384927  0.09825571  0.27537474  0.2663607  -0.20435742  0.2911287
 -0.23712231 -0.03014978  0.22629862 -0.13798012  0.02163365 -0.21602967
 -0.09997083  0.16482349 -0.2528091   0.11743578  0.05483976  0.11386072
  0.1579958   0.11490068 ]
[ 0.27537817  0.21673469  0.307267    0.00195881 -0.2824114   0.25672603
 -0.23013248 -0.19500436 -0.09219483  0.07746176 -0.18812525 -0.10986634
  0.22009644  0.11208748 -0.1019186  -0.20575483  0.03013635 -0.17582838
  0.19694516  0.1508805   0.05786172 -0.24418512  0.15563314  0.15370493
 -0.06714927  0.10540085  0.08816044  0.06201078  0.06895453  0.28119072
 -0.06304996 -0.22114863 ]
[ -0.1383723   0.197446   -0.11643858  0.14282206  0.1865043   0.21662708
 -0.14479376 -0.21050712 -0.01023448  0.25589356 -0.21504998  0.05292659
  0.31204534  0.0662034  -0.32188025 -0.12522943  0.23805872  0.23042913
  0.33923015  0.34233359  0.00513843 -0.02194155 -0.04885847  0.29311872
  0.19680086  0.04581228  0.32027718 -0.23341204 -0.22473118  0.19044486
  0.20181914  0.10439888 ]
[ 0.1231831  -0.23524907 -0.05073649  0.00702096 -0.2383674   0.18024658
  0.13373402 -0.08135497  0.08093011 -0.18315506  0.23508197  0.06808969
  0.22062953 -0.23493989  0.23440059  0.34248647  0.05063556 -0.06683855
  0.27322277 -0.13991222  0.15771253  0.00772408  0.1450593  -0.17260033
  0.27390113  0.15488687 -0.01960161  0.01158755 -0.20638259 -0.05104689
  0.19717039  0.17707805 ]
[ -0.04276813 -0.0442878  -0.19437659  0.29564106 -0.27492204 -0.23260206
 -0.05550187  0.4021215   0.3571126  -0.07799377 -0.09190644 -0.00633843
 -0.3226411  -0.21546486  0.10492631 -0.1537002   0.04501249  0.30320325
  0.17700994 -0.27166438  0.07199204  0.0157367   0.2908286  -0.0949598
 -0.30860412  0.08237679 -0.01567576  0.16309743  0.0907499  -0.2540776
  0.06686563  0.07860073 ]
[ -0.1603296  -0.04127267  0.2606912  -0.13601115  0.24003892 -0.09899421
 -0.14636438  0.08511625  0.29879016  0.12657173 -0.3256344  -0.228773
  0.036926   -0.18498036 -0.11121573 -0.09790155 -0.07346673  0.27555847
  0.27295846 -0.03545516 -0.20795734  0.37841508  0.10301387 -0.08962706
  0.04593752  0.07001564 -0.04693413 -0.0127868   0.23340598  0.29801384
  0.22293614  0.21433426 ]
[ -0.2023681   0.10024994  0.08152919  0.00676531  0.10983698 -0.22701834
  0.06776354 -0.15705156 -0.2471098   0.11316876 -0.09579621 -0.1527529
 -0.24235314  0.0876279  -0.26586097  0.08117981 -0.1215562   0.00594879
 -0.23701161 -0.16316678 -0.141286   -0.2895284   0.19109912  0.10571433
  0.05170035  0.21667461 -0.17174716  0.06354959  0.2917053   0.05448233
 -0.14195347 -0.26489678 ]
[ -0.10093249  0.33776695 -0.27010852 -0.20169015  0.31940374 -0.00176777
  0.20976473 -0.22192706 -0.28838035  0.26252383 -0.16143139 -0.3178512
 -0.22649243  0.08286303  0.10153008 -0.06772122 -0.02222651 -0.09380023
 -0.02335695  0.0190375  -0.31356212 -0.33008415  0.29667133  0.266993
  0.38319963 -0.27155805  0.11774124 -0.12999724 -0.31036946 -0.16067253
  0.21797702  0.02595158 ]
[ 0.27825335  0.19345321  0.00567545 -0.08497394 -0.22579022 -0.29619926
 -0.1579349   0.34025258  0.26932552 -0.06091136 -0.2931711  -0.30022117
 -0.10596606  0.14715281 -0.08251014  0.26442847 -0.10273741  0.27124575
 -0.36723056 -0.16008699  0.11870588 -0.07627501  0.20266913  0.22012128
  0.18096969 -0.0996829  -0.15790802 -0.04121748  0.02203625  0.23497114
  0.19113025  0.05949097 ]
[ -0.2598688   0.03517028  0.00954542  0.30580366  0.19662666  0.22081341
 -0.06006995  0.20490608  0.15171078  0.18406725 -0.22700188 -0.164807
 -0.05197141 -0.12981765 -0.01260553  0.12599504 -0.15531476  0.02834657
  0.27717265  0.16359672 -0.1339972   0.24972925 -0.22664323  0.13120389
 -0.19651479 -0.174312   -0.23907332 -0.19217114 -0.0243553   0.2811785
  0.23429273  0.27712578 ]
[ 0.11936042 -0.02572677  0.09410832 -0.09762725 -0.13254385 -0.01574822
 -0.04465524 -0.00212041  0.03756647 -0.09626682  0.09913808  0.0331825
  0.12228341  0.14100793  0.0406022   0.15004423  0.20333453 -0.08459104
  0.16379167  0.24255633  0.16927184 -0.01534992 -0.15967076  0.13539664
  0.00353353  0.11345886  0.22281632  0.13316116  0.09512346 -0.06386938
 -0.08408438  0.06490127 ]
Activation
relu
Dense
32 32
[ 0.08524076 -0.08425806  0.28829953  0.20488624 -0.07192706 -0.24376684
  0.15166382 -0.304123    0.328606   -0.11466605  0.17163758  0.04517985
 -0.02131321 -0.2038757   0.11717982 -0.3316338  -0.04629436 -0.19842769
  0.16944185 -0.09674801 -0.13582337 -0.20474209  0.30402714 -0.04081952
 -0.02117428  0.18135741 -0.12376784 -0.04798096  0.2636338  -0.23764929
  0.2720194  -0.3562874 ]
[ -0.14186893  0.03520088 -0.09391703  0.0999183   0.13882196  0.18013495
  0.21450217 -0.08221014  0.09566618 -0.15014042  0.14813577  0.20288314
 -0.3991359  -0.28436738  0.3497918   0.25940463 -0.0168187   0.32051712
 -0.22528185  0.43330437 -0.05644733  0.20303157  0.16090262  0.04725524
  0.03363481 -0.1507557   0.33622953 -0.11406129  0.1481609   0.16570005
  0.05728789  0.23818319 ]
[ -0.11169273 -0.10837775  0.02695636 -0.17177789 -0.02846669 -0.05483902
 -0.23381695  0.07610258  0.24431022 -0.07482335  0.31597176 -0.24766946
  0.34991887  0.13077588  0.02265624  0.1757157  -0.11599787 -0.19213703
  0.32318127 -0.01053218 -0.0035568   0.15520865 -0.01112204  0.00838007
 -0.20388402 -0.01610429  0.11985731  0.14641218  0.32136825  0.32149804
  0.10505609 -0.20338407 ]
[ -0.29766428 -0.29173258 -0.00121077  0.02013451  0.05755113  0.36995652
 -0.112816    0.17193916 -0.05046829 -0.01793764  0.13333912  0.29665494
  0.16460559 -0.2749517  -0.06633358 -0.17410463  0.06145013  0.14476654
 -0.01351492  0.14660284 -0.28345954 -0.3032238  -0.27271605 -0.07151866
  0.18170546 -0.3392778   0.14585844 -0.1545234  -0.03460556 -0.29253417
 -0.27444693  0.15662707 ]
[ 0.03716672 -0.31381246 -0.25852233 -0.18707262  0.33345145  0.1859224
  0.3342727  -0.17129312 -0.19257912  0.0901498  -0.2096014  -0.16072294
  0.18546091  0.03450238 -0.24540769 -0.24932256 -0.01923607  0.09568064
  0.1301546   0.10920914 -0.18262967 -0.11781505 -0.27404088 -0.19863929
  0.18917325  0.11226356 -0.05150308 -0.15967384 -0.21503058  0.22856574
 -0.15773712 -0.06691955 ]
[ -0.12750535  0.07569437 -0.11616927 -0.19429779  0.01319413 -0.11766674
 -0.14513381  0.07994836  0.2666473  -0.31086147  0.12955472  0.06953936
 -0.09431164  0.0982867  -0.22817196 -0.31179938 -0.06498715  0.16331397
 -0.1948146  -0.15335222  0.2569581  -0.23064978  0.09077544 -0.11083525
 -0.09656404 -0.13780934 -0.02311131  0.14130329  0.13880906 -0.12786444
  0.1799573   0.14805108 ]
[ -0.1916434  -0.3371307   0.17527066  0.08713058  0.2614959   0.23391221
  0.17975451  0.19079915 -0.02978151  0.07268665  0.00175691  0.0403506
  0.26765972  0.22830069 -0.12862204  0.13739882 -0.00160794 -0.15772718
 -0.22462134  0.1017658   0.15335539  0.0461728   0.25032595 -0.17849079
  0.01341067 -0.15177375  0.03754947 -0.03787752  0.1340886  -0.12361792
  0.08373407 -0.22089556 ]
[ -0.3360344  -0.00456817 -0.19864738 -0.3228457   0.1347847  -0.12125912
 -0.42475885 -0.08135124 -0.25391474 -0.00175192  0.18642183  0.266132
 -0.32317266  0.35461313 -0.2947563  -0.25180382  0.080598   -0.28082055
 -0.13971646  0.23068978  0.21435973 -0.15137643  0.11735646  0.05471579
  0.37196487 -0.28087875  0.09634562  0.06630255  0.11912926  0.08843444
 -0.19472411  0.04209514 ]
[ 0.12120442  0.15890197  0.10437884 -0.03127848 -0.2032235   0.18240283
  0.03404096 -0.12414085 -0.02697947  0.19625522  0.22760952  0.11862618
 -0.04557626  0.27475485  0.24431472 -0.19536397  0.27772146 -0.24755459
  0.12542085  0.08717001  0.27855247 -0.28242218 -0.03919875  0.1574324
 -0.05220966 -0.11964291  0.06407858  0.1556728  -0.15088214 -0.10812061
  0.08650425 -0.08292305 ]
[ -0.02543849  0.063858   -0.0863761  -0.21105763  0.30992058  0.2969519
  0.37368536  0.03559878 -0.23660965  0.17317238  0.20206878  0.01796028
 -0.14244063  0.2325225   0.34313214 -0.1949924  -0.0642089   0.13015535
 -0.2542493   0.2249517  -0.06917801 -0.16847149  0.10017994 -0.14537548
 -0.2435958   0.12651767  0.30176935 -0.31436548  0.14408323 -0.3136636
  0.06138249  0.10037569 ]
[ 0.0683255  -0.03742861  0.29966885 -0.14168128 -0.1436427   0.14737618
  0.10461514 -0.04881025  0.16013356 -0.07637144 -0.21842054  0.09807222
  0.25840813  0.02776963 -0.24118909 -0.12269114  0.1887289  -0.16457953
  0.241197    0.31574568  0.23643069  0.19175547  0.03498226  0.10080598
 -0.24237415  0.23318338  0.09103958  0.07125897 -0.02010075 -0.18314485
  0.16791023  0.15276535 ]
[ -0.20382425  0.11477184  0.32266504 -0.07918033 -0.12574558 -0.30713746
  0.08270483 -0.16991664  0.24725129 -0.26258746 -0.00690305  0.14228877
  0.26515734  0.16710667  0.28997484 -0.10319292 -0.2232953  -0.16404411
 -0.00645393  0.23506309 -0.08540178  0.02037111  0.17430016 -0.23578475
 -0.22121873  0.277819   -0.2008787   0.2818439   0.26437557  0.26082286
  0.2726538  -0.23508853 ]
[ 0.30740556  0.13357924 -0.00184179 -0.08387183 -0.15166362  0.30235547
  0.33591953 -0.12248491 -0.13693966  0.28225625 -0.14171292  0.07519723
 -0.02861936  0.00352083  0.2713784   0.22947791  0.06274515  0.0477484
  0.19553636 -0.22696152 -0.24761671  0.14164762  0.20915985  0.24468912
 -0.2333065  -0.16896813  0.25796086  0.09848703  0.12335501  0.30753034
 -0.17432287 -0.07141932 ]
[ -0.01501916  0.11379377 -0.04194088 -0.2314895   0.00358725  0.1322702
 -0.07666727 -0.21510215  0.33226743 -0.03191966 -0.12959038  0.20823708
  0.1548412  -0.22572954 -0.02431435  0.09789099 -0.2156069  -0.02335759
 -0.03821256 -0.1523705   0.10462148  0.15033327 -0.05809471 -0.0955185
 -0.247717    0.1524659   0.20859562 -0.04534393 -0.1098595   0.14142628
 -0.3335654  -0.01869734 ]
[ -0.18761358  0.16034338  0.11827854  0.26348782  0.09014576  0.17945972
 -0.14023577  0.19713064  0.12389386  0.00567844 -0.0629549   0.24609964
 -0.09616356 -0.2304827  -0.2111645  -0.08041845 -0.17258494  0.22122449
 -0.03543577 -0.1340086   0.23094112  0.13804272  0.11614197 -0.2973083
  0.00894464  0.18855827  0.36842012  0.1363002   0.12069806  0.1551254
  0.319965   -0.04738785 ]
[ 0.3493932   0.37926883 -0.16562994  0.10592099 -0.1753779   0.2684418
  0.1644392  -0.23288545  0.02129288 -0.02468589  0.14449821  0.24936283
  0.24689576 -0.14305854 -0.16762677  0.21049672  0.10095989 -0.13692921
  0.39628014  0.03139477  0.08308575 -0.29091725 -0.04633851  0.18071754
 -0.1025331   0.29689983  0.01964005  0.37695742 -0.04422161  0.2656664
  0.18295369  0.2862727 ]
[ 0.22052638  0.33629715 -0.27537635 -0.1174266   0.18065926 -0.26692086
  0.12880492 -0.07066119 -0.08820133 -0.23710883  0.07059581 -0.30807889
 -0.04748785 -0.25986975 -0.19278844  0.23696841 -0.0955311  -0.07160254
  0.02593118 -0.03731439  0.3305033   0.07882828  0.1681172   0.22165571
  0.15971838  0.11534726  0.18904568  0.3617524   0.11538237  0.2829651
 -0.0740976   0.03528158 ]
[ -0.16228542  0.13507651  0.16310254 -0.19916975  0.23462527  0.28859764
 -0.37328216  0.03573072  0.09258453  0.19212434  0.02689179  0.25494277
  0.00437768  0.18536863 -0.11581533  0.14149173  0.3233382   0.25906664
 -0.00186328  0.00625224 -0.21618044  0.1531039  -0.2821369   0.04269089
  0.285903    0.00499591  0.07126261 -0.25495943  0.05534912  0.10558519
  0.32022646 -0.17644307 ]
[ -0.09762391  0.07148618 -0.18806629 -0.05548439 -0.08413909 -0.07504239
 -0.3825452  -0.1322655  -0.12871982  0.06888861  0.02731546 -0.1858658
  0.2853756   0.11442906  0.24970675  0.22940837  0.11237944 -0.10950137
 -0.1130489  -0.22292414 -0.02587507 -0.09610226  0.2369328   0.18126583
  0.0619003   0.19674908 -0.25849894 -0.06776793  0.15998715  0.34477904
  0.04673465 -0.34264868 ]
[ 0.26753452  0.15805669  0.04946849 -0.11601309  0.0018705  -0.15123904
  0.04261117 -0.00950314  0.17473026 -0.23705861 -0.06996981 -0.35481638
  0.24304184 -0.18400128 -0.09011436  0.0328854   0.1565601  -0.3423701
  0.31116182  0.16522229 -0.11548699 -0.24579437  0.17518812  0.24936791
  0.1215577   0.47799665 -0.02733425  0.34586442  0.2813101  -0.1102355
  0.04080927 -0.16705576 ]
[ -0.0943106  -0.17600764 -0.2498925  -0.23995605  0.2555695   0.00673782
 -0.15863779 -0.12733431 -0.03196198 -0.03606393 -0.1040138  -0.04359337
  0.11421204  0.11131729 -0.31583402  0.09132273  0.24297796  0.25874949
  0.20849839 -0.03585446  0.2757105  -0.1658727  -0.02330902  0.23337118
  0.10166544  0.35871413 -0.29441255 -0.05844394  0.13316551  0.2145306
 -0.33562666 -0.19519137 ]
[ -0.12913004  0.09433118  0.01259638  0.24382389 -0.11609332  0.4213996
 -0.18387142  0.36556146 -0.50060195 -0.0489757  -0.20928943  0.2579684
 -0.22247463  0.21115723  0.05932339  0.07197493  0.34836775  0.26948038
 -0.13229339 -0.05496963 -0.3722248   0.10664722 -0.28789344 -0.4287084
  0.42742285 -0.46592468  0.46355945 -0.05285696 -0.23962568 -0.4174811
  0.195688    0.34068906 ]
[ 0.0664091  -0.29461843 -0.04694377  0.18615533  0.23089956  0.20570876
  0.27551085  0.12214173  0.17435934  0.36247057 -0.3106782   0.01026389
  0.15138716 -0.27964354  0.01402789  0.01985178 -0.25598794  0.34803995
 -0.09804488  0.05747631  0.20757502 -0.20411557 -0.15704004 -0.3349552
 -0.11960257 -0.2317996   0.35178134  0.05801579  0.02179199 -0.37456197
 -0.12780766  0.05750066 ]
[ 0.14126536  0.02404317 -0.02990084  0.20068076  0.07225537  0.1885505
  0.08529852  0.09034965  0.0109824  -0.08878613  0.14605191  0.2745904
  0.28147104 -0.00202302  0.26802877 -0.01398928 -0.02991983 -0.05629871
 -0.08349799  0.16630726  0.21837582  0.21464251  0.11850338  0.25564426
 -0.22965942  0.06983088  0.08008743  0.23457783  0.27890933  0.24951017
 -0.05403847 -0.07624842 ]
[ -0.29397503 -0.06831939 -0.02767058 -0.01807382  0.01290977  0.02941799
  0.46589378  0.12174809 -0.31737587  0.27555367  0.17604068  0.00245521
  0.04620291 -0.32446295  0.03218647 -0.22362345 -0.05030955 -0.18732303
  0.21342808  0.00397415  0.17542699  0.10132494 -0.0850887   0.09047484
 -0.35141978 -0.08826295  0.05309322  0.0814209  -0.25865886  0.07941405
  0.37161127  0.38298085 ]
[ 0.1886451   0.28676027 -0.04338699 -0.0196417  -0.26990604  0.21659248
 -0.0945954   0.03420185  0.16258195  0.169347    0.08878145  0.2999175
 -0.27011773  0.12314859 -0.26451984 -0.06440433 -0.22652559  0.3161739
 -0.10024469  0.04644179  0.11970095  0.03359779 -0.00198581  0.22238475
 -0.07094137 -0.23497637  0.22519112  0.31643254  0.28654957  0.01825522
  0.09055615 -0.00130089 ]
[ -0.12572555  0.17349249  0.15064488  0.13722704  0.01633475 -0.32638
  0.171938    0.16661952  0.31057784 -0.3452277   0.13921854 -0.32847196
 -0.10615008 -0.10669958 -0.14519103  0.05519837  0.06261013  0.02103923
  0.15971896 -0.13042668  0.34661576 -0.19720148  0.12558094  0.33132708
  0.07109862  0.10209592 -0.28276464  0.42152974 -0.01967891  0.31791475
 -0.09706952 -0.22043811 ]
[ -0.06985725  0.18046083 -0.25964403 -0.2671971   0.1975767  -0.06285131
 -0.08914827 -0.14959857  0.21869169 -0.2633563   0.28912404 -0.14013423
  0.11196049  0.04588782  0.01038023  0.09106831 -0.326228    0.02251825
 -0.15531544  0.15012869  0.2562188  -0.24267328 -0.14962257  0.01947676
  0.2937667   0.25482804  0.09710134 -0.23465078  0.33068955  0.13790646
 -0.33830938  0.07099462 ]
[ 0.02264512  0.16144969 -0.14001334  0.0441698   0.02325362  0.05723712
  0.08372007  0.00919356  0.20708872  0.08874684  0.10971182 -0.10656846
  0.18755117 -0.01361871  0.04000638  0.2771921  -0.08180065  0.00801895
 -0.14607601 -0.05163373  0.01659435  0.11240107  0.00453068 -0.03391042
 -0.24387604  0.29752484 -0.02821007 -0.26583958  0.099058   -0.02675676
 -0.2841755  -0.01889312 ]
[ -0.08318146  0.24558996  0.13482505  0.24544619  0.25986254  0.09448598
  0.0143897   0.27593672  0.15586698  0.09080157 -0.11343176  0.06449471
 -0.21466386  0.22239897 -0.10452005 -0.04514877  0.05786344  0.17551172
  0.2720177   0.29810476 -0.06354183 -0.22452752 -0.20312382  0.02593811
  0.1646387  -0.03203228  0.22122349 -0.08369853  0.21329892  0.13335349
  0.29609329  0.24977082 ]
[ -0.03360735  0.03766211 -0.06258555 -0.13910346  0.00424994  0.13671248
 -0.0809812   0.15668748 -0.17832902  0.28063402 -0.14943594 -0.1929199
 -0.1171418   0.21977103  0.12391739 -0.18330805  0.25417662  0.09938047
 -0.11866707 -0.11244655  0.11525959 -0.08473789  0.09212134  0.1406626
  0.03044133 -0.09743746 -0.02478693  0.08793681  0.00146666 -0.23960851
  0.29878914  0.19600414 ]
[ 0.32000214  0.01753569 -0.10561349 -0.02595277  0.05026998 -0.25494483
 -0.17094089 -0.06332195 -0.23795612  0.21060503  0.2762897   0.22539459
  0.20546634  0.08099301  0.26562768 -0.29213715 -0.18337393  0.18890634
  0.1975811  -0.23228513  0.29039535 -0.04804774  0.07784954  0.23027523
  0.28132513 -0.21715453 -0.16595754  0.10919619  0.09208841 -0.29263166
  0.09368212  0.19025664 ]
[ 0.10175779  0.12368125 -0.00834501  0.01437644 -0.07819141 -0.07467887
 -0.11229156 -0.00232124  0.12064325 -0.06669565  0.08378351 -0.06400597
  0.1104679  -0.05501021 -0.06979433 -0.07611538 -0.0872893  -0.06523311
  0.09660549 -0.0625415   0.08349314 -0.03052815  0.15741716  0.09402287
 -0.0602683   0.238173   -0.095166    0.17970973  0.08516939  0.14378859
 -0.07072991 -0.03858402 ]
Activation
relu
Dense
32 1
[ 0.45623237 ]
[ 0.22330728 ]
[ -0.24700405 ]
[ -0.18040247 ]
[ -0.4331145 ]
[ -0.06037474 ]
[ -0.17588952 ]
[ -0.12730923 ]
[ 0.11622532 ]
[ -0.4028661 ]
[ 0.24702677 ]
[ -0.10545587 ]
[ 0.18297225 ]
[ -0.40050635 ]
[ -0.4356085 ]
[ -0.20745538 ]
[ -0.38640732 ]
[ -0.47969168 ]
[ 0.25127736 ]
[ -0.4490354 ]
[ 0.03768805 ]
[ 0.04876751 ]
[ 0.51115423 ]
[ 0.4478151 ]
[ -0.3855281 ]
[ 0.21221773 ]
[ -0.1652643 ]
[ 0.09441527 ]
[ 0.29483333 ]
[ 0.31641215 ]
[ -0.25867465 ]
[ -0.37812415 ]
[ 0.08227849 ]
Activation
sigmoid
