inputs 33
trijetPtDR
dijetPtDR
bjetMass
LdgJetMass
SubldgJetMass
trijetMass
dijetMass
bjetBdisc
SoftDrop_n2
LdgJetCvsL
SubldgJetCvsL
bjetCvsL
LdgJetPtD
SubldgJetPtD
LdgJetAxis2
SubldgJetAxis2
bjetAxis2
LdgJetMult
SubldgJetMult
LdgJetCvsB
SubldgJetCvsB
bjetCvsB
DEtaDijetwithBJet
dijetPtOverSumPt
LdgJetPtTopCM
SubldgJetPtTopCM
bjetPtTopCM
LdgJetDeltaPtOverSumPt
SubldgJetDeltaPtOverSumPt
bjetDeltaPtOverSumPt
cosW_Jet1Jet2
cosW_Jet1BJet
cosW_Jet2BJet
scalerType Robust
center
[ 2.69637558e+02  1.64251480e+02  1.28793650e+01  1.45906916e+01
  9.59216690e+00  1.94702217e+02  9.23342400e+01  9.35927868e-01
  2.15127870e-01  7.88873248e-02  7.26201758e-02  8.29463184e-01
  4.24395472e-01  4.28887054e-01  2.27373000e-02  3.11046969e-02
  3.10258130e-02  1.40000000e+01  1.10000000e+01  8.63638043e-01
  8.62379611e-01  5.43709584e-02  7.00342089e-01  8.91695380e-01
  5.87322063e+01  4.64701595e+01  6.17183666e+01  2.94188425e-01
  4.94704485e-01  3.52080345e-01 -3.41419339e-01 -7.66227663e-01
 -5.14197171e-01 ]
scale
[ 1.31446037e+02 8.42491722e+01 7.85549808e+00 8.98196793e+00
 4.12608743e+00 1.86482925e+02 9.21715126e+01 5.91103166e-01
 4.08819221e-01 1.29432850e-01 1.07485816e-01 5.13161294e-01
 1.48094445e-01 1.41333312e-01 2.13127350e-02 2.69566998e-02
 2.66669928e-02 7.00000000e+00 5.00000000e+00 1.38318896e-01
 1.37760714e-01 4.55851826e-01 8.70264217e-01 3.29218641e-01
 5.46195793e+01 3.64841542e+01 3.60719233e+01 2.46926498e-01
 2.89453864e-01 3.20687857e-01 5.43854237e-01 4.27432679e-01
 7.09837122e-01 ]
isSparse 0
layers 8
Dense
33 32
[ -0.00460902 -0.02582491  0.15774494 -0.14210165 -0.03919803  0.21797697
  0.07883432 -0.24114135  0.04301297  0.02610525  0.18361846  0.05453657
 -0.08796529 -0.19785893 -0.11410189  0.32418817  0.27437457 -0.32852256
  0.27739096  0.06774732 -0.19903648  0.13026662  0.15234946 -0.04929469
 -0.12378063 -0.04141506  0.26907945  0.18422252 -0.09244503 -0.3574016
 -0.22172019 -0.12706462 ]
[ -0.2890488  -0.01707118  0.3434726  -0.06810459 -0.2216411   0.43002895
 -0.14972128  0.41229436 -0.06537338 -0.18175839  0.04229391 -0.06311554
  0.2397698  -0.10130101  0.2567305  -0.0440269   0.10105846 -0.3918146
  0.12559995 -0.5015812   0.6332425   0.40508395 -0.28454545  0.4264294
  0.09677426  0.17063895 -0.34457564 -0.41060898  0.19873941 -0.00566366
  0.1162997  -0.2915499 ]
[ -0.04508374  0.08317121  0.06606293  0.18058303  0.23561846  0.21158837
  0.09709525 -0.05333652  0.11304342 -0.09855821  0.14401454  0.21050762
 -0.11776142 -0.08112238 -0.45703748 -0.00780827 -0.15407528  0.02014056
  0.00431885 -0.0760481  -0.11499318 -0.0173563   0.09177826  0.15186073
  0.01093693 -0.08661716  0.15996547  0.15194291  0.17801909  0.06888525
  0.3923283   0.1626095 ]
[ -0.15636061  0.04738849 -0.02104709 -0.0089053  -0.09763689 -0.03019154
  0.02915507  0.23030838 -0.11028876 -0.30726525  0.26709634  0.34315115
 -0.2399633   0.0548842  -0.15309817  0.13075131 -0.18573937 -0.20961562
  0.10680407 -0.26366308 -0.13691694  0.1789712   0.06427359  0.08562686
 -0.04294602  0.235756    0.08052939  0.26997206 -0.05128283 -0.00269194
 -0.3623111  -0.0016568 ]
[ 0.14883886 -0.00397685  0.23513474  0.02985506 -0.0010091   0.27635002
  0.04289971  0.02115991  0.11468724 -0.08299068  0.13746208  0.03564259
 -0.16957705  0.32100463 -0.21928696 -0.10179807 -0.33001125 -0.25581875
 -0.04896088  0.17992003  0.19024824  0.10197683  0.24694797  0.06516849
  0.07373927 -0.17113699 -0.07418749  0.09700502  0.06232217  0.06848093
  0.05305745 -0.19928266 ]
[ -0.14420982 -0.38788033 -0.31671286 -0.42536244  0.3780934  -0.06420377
  0.4639692  -0.38603258 -0.10396235 -0.01975625  0.21877764  0.02885931
 -0.10583397  0.17664705  0.353792    0.37202895  0.08928973  0.01899538
  0.0374971  -0.03638813  0.18265916  0.03122664  0.07637888 -0.3969011
 -0.23509249 -0.28257883  0.38491115 -0.27840677  0.30681017 -0.16826633
 -0.03684803  0.0948847 ]
[ -0.07120784 -0.30562022  0.16457339  0.05059837  0.19215141  0.14638688
  0.340271    0.0944913   0.08766945  0.36269987  0.09247021 -0.24750565
  0.6369317  -0.0885357   0.08030922  0.4170054  -0.11853016 -0.1721419
  0.01485227 -0.42963192  0.42103004 -0.13283192  0.15722017 -0.03340584
  0.33305544  0.02701463 -0.53403556 -0.3403905   0.26334316  0.5347541
  0.1220028  -0.26938516 ]
[ 0.3413993   0.2285753   0.01866695  0.14594156 -0.30957392 -0.06108001
 -0.07106785  0.17771493 -0.47909275  0.12222666  0.00690929 -0.01050165
  0.39858896  0.14558282 -0.15022297 -0.27653757 -0.20875955  0.00532341
 -0.11764665 -0.061594   -0.08529841 -0.2863501  -0.24563377  0.07445446
 -0.35315278 -0.21432196 -0.03576509  0.23458447 -0.02373979  0.12003931
  0.07453343  0.19917691 ]
[ 0.21581466  0.07370286  0.04012621 -0.04761634 -0.09972514  0.0494083
  0.0793066  -0.36401185  0.29942074  0.00712649  0.1036137  -0.14886355
 -0.49980006  0.18936066 -0.29472968 -0.1333102   0.10230343 -0.09054896
 -0.00582104 -0.16206847  0.18612735  0.271203    0.23961781 -0.00149616
  0.20070465  0.21069226  0.31534716 -0.05270455 -0.33601674 -0.18832509
  0.11676373  0.16434771 ]
[ -0.00741434  0.16693705  0.1251486  -0.23235664  0.12729461  0.18531705
 -0.03222662  0.01883774  0.15367146 -0.08790312 -0.05867749  0.07425037
 -0.00905493 -0.13337399 -0.367106    0.21058694  0.18217501  0.21300651
  0.05482017  0.08147682 -0.021071   -0.08691919  0.01926476 -0.08645893
 -0.21536027  0.30404562  0.12687363  0.01408609 -0.03176089  0.13163486
  0.00140366 -0.36203736 ]
[ 0.13529396 -0.0135222   0.25334716  0.17913342  0.04923387 -0.27624974
  0.18315017 -0.0101705  -0.09965399 -0.09073339  0.30192682  0.10859991
 -0.05182989 -0.11746719 -0.20079108 -0.01493626  0.00577312  0.18135671
 -0.01270018  0.03326314  0.00311677 -0.07626124 -0.15120691  0.357214
  0.26314422 -0.18220934 -0.27496782  0.2340642   0.2696259   0.02352837
 -0.39533278  0.22698623 ]
[ 0.15576728 -0.20488814 -0.01309011  0.09528629 -0.14485127 -0.02550359
 -0.28637126  0.10737217  0.0821066  -0.2257241  -0.1342696   0.03796976
  0.13486381  0.26321435  0.06898619 -0.2970385  -0.233699   -0.00563136
 -0.22876191  0.16921675 -0.04937875  0.15602393 -0.29444307 -0.02711101
 -0.24577793  0.17371804 -0.20132777 -0.12399351 -0.17849983 -0.08287481
  0.19672394 -0.21729104 ]
[ -0.16924953 -0.3416496   0.04205732 -0.12943785  0.36127302  0.20280099
  0.00264982  0.07568118  0.02493011 -0.19078244 -0.02239593  0.02619612
  0.04006858 -0.11298752 -0.11523297 -0.01127472  0.18416874  0.01991654
 -0.13363136 -0.05106565  0.02082608  0.14643079  0.28115526  0.10977694
 -0.15945199  0.02149831  0.07416505  0.05304062 -0.245987   -0.09825554
 -0.14305627 -0.18253122 ]
[ 0.21139538  0.29044375  0.14903359  0.30569318 -0.10058433  0.02751035
 -0.23745829  0.11949225 -0.20929149  0.18653892 -0.04405092 -0.20830713
 -0.24281493 -0.12117375 -0.03023619 -0.09150835  0.1814197   0.04376733
  0.0200955  -0.07694897 -0.07769345 -0.11346461 -0.00741944 -0.0055443
 -0.16281673 -0.23377453  0.02964192  0.13819084  0.12980817 -0.15928815
 -0.05026724 -0.10884473 ]
[ -0.07174252 -0.2404649  -0.33849928  0.21665247  0.17809802  0.1956798
 -0.12997678  0.15257679  0.0560456   0.10630575 -0.14280885 -0.22786148
  0.11290027 -0.15270647  0.30621386  0.0442876  -0.17743759  0.27115333
  0.09844349  0.08084894  0.04383909 -0.07119998 -0.0764069   0.28760585
  0.10942565 -0.15587103 -0.04472763  0.03008748  0.16555436 -0.16058776
  0.09584043  0.26178688 ]
[ 0.10323683  0.16049793  0.01528344  0.05936311  0.10535463  0.10794701
 -0.14288183 -0.09488029 -0.1464482  -0.2014519  -0.21481885  0.22633608
 -0.03552062 -0.1881575   0.18512096 -0.26433393  0.18763655  0.11218145
 -0.19270475 -0.0989522  -0.1491339  -0.23564662  0.09787165 -0.2053931
  0.29123706 -0.08387876  0.20477228 -0.12195288  0.02225943  0.2030294
  0.30863485 -0.10556482 ]
[ -0.08567011 -0.21035668 -0.3039602  -0.01049498 -0.22327358 -0.08210046
 -0.14278936  0.02983386 -0.12142999  0.22697413 -0.02176588 -0.19432835
 -0.03594799 -0.3438668   0.1123784  -0.043907   -0.0766595   0.08604971
  0.15950911  0.06589445 -0.05942899 -0.08907822  0.13837601  0.0091239
  0.090244   -0.08819215 -0.24621506 -0.06024975  0.156412   -0.09885304
  0.13325308  0.20189191 ]
[ -0.06654463  0.2241385   0.07686742 -0.20242788 -0.07024298 -0.14723705
  0.20872037  0.12570342  0.11212134  0.22443037 -0.13125627  0.0189052
 -0.28940654  0.07494804 -0.08844046 -0.02530018  0.1315118  -0.01530847
 -0.24293962  0.09888992  0.06065951  0.03140145 -0.24495168 -0.12982635
 -0.09212358  0.3035432   0.16126874 -0.04307359 -0.03699389  0.11956654
  0.14192843 -0.09442971 ]
[ -0.00923445 -0.24945104 -0.0174033   0.16371515  0.03681691 -0.08265813
 -0.13797545  0.27786767 -0.2411431   0.0149092  -0.09050214 -0.13198943
  0.10445473 -0.13224794  0.18993829  0.15473232  0.31644598 -0.03779565
  0.12174635 -0.09253199 -0.02517985 -0.00663638  0.09041245  0.19480312
 -0.2840461  -0.04358384 -0.18755502  0.17160067 -0.24393713 -0.27322075
  0.070407   -0.09612958 ]
[ -0.15718019  0.14137767  0.10752735 -0.1276317  -0.14441185 -0.10205705
  0.20716421  0.10415301 -0.24179469 -0.11920144  0.14470181 -0.01785967
 -0.21724454 -0.05679852 -0.12197944 -0.264306   -0.01819443  0.21211375
  0.03530922  0.01753234 -0.04309706 -0.05749686  0.20947482  0.02377337
  0.25163546  0.19176365 -0.09811413 -0.02892734  0.07241875 -0.09133421
 -0.09310247  0.20750123 ]
[ -0.17192717  0.02664279 -0.07293794 -0.15886225 -0.16612402 -0.29500815
 -0.02956831 -0.05975198 -0.07249785 -0.1870969   0.18528563 -0.14650755
 -0.17455247 -0.10152815 -0.08418234  0.12990664  0.06472304  0.14501964
  0.00737247 -0.15490328  0.02706508  0.20864381  0.22864813 -0.00934059
  0.13570715  0.2767087  -0.14948587 -0.04066586 -0.10635234 -0.07331879
  0.06564169  0.17799293 ]
[ -0.12145136 -0.18467899  0.04864833  0.1995512   0.17836875  0.00891189
  0.40305242  0.06652112 -0.03634021  0.01628943 -0.06896558 -0.00448181
  0.05787255  0.10027909  0.26953346  0.2522476  -0.06607737  0.00651831
 -0.35186028  0.11200736 -0.05842356 -0.13962275  0.17490254  0.14348456
  0.0101363  -0.2330265   0.07674062  0.08845154  0.11389241  0.04722069
  0.1376501   0.34524757 ]
[ 0.30097222 -0.06820732 -0.17967688 -0.3186402  -0.13276301  0.04968157
  0.09029885 -0.07990778 -0.18673149  0.3043718  -0.00298304 -0.1460648
  0.14607915  0.07436345  0.25480685  0.00728431 -0.21294515  0.02834762
  0.09798216  0.01267823 -0.19595215 -0.16798323  0.09799314 -0.2753025
  0.18711758  0.16649835  0.10516298  0.04749763  0.01396397 -0.13937806
  0.17692876 -0.08503976 ]
[ -0.07300271 -0.0009273   0.2513833   0.34052363  0.28847268 -0.3094297
  0.07311813 -0.35423204 -0.0993975  -0.3254988   0.2545969  -0.07347793
  0.07809047 -0.03569388  0.2542818  -0.35217848 -0.1397423  -0.08039959
  0.01869294  0.14921816 -0.28201488 -0.09510182 -0.06976059 -0.18501149
 -0.17312668 -0.24113317  0.07553772  0.41338685 -0.10799902 -0.10647034
  0.09825661  0.21177076 ]
[ -0.20275491 -0.08026383 -0.16926031 -0.12401538  0.16560031  0.00710831
 -0.373138    0.05611821 -0.12669691 -0.27230927  0.17543203  0.02863485
 -0.3188777   0.10754765  0.16959636 -0.0520039   0.32239175  0.02612008
  0.03335924 -0.10421444 -0.23893867  0.21641171 -0.00716259  0.02769123
  0.11259438 -0.04784146 -0.19309323  0.18815053 -0.09516977  0.21088143
 -0.36303562  0.22272849 ]
[ -0.08443189  0.12433594 -0.06554687 -0.09309028 -0.10657185 -0.1174267
 -0.10361487  0.01707602  0.00375864 -0.12487406  0.04415336 -0.10493853
 -0.1994835  -0.0207649   0.00888945 -0.10127543 -0.04533127 -0.25621527
  0.09238376  0.3378267   0.09758997  0.08211534 -0.24057764 -0.1196868
 -0.1349757  -0.240433   -0.34051818  0.01086459  0.10592819 -0.17864643
  0.12400366 -0.04770106 ]
[ -0.24063246 -0.14999919 -0.25972188 -0.17157374 -0.18949194 -0.24740843
 -0.2606085   0.03803345  0.10709548  0.18067987 -0.0348398   0.0905605
  0.17426004 -0.1929468   0.26215872  0.13327783  0.16349941  0.22473969
  0.22979292  0.29526192 -0.05202185  0.0067731   0.03322265 -0.26783505
 -0.3303933   0.08324676  0.00409915  0.12035536  0.0311726  -0.35669768
 -0.03421078  0.17675516 ]
[ 0.0288399   0.15310234  0.21799313  0.00515069 -0.20468448 -0.03812091
 -0.07539944  0.09474608 -0.07588801 -0.02794073  0.07691424  0.09802736
  0.11898553  0.29748172  0.02611066 -0.20102872  0.14164837  0.1039843
  0.05951623  0.09391772 -0.06638625  0.19756445 -0.01375254  0.05869972
  0.19270335  0.27043164 -0.1788269  -0.06100774  0.24658282 -0.16332008
 -0.13825688  0.17830366 ]
[ 0.09306666  0.02754874  0.07887025 -0.2732904  -0.2822473  -0.1537613
 -0.23449267 -0.03967845  0.0401064  -0.2913682  -0.15958218  0.06530297
  0.09692319  0.17469157  0.03500105  0.0523424   0.0920282  -0.4423834
  0.30181384 -0.17247227 -0.04079114  0.5039525  -0.09754843 -0.07014347
 -0.18885927  0.06936848  0.1748932  -0.06299376 -0.30346066 -0.05094287
 -0.2672806   0.1317498 ]
[ -0.19299515 -0.05899853 -0.0504141  -0.1560881   0.11710558 -0.0825306
 -0.23011489  0.19978878  0.2526484  -0.24624224  0.17172852 -0.03845307
 -0.13746019 -0.22129925 -0.06507895  0.34914494  0.27300867 -0.1776446
 -0.07973574  0.24345262  0.04155458 -0.08685138  0.34892303  0.01225633
 -0.3270073   0.29776686 -0.2845455  -0.0602547   0.09308558  0.08018225
 -0.32217488  0.19081388 ]
[ 0.18203913 -0.2712355   0.1827533  -0.16126041  0.2991769  -0.11657225
 -0.18786342 -0.4721446  -0.1257596  -0.16770044  0.15763895  0.266905
 -0.42063263 -0.02953529  0.33164632  0.15026407 -0.01369314  0.3110195
 -0.07008584  0.41236624 -0.37618506  0.08804497 -0.15483244  0.11987199
  0.20094816  0.16201538  0.17872043  0.29511172 -0.35207066 -0.39274833
  0.11353093  0.29101628 ]
[ -0.4197605   0.3096907   0.03126558  0.09082889 -0.02714587 -0.1652047
  0.01777686  0.28839383  0.16206877 -0.14947397 -0.17673293  0.3605898
  0.04394602 -0.05312927 -0.01370325  0.05216682  0.13596228 -0.26324862
  0.08225948  0.18641609  0.04492904 -0.0721685   0.17740364  0.23930599
 -0.01869598  0.28121114  0.10919349 -0.369116    0.04269814  0.33399624
 -0.06799076  0.0676429 ]
[ 0.16430572 -0.2453464  -0.26020685 -0.25506282  0.08164527  0.31775707
  0.13151668 -0.04360741  0.06407885 -0.12443231  0.28548378 -0.2984276
  0.02959451 -0.02690859  0.00154825 -0.15670973  0.01544691 -0.40347975
 -0.02012372 -0.5620631   0.10652177 -0.03440955 -0.02736809  0.00443979
  0.2936035   0.02650873 -0.03229791 -0.21014474  0.1263582   0.05500533
  0.33406708  0.02549849 ]
[ -0.04464722  0.16327073  0.15415177  0.05352437 -0.14861499  0.1056385
 -0.23098321  0.11209962  0.16769812 -0.01431247  0.07182714  0.14129521
 -0.06918347  0.02489366 -0.10287314 -0.07826584  0.01331981  0.09348677
  0.22791398  0.02666631 -0.1651548   0.19393545  0.0816182   0.23372509
  0.06245926  0.10296021 -0.11594384  0.01137749 -0.11428407 -0.1376037
 -0.04672846 -0.05722027 ]
Activation
relu
Dense
32 32
[ -0.08087291 -0.1237615   0.07619046 -0.11624438 -0.09805249 -0.24275789
  0.12120942  0.22109397 -0.09033106  0.21014357 -0.01873165 -0.04926371
 -0.15541215  0.17377168  0.01307208  0.21592075  0.04267309  0.23940141
  0.17360102 -0.00537837  0.3419559   0.29343748  0.20102367  0.27754593
 -0.09027001 -0.2567207   0.05413607 -0.20453498 -0.18630578  0.20312761
  0.1237818   0.16595757 ]
[ 0.25541446  0.13127303  0.25659665 -0.01124793  0.31416273 -0.03155345
 -0.09860769 -0.15155493 -0.10300958 -0.2109899   0.3205267  -0.23691377
 -0.01338967 -0.21988729 -0.2226018   0.22373411  0.09690458 -0.05027034
  0.3595489   0.07796527  0.25464725 -0.09589069  0.2854077   0.18285944
  0.09039386  0.13793737 -0.3183219   0.1830236  -0.06564836 -0.14855364
  0.20018406 -0.06725103 ]
[ 0.0705476   0.00423051  0.06431139  0.18297632  0.05289334  0.01032405
  0.1413342  -0.08285981  0.23246755 -0.22116488  0.27212155 -0.1506375
  0.13301449  0.23237962  0.18388523  0.04501647  0.31699458 -0.127993
 -0.21194533  0.07070584 -0.03162592  0.04742828 -0.03531939 -0.0383027
 -0.01349584  0.26551375  0.00370605  0.2868424   0.27274367  0.13366425
 -0.1266416   0.24380296 ]
[ 0.19930194 -0.14867292 -0.17153351 -0.18518935  0.08898088 -0.27499565
  0.29217902  0.16490656  0.21060632 -0.25503215  0.15260382 -0.29806346
  0.20373875 -0.17905962 -0.23802169 -0.16737741 -0.21497332 -0.21761648
  0.17023596 -0.13866428  0.26162806 -0.03887829  0.04982338 -0.27725047
  0.17418084  0.1624475   0.14172459  0.21266365 -0.18125191  0.213221
  0.12320705  0.10943996 ]
[ -0.26668265 -0.2435617  -0.33338496 -0.09644894  0.04200614  0.07197145
 -0.20425364  0.14343627 -0.03008198  0.0563494  -0.00983416  0.17976877
 -0.11421131 -0.03607439  0.1647405   0.10798937 -0.05051775  0.27681485
  0.06587304 -0.0772596   0.04126899  0.14994982  0.13645574  0.02037316
 -0.1095928   0.24899675 -0.04574269  0.0213698   0.15189499  0.11357867
 -0.17328477 -0.19900429 ]
[ 0.02924856 -0.05937436  0.0599329  -0.31725556  0.2379591   0.07364085
  0.10246705 -0.23351187  0.18844041 -0.071248    0.29906493  0.03472541
 -0.2819652   0.32672492  0.15272099 -0.17813778  0.16300826 -0.07467508
 -0.07718801 -0.10022543 -0.0093465  -0.19339181 -0.08691446  0.29290137
  0.24751681  0.3028356   0.31012088  0.05018637 -0.08302379  0.2036982
 -0.18902057  0.09467402 ]
[ 8.00878033e-02  1.31854773e-01  1.60764575e-01  7.48745278e-02
  2.53038645e-01  2.15051785e-01  2.28391945e-01 -6.88360780e-02
 -9.37982798e-02  2.16260418e-01 -1.00006960e-01  9.62693095e-02
  2.50444680e-01 -3.02246541e-01 -1.81110874e-01 -2.14491948e-01
 -1.86699927e-01  2.26219863e-01 -1.61835134e-01 -1.04607634e-01
  2.96336174e-01 -7.61671737e-02  2.64059275e-01 -2.35469446e-01
  5.56734763e-02  2.83388741e-04 -1.53511986e-01 -1.37609497e-01
 -4.51771542e-02 -1.25268865e-02 -1.23082638e-01 -9.47958454e-02 ]
[ 0.07087836  0.39981836  0.08889749 -0.01175464  0.04568191  0.1207974
 -0.24916497 -0.13269007 -0.18250243 -0.01492091  0.1749784  -0.04854397
  0.15664153 -0.13329557  0.11541066 -0.12804228 -0.415683   -0.20473325
 -0.13339937 -0.21603076 -0.11626926 -0.34367982  0.3300197  -0.21302919
  0.29766303 -0.21419074 -0.43135536 -0.08343237  0.1357974   0.21915646
  0.3243009  -0.04451937 ]
[ 0.31558856  0.17132773 -0.13979107  0.14179868 -0.23513174  0.09188927
 -0.17415966 -0.01372994  0.20175132  0.25319993 -0.04001829 -0.2745014
  0.08733312  0.18741062  0.07875734 -0.13188457  0.04650469 -0.25247708
  0.30046928  0.22187681  0.32894158 -0.2547476  -0.1313958  -0.12100755
 -0.02065137 -0.18307538  0.16063446 -0.04611459 -0.17176051  0.07775563
 -0.2295442   0.10910851 ]
[ 0.08694453  0.21139662  0.00757103  0.29898053 -0.07993747 -0.30999783
 -0.14089632 -0.17675383  0.0508028   0.21934189 -0.05726272  0.04219992
 -0.04270447  0.01250085  0.13785288  0.01563223  0.23565361  0.15363331
 -0.14865813  0.36424124 -0.17015201 -0.16175725  0.20614383  0.2369769
  0.12244859 -0.24854979 -0.04798389  0.20157458  0.07759349  0.29799813
 -0.00912779 -0.01054762 ]
[ 0.24789196  0.10556497 -0.16857561 -0.1366682   0.08930507 -0.08367556
  0.2311234   0.15771107  0.13724062 -0.19164822  0.21037504 -0.10371827
 -0.14889927 -0.02653825 -0.13232155 -0.15694693 -0.11503392 -0.15565911
 -0.12492174 -0.04735856  0.03793074 -0.05687509 -0.10707048  0.2091412
  0.24083602  0.13882965  0.23611566  0.08940821 -0.00237659 -0.09543858
 -0.24105768  0.25911653 ]
[ 0.16179134  0.07098045  0.13510709 -0.14600123 -0.06392838  0.21322049
  0.10595169  0.15164052  0.21478648 -0.29377145  0.16527878 -0.25658166
 -0.0940187  -0.25588286 -0.3526096  -0.20776156 -0.03885944  0.13185197
 -0.0453665   0.1703656   0.20734099 -0.06323149 -0.211895   -0.18516695
 -0.04573679  0.01663264 -0.09274397 -0.3468021  -0.23552404 -0.19563979
  0.27831128  0.30304623 ]
[ -0.34792805  0.19088195  0.04823636  0.4062253   0.17919539  0.08611295
  0.15550297 -0.22286154  0.0305471   0.23588355  0.2562694   0.22673115
 -0.12069633 -0.23396252  0.13941027  0.14283137  0.04541846  0.04854165
  0.01316115 -0.13256556  0.09490436 -0.4003205   0.30691132  0.05360917
  0.29759532  0.06920691 -0.33423537 -0.17967701  0.24625742 -0.09746482
  0.18686536  0.09139997 ]
[ 0.07983579  0.0620655  -0.06896496  0.2034901  -0.0022803   0.07139666
 -0.12004386 -0.19963853  0.28783906 -0.16197008 -0.12444382  0.36411375
 -0.21683149 -0.12478419  0.11735938  0.2224229  -0.26666313  0.16419491
  0.1730858  -0.1122997   0.00170081  0.22107355 -0.00514204  0.1761393
 -0.1003764  -0.05576622  0.24064675 -0.25704584  0.23076154 -0.3050149
  0.05641726 -0.11722586 ]
[ -1.39019951e-01  9.18714553e-02  2.76253939e-01 -7.97048286e-02
 -1.13678209e-01 -9.16509051e-03  8.66113696e-03  3.93980928e-02
 -2.33007580e-01 -1.31867468e-01  1.28744066e-01  1.03551410e-01
 -3.20710868e-01 -1.97796851e-01 -3.16492340e-04 -2.05245450e-01
  7.67201697e-03 -1.11028753e-01 -2.87667841e-01  1.30700439e-01
 -5.55607416e-02  3.32585514e-01  1.22560576e-01 -2.26086482e-01
  2.39229530e-01 -5.72610050e-02 -1.12115063e-01 -1.62161797e-01
  6.56905770e-02  7.34979734e-02  1.08346380e-02 -1.63024575e-01 ]
[ 0.07999099  0.1203626  -0.07297573  0.21724491  0.26548535  0.00058626
 -0.07183043  0.24163045  0.24840865  0.23730373 -0.11347357  0.24374223
  0.1729887   0.30474603 -0.19423625 -0.11656886 -0.12564915  0.04219332
 -0.09280051 -0.18017854  0.27408758  0.20957062  0.16749093  0.26342568
  0.09395911  0.01152369 -0.03715274  0.193349    0.26072335  0.10729351
  0.2939415   0.09793753 ]
[ 0.30432492  0.2513084  -0.0425062   0.28887975  0.2246319   0.13406351
  0.06397184  0.17549394  0.24316059 -0.01829121 -0.14926526  0.02714745
 -0.19697115 -0.20191185 -0.29660365  0.13993669  0.29041854 -0.17911415
 -0.03239847  0.18199699 -0.01319176  0.05901051  0.08607836  0.10042498
 -0.28769907  0.12307558 -0.09498928 -0.2091015   0.15425017  0.15284194
  0.2707164   0.06564115 ]
[ 0.06943722 -0.33516693 -0.30275813  0.11601952 -0.07944943  0.092622
 -0.10269538  0.4048929  -0.29954383  0.03798494  0.01475543  0.08460028
  0.16438897  0.2153275   0.06168978  0.20049277 -0.38513374  0.2639803
 -0.18078706  0.00938229  0.28603593  0.22845656  0.16475126  0.2986286
  0.20223767 -0.22589855  0.39853874  0.3153418   0.22867434  0.10232306
  0.01572034 -0.1475937 ]
[ 0.18368539  0.25254437 -0.08600996 -0.12352587  0.11579821  0.20974796
  0.02490808  0.28193367  0.03704015  0.0349313  -0.18934734 -0.08078838
  0.18742128  0.23453294 -0.20490402  0.37357327  0.03066621 -0.23317163
 -0.1007552   0.3307002   0.12951118 -0.13411322 -0.10527364 -0.22120312
 -0.11484542 -0.03200981  0.35750857  0.0048927   0.06023769 -0.28731298
  0.05215812  0.17230277 ]
[ -0.10339193  0.13704874  0.07892956 -0.17848383 -0.03137254  0.05456858
  0.3049347   0.29309803 -0.03083925 -0.30061278  0.00128728 -0.29935664
 -0.17163557  0.08336279 -0.09873152 -0.0671836  -0.12684466  0.3602284
  0.00317399  0.29640266  0.19278145  0.20392302  0.05134756 -0.28609928
 -0.4951447   0.24097387 -0.11806238  0.08340815 -0.11421451 -0.13471742
 -0.00374532 -0.06583629 ]
[ 0.05493997  0.23497954 -0.41112456 -0.02638127 -0.02175278 -0.3582721
  0.2768251   0.07614539  0.00642738  0.04299634 -0.35183233  0.11471897
 -0.20587854  0.01516396 -0.30724952 -0.16434914 -0.11458755 -0.12444367
 -0.13689323 -0.3627227  -0.2384055  -0.14334716  0.5095187  -0.3490336
  0.14943261  0.15606606  0.00961763 -0.07550798 -0.2739923   0.18685514
 -0.14833501 -0.15196937 ]
[ 0.22946565 -0.05129225 -0.07097715 -0.32157803 -0.23317051  0.17222759
  0.23754801  0.12304368 -0.2317513  -0.2175231  -0.24445619  0.08946415
  0.31761062  0.30741453 -0.09114778  0.13675389  0.24511918 -0.08691927
  0.25829265  0.2186425   0.06265604  0.1997036   0.04998432  0.26935065
  0.14329565 -0.24915579 -0.12893236  0.04133709  0.14998144  0.11482926
  0.25795895 -0.19782087 ]
[ 0.2630493   0.13164297  0.11362431 -0.11149018  0.35606298 -0.32418454
  0.14841889 -0.00655549 -0.3126605   0.38813353  0.1114249  -0.23226722
  0.19985954  0.11349987  0.25146446  0.2536652  -0.18096554  0.28750393
 -0.1855985  -0.0174959   0.2612895  -0.21625723  0.04793951 -0.16234572
 -0.07906059  0.1960917  -0.20776057  0.13221712  0.02956971  0.11201151
  0.16197775  0.12035821 ]
[ 0.27481106  0.16162968  0.31011882  0.00384114 -0.29145452  0.26883584
 -0.22899954 -0.19285496 -0.08967756  0.0764473  -0.24964455 -0.12638535
  0.24432407  0.09411024 -0.13962522 -0.19736968  0.0504823  -0.18060228
  0.19772822  0.17282715  0.09049582 -0.2687936   0.14897828  0.1688579
 -0.10218038  0.10594926  0.09390205  0.04369661  0.075082    0.27607122
 -0.05710108 -0.22714029 ]
[ -0.15757875  0.1822875  -0.11856123  0.15106714  0.21250042  0.2277982
 -0.1464789  -0.21596077 -0.10439266  0.2500618  -0.2253661   0.07269035
  0.31733862  0.06770896 -0.35064897 -0.07516208  0.26743883  0.21911277
  0.31872183  0.3508684  -0.01603379 -0.04569893 -0.04128823  0.2761543
  0.18890561  0.05196253  0.34001887 -0.24397717 -0.23988228  0.18916209
  0.20642088  0.06981444 ]
[ 0.11340612 -0.18535797 -0.06073034  0.01033487 -0.21490216  0.20374545
  0.13575363 -0.08680566  0.07242098 -0.20201433  0.23226859  0.0490976
  0.22203934 -0.20415777  0.27596787  0.3208489   0.02616102 -0.05432589
  0.276245   -0.1164102   0.18325885  0.05304566  0.16485626 -0.15203536
  0.30332556  0.15159099 -0.0149521  -0.01497683 -0.21800533 -0.06440218
  0.21341226  0.17540875 ]
[ -0.04107004 -0.04856255 -0.24646793  0.2284676  -0.3251863  -0.22715624
 -0.0473232   0.39798772  0.330719   -0.05844288 -0.08464791 -0.02076225
 -0.32101226 -0.19204253  0.09800408 -0.14471465  0.03987133  0.30610126
  0.18068646 -0.28335974  0.07188593 -0.0102565   0.30662444 -0.07805833
 -0.31138375  0.07918873 -0.06840463  0.13853809  0.07776161 -0.2667779
  0.06676853  0.08196946 ]
[ -0.15320241 -0.07111347  0.25827593 -0.17082426  0.2454891  -0.10693705
 -0.14852394  0.10139199  0.23981991  0.10547151 -0.36426193 -0.17745812
  0.04903093 -0.18205333 -0.15118518 -0.11194045 -0.05339134  0.26812598
  0.28273642 -0.06653041 -0.19801863  0.37749538  0.09831062 -0.07714976
  0.02553621  0.07924992 -0.02590117 -0.03071549  0.23643751  0.29018873
  0.20603974  0.21336083 ]
[ -0.22296663  0.08527917  0.0914626   0.05833779  0.13278978 -0.22372046
  0.06750815 -0.16540697 -0.24225467  0.12212317 -0.09253117 -0.17761156
 -0.22145447  0.08563124 -0.20188008  0.04989853 -0.06303318  0.01580703
 -0.26470426 -0.18002462 -0.12796412 -0.3017411   0.18483391  0.09809639
  0.01659093  0.21005872 -0.13634264  0.04790517  0.29708546  0.05563359
 -0.12315104 -0.2813487 ]
[ -0.10951339  0.33862042 -0.23534243 -0.1737778   0.32299012  0.0378555
  0.19709976 -0.21811335 -0.18413372  0.26113656 -0.12995735 -0.34358114
 -0.20706934  0.08619549  0.07644401 -0.01181602 -0.0235016  -0.08128186
 -0.04015709  0.02165291 -0.31175396 -0.27947274  0.29270607  0.26264802
  0.38002965 -0.27804515  0.08283657 -0.155129   -0.29345322 -0.16374029
  0.2309894   0.02265877 ]
[ 0.285958    0.19168897  0.01261747 -0.11260779 -0.19997206 -0.33468398
 -0.19774625  0.33086723  0.28065637 -0.07111946 -0.19639875 -0.31712863
 -0.10375566  0.15425804 -0.08815179  0.2843236  -0.07618383  0.26175624
 -0.36878783 -0.12792866  0.11169915 -0.05790991  0.20857997  0.20134933
  0.19014241 -0.10930735 -0.1462604  -0.05936586  0.02510389  0.22891383
  0.19277775  0.02018469 ]
[ -0.2598091   0.04176357 -0.00410436  0.2842233   0.20174688  0.22295906
 -0.0676662   0.22961484  0.13524236  0.21692932 -0.2307153  -0.190064
 -0.0422711  -0.14501089  0.02931047  0.10019096 -0.1246759   0.03385105
  0.282523    0.14207259 -0.12757784  0.22346726 -0.20407932  0.1310403
 -0.21375531 -0.17629781 -0.2392222  -0.23344932 -0.02414378  0.28233612
  0.246061    0.2739416 ]
[ 0.1179591  -0.02482015  0.10373767 -0.10038082 -0.14290147  0.00402638
 -0.05020576 -0.02905681  0.05191585 -0.08877113  0.13437378 -0.02058995
  0.14687315  0.11342615  0.0646079   0.14543408  0.20228978 -0.07741717
  0.17705947  0.2631186   0.17658861 -0.05292904 -0.154805    0.14187407
  0.02065043  0.11014181  0.21585186  0.11989679  0.10369079 -0.05939647
 -0.06480871  0.06027583 ]
Activation
relu
Dense
32 32
[ 0.08543515 -0.08021618  0.27495056  0.17207463 -0.07202183 -0.24570861
  0.1721112  -0.3346465   0.34015274 -0.10620349  0.17226939  0.04615719
 -0.01341304 -0.19959946  0.1265322  -0.3523379  -0.04817333 -0.19378138
  0.17228147 -0.10803511 -0.13104191 -0.21013108  0.30996364 -0.03692288
 -0.02781291  0.1739712  -0.12798068 -0.04051702  0.26789734 -0.22599205
  0.26985994 -0.35697913 ]
[ -0.1519973   0.03660204 -0.10093917 -0.04405563  0.13761516  0.12871374
  0.1899687  -0.0905326   0.10850416 -0.15073536  0.14150627  0.20775305
 -0.38914445 -0.24970444  0.35547045  0.24571982 -0.07147568  0.3158178
 -0.21857116  0.41919744 -0.04732491  0.20887043  0.18680137  0.05310112
  0.00046639 -0.16026606  0.32763314 -0.06826419  0.15354663  0.17531475
  0.04810612  0.24580488 ]
[ -1.12243436e-01 -1.14202783e-01  3.00415903e-02 -1.70180693e-01
 -2.79009026e-02 -4.89098728e-02 -2.27335721e-01  7.58076310e-02
  2.39811957e-01 -7.62921870e-02  3.19301873e-01 -2.45053962e-01
  3.53797317e-01  1.34889320e-01  7.26152817e-03  2.32001096e-01
 -1.08776063e-01 -1.91765666e-01  3.23207557e-01 -1.43657522e-02
  3.82457292e-05  1.56472430e-01 -5.32232923e-03  9.69830249e-03
 -1.93644002e-01  2.02096496e-02  1.18271068e-01  1.48930356e-01
  3.21857244e-01  3.15764874e-01  1.03630535e-01 -2.32058629e-01 ]
[ -0.2513593  -0.2727465  -0.00608261 -0.00523359  0.04438008  0.35224417
 -0.0825396   0.17539762 -0.01749831 -0.02842093  0.14977773  0.2777824
  0.18223213 -0.2843432  -0.06810661 -0.22428888  0.02649533  0.1309342
  0.00068725  0.10697199 -0.26796055 -0.30925423 -0.24875125 -0.05412984
  0.14882624 -0.3335821   0.11720266 -0.14017506 -0.02060852 -0.27102554
 -0.2707847   0.16172116 ]
[ 0.03608007 -0.31140447 -0.24609615 -0.17606284  0.340198    0.17644042
  0.3622944  -0.15383443 -0.1982276   0.09772296 -0.21902758 -0.15841366
  0.1955242   0.04671153 -0.2534247  -0.26149574 -0.06126849  0.10013746
  0.12315428  0.11562011 -0.18739073 -0.11997779 -0.30164453 -0.202546
  0.1562596   0.04785973 -0.0439721  -0.14319706 -0.22217053  0.22678116
 -0.15906405 -0.05757152 ]
[ -0.11842872  0.08530915 -0.11990944 -0.19542865  0.00752074 -0.12078391
 -0.16866869  0.07514776  0.27223986 -0.31687197  0.13436274  0.06232367
 -0.08350933  0.09428295 -0.24329005 -0.34425992 -0.06683276  0.15628135
 -0.18799701 -0.183192    0.26388493 -0.23692024  0.10906626 -0.10315692
 -0.10256152 -0.10703226 -0.03533554  0.14755905  0.14571497 -0.10916854
  0.17492938  0.13952743 ]
[ -0.17894278 -0.31048325  0.16767941  0.07643536  0.24845947  0.19747399
  0.16481602  0.17350753 -0.01558494  0.06192893  0.01420187  0.02560836
  0.28032523  0.23080292 -0.12695907  0.17783347 -0.00556946 -0.16332665
 -0.20814338  0.09321453  0.16547021  0.0425721   0.24660204 -0.1635985
 -0.00298984 -0.17198008  0.017497   -0.02343297  0.1479933  -0.09299986
  0.06600595 -0.25798917 ]
[ -0.34793466 -0.03717954 -0.21159054 -0.18670763  0.16075337 -0.13692002
 -0.41815746 -0.04836055 -0.29466608  0.02685113  0.16599077  0.29228407
 -0.34206063  0.3786713  -0.26452294 -0.17945245  0.08300535 -0.25094146
 -0.16469064  0.24266912  0.19454217 -0.15712517  0.13413042  0.03499672
  0.392391   -0.30815357  0.09362774  0.03522984  0.09535512  0.05868659
 -0.16722438 -0.00981502 ]
[ 0.13178387  0.16620448  0.09443096 -0.02207646 -0.20792998  0.16234949
  0.1324938  -0.12361964 -0.0090834   0.18799083  0.23617215  0.11553667
 -0.04363183  0.26434806  0.255481   -0.17663023  0.24171934 -0.25344878
  0.1303562   0.0618152   0.2853715  -0.28776643 -0.03706716  0.16469517
 -0.08032539 -0.11265046  0.04310996  0.1566495  -0.14445509 -0.0899145
  0.08639845 -0.07188424 ]
[ -0.02283626  0.05749772 -0.09199091 -0.28424695  0.30486378  0.26832622
  0.37393498  0.02895583 -0.2389389   0.16170968  0.1991637  -0.00287464
 -0.13618046  0.25834468  0.34150755 -0.23830241 -0.15460289  0.1272195
 -0.25712302  0.22677793 -0.05694791 -0.16918552  0.14269324 -0.14188293
 -0.26055807  0.0882205   0.2914909  -0.27538824  0.14931183 -0.3196116
  0.03857995  0.13320206 ]
[ 0.05017092 -0.02696105  0.28930357 -0.26752037 -0.13973136  0.16385104
  0.135937   -0.10771937  0.16572723 -0.07184871 -0.21145326  0.11082071
  0.25721177  0.01138798 -0.2253219  -0.09472671  0.27377188 -0.14617845
  0.24449222  0.3104768   0.23545602  0.18964629  0.02486959  0.10508448
 -0.34422326  0.25387582  0.09920789  0.06953448 -0.0203724  -0.14261435
  0.21681102  0.17205429 ]
[ -0.23550215  0.07435328  0.33181727 -0.07904702 -0.10778445 -0.30912027
  0.1448252  -0.18786061  0.21969382 -0.25278187 -0.02531833  0.15777749
  0.2410905   0.1933026   0.29590467 -0.1025428  -0.28394327 -0.14744447
 -0.06123327  0.24925067 -0.10119648  0.01499016  0.14398773 -0.25344872
 -0.20634411  0.15232438 -0.1784396   0.23595166  0.24715698  0.21398841
  0.2844659  -0.22569087 ]
[ 0.31512824  0.1288707  -0.00302453 -0.09489881 -0.14682423  0.31393138
  0.34221742 -0.1013104  -0.14023268  0.28938428 -0.16180323  0.06719644
 -0.02106033  0.02357106  0.2563372   0.16347174  0.00214716  0.05542539
  0.19466108 -0.23280987 -0.24659055  0.13201544  0.25161517  0.245041
 -0.22751115 -0.15981875  0.27000278  0.10730644  0.1220138   0.3077421
 -0.18631813 -0.06449116 ]
[ -0.03022157  0.1207775  -0.06178567 -0.2909324  -0.00049058  0.12909488
 -0.10027539 -0.24547191  0.3367281  -0.01585801 -0.12657626  0.19755937
  0.1672153  -0.21092033  0.01453534  0.07493753 -0.18458687 -0.02948448
 -0.03458054 -0.1363394   0.11149675  0.14031869 -0.05566032 -0.08920031
 -0.20467749  0.14877802  0.19777611 -0.01327526 -0.10479138  0.14458776
 -0.3474761  -0.05713482 ]
[ -0.17234617  0.23583663  0.07694338  0.09609438  0.06101202  0.14529878
 -0.28699538  0.14791839  0.19843681 -0.01019166 -0.01141482  0.20823327
 -0.06219275 -0.23144783 -0.17725292 -0.00748376 -0.09909952  0.20235345
  0.0226923  -0.12534359  0.26822188  0.13409817  0.1801481  -0.23514964
  0.01271456  0.24801166  0.33024007  0.19012135  0.16132884  0.2167155
  0.28169456 -0.0654852 ]
[ 0.31934747  0.36278152 -0.17778805 -0.03539222 -0.12812808  0.34453255
  0.20940419 -0.29668126  0.01666171  0.03068002  0.1242231   0.2821653
  0.21987481 -0.17460063 -0.12452289  0.21786658  0.16113456 -0.07526018
  0.36509442  0.08285733  0.06189814 -0.29523146 -0.05024971  0.15394937
 -0.11631163  0.27716595  0.04735713  0.33319402 -0.07079118  0.25681362
  0.24300948  0.30915987 ]
[ 0.22969444  0.34865856 -0.3139427  -0.21367155  0.17310591 -0.26615518
  0.12563598 -0.17908034 -0.06535357 -0.23442505  0.08487803 -0.30591998
 -0.04674    -0.27641776 -0.14285877  0.23134306 -0.07092485 -0.06269024
  0.03819155 -0.04757838  0.3363932   0.06978619  0.18375418  0.22834909
  0.12913686  0.15140188  0.15834145  0.38828954  0.12323207  0.3092537
 -0.06652588  0.0813821 ]
[ -0.14346366  0.14148605  0.166173   -0.20176941  0.23359622  0.2624732
 -0.4001405   0.02317034  0.09282592  0.19552116  0.02350542  0.2527331
  0.00073896  0.15977274 -0.11715057  0.1555747   0.26684824  0.26038364
  0.00218541  0.01000765 -0.21221505  0.15156618 -0.21163662  0.05136356
  0.29178908 -0.01926697  0.06453569 -0.23339279  0.05660946  0.12889299
  0.31864697 -0.19008522 ]
[ -0.07956164  0.07425774 -0.20998146 -0.05003134 -0.08126536 -0.07202003
 -0.37966615 -0.11124342 -0.11368722  0.06569788  0.02114766 -0.19113176
  0.27838486  0.11121996  0.25418913  0.24054849  0.09641699 -0.10351266
 -0.11484475 -0.26244628 -0.02510963 -0.11306178  0.25247958  0.18385008
  0.04398682  0.22533423 -0.2705944  -0.08021581  0.16131482  0.36987308
  0.05664856 -0.30658987 ]
[ 0.30605176  0.18439354  0.01644926 -0.16856767 -0.02302972 -0.17072739
 -0.03487828 -0.00395399  0.1936673  -0.25596336 -0.063813   -0.38009506
  0.28365275 -0.18806012 -0.16764764  0.07211141  0.09362308 -0.3565115
  0.3365163   0.13532767 -0.07990672 -0.24431221  0.22435756  0.27650565
  0.12462538  0.50555646 -0.04773158  0.4033289   0.30820113 -0.08596169
  0.02277803 -0.18863383 ]
[ -0.10100318 -0.17329375 -0.2633532  -0.2648094   0.26186162  0.00498785
 -0.14554009 -0.15132652 -0.02827208 -0.0249519  -0.10953414 -0.04076334
  0.11417971  0.11875606 -0.30643028  0.12231032  0.22091393  0.27135843
  0.20518799 -0.03114257  0.27623796 -0.17504877 -0.01282408  0.23374118
  0.09144516  0.34482566 -0.29694507 -0.05844523  0.13177085  0.21788675
 -0.33535627 -0.21200398 ]
[ -0.13439038  0.06891631  0.03150296  0.22790697 -0.0931938   0.43566397
 -0.08920344  0.43261203 -0.5539025  -0.0187991  -0.1830528   0.27535376
 -0.22744112  0.21715572  0.04393952  0.36414278  0.36500558  0.30039048
 -0.17095286 -0.02746903 -0.39255136  0.09981244 -0.19282027 -0.45077574
  0.44021183 -0.4864586   0.46095878 -0.11963023 -0.26134944 -0.40068343
  0.260459    0.31906065 ]
[ 0.06845219 -0.2872651  -0.04772106  0.10143157  0.22729988  0.1729869
  0.25491497  0.09298231  0.17890105  0.3588273  -0.31791112  0.00395463
  0.15236676 -0.2714102   0.02447354  0.02356421 -0.2662168   0.3439169
 -0.09243573  0.04964957  0.21297592 -0.20379627 -0.17060952 -0.33346587
 -0.12917326 -0.2642451   0.34184822  0.07033584  0.02629082 -0.35871732
 -0.12749338  0.04514138 ]
[ 0.1483387   0.0307994  -0.06840295  0.17034933  0.07514255  0.18209362
  0.06606242  0.07662126  0.0052313  -0.08758514  0.12972279  0.25958472
  0.2631153  -0.00070818  0.27681726 -0.03274034 -0.01953131 -0.05901474
 -0.08643447  0.1618807   0.2172257   0.21145257  0.12918276  0.25413975
 -0.22107509  0.08359346  0.07116492  0.23564622  0.27584523  0.24460873
 -0.03342141 -0.08095229 ]
[ -0.30699277 -0.07039217 -0.03485119 -0.14252912  0.0199327   0.02536455
  0.46498612  0.09007994 -0.31453225  0.28834346  0.14818767  0.0087463
  0.02939529 -0.29903528  0.04803543 -0.26744884 -0.04131505 -0.17820618
  0.20621267  0.00715488  0.17298214  0.10202028 -0.10984255  0.07672979
 -0.3815516  -0.06356072  0.06452017  0.08588332 -0.2628424   0.08281264
  0.3832494   0.3977105 ]
[ 0.18637604  0.28724024 -0.05275349 -0.03260474 -0.26439217  0.20179556
 -0.04877208  0.02484473  0.15378527  0.17991431  0.08860088  0.30296624
 -0.2732106   0.14031996 -0.25873116 -0.04652629 -0.23312806  0.32466114
 -0.10079636  0.04577371  0.11510827  0.02752093 -0.00597377  0.22178891
 -0.08624905 -0.251455    0.23042859  0.3221731   0.28293145  0.01803532
  0.08064192 -0.02851461 ]
[ -0.1085671   0.17857538  0.03148589  0.07657957  0.0213021  -0.30312663
  0.11648195  0.15623495  0.3023743  -0.31580576  0.0942661  -0.3652422
 -0.10536636 -0.0896823  -0.1595691   0.02644628  0.03851452  0.03291412
  0.15544672 -0.132069    0.34539455 -0.21550815  0.12388333  0.33060244
  0.1171755   0.13292906 -0.26602277  0.41974968 -0.01915636  0.32710212
 -0.08876818 -0.22048163 ]
[ -0.08407918  0.17179053 -0.26574704 -0.3190239   0.21135396 -0.04692813
 -0.08666831 -0.13848291  0.21158524 -0.22605075  0.27520642 -0.13157758
  0.11318304  0.07591992  0.03284874  0.10224535 -0.31166527  0.04376097
 -0.1641701   0.16532108  0.24768962 -0.25184876 -0.14745447  0.01463451
  0.30536017  0.23834999  0.1086283  -0.24805783  0.32097527  0.12135027
 -0.31819442  0.02440213 ]
[ 0.02999495  0.1549838  -0.14273658  0.03192112  0.02957641  0.05467242
  0.11987266  0.02022154  0.2077536   0.10070007  0.10830656 -0.10592318
  0.18710467  0.00096927  0.04556287  0.2691946  -0.11325616  0.0165163
 -0.14929475 -0.04437084  0.01495277  0.10785776  0.0457739  -0.03544626
 -0.24894162  0.2974087  -0.02650062 -0.27076915  0.09519605 -0.03684411
 -0.2794941  -0.03799164 ]
[ -0.07634737  0.24748442  0.12073591  0.22947247  0.2590904   0.08795051
 -0.00935034  0.2741416   0.15459587  0.09233284 -0.1207201   0.05561595
 -0.2181536   0.23032993 -0.10991658 -0.04101849  0.03622197  0.1722167
  0.27291408  0.29378214 -0.0609563  -0.22766215 -0.18597962  0.02642413
  0.16548681 -0.03436091  0.21863648 -0.07640735  0.2141718   0.13707781
  0.28912005  0.23452684 ]
[ -0.05967934  0.04319156 -0.0598644  -0.24170445  0.01529472  0.11260082
 -0.0516204   0.14371449 -0.16683196  0.28205484 -0.17039672 -0.1815505
 -0.12904488  0.2102808   0.13612358 -0.16932543  0.25906414  0.10962953
 -0.13646658 -0.12800029  0.1092999  -0.08182433  0.12296201  0.13052966
 -0.00076024 -0.08833709 -0.04114965  0.09444029 -0.00663162 -0.23625445
  0.3195139   0.22148828 ]
[ 0.32490972  0.01909267 -0.11433914 -0.02018371  0.05085601 -0.25473094
 -0.08949749 -0.06813035 -0.23385686  0.20930485  0.2791089   0.2236829
  0.21075995  0.08039486  0.26324385 -0.26074994 -0.19873922  0.18986249
  0.1972638  -0.23489118  0.29296342 -0.05357051  0.08451162  0.23130734
  0.2696292  -0.21234868 -0.17474812  0.10947148  0.09403503 -0.27327585
  0.09486979  0.19689853 ]
[ 0.10589325  0.12446591 -0.02400875 -0.0123791  -0.06909928 -0.04400802
 -0.13890836 -0.02557473  0.117661   -0.05293454  0.08272953 -0.05968186
  0.09837061 -0.06003001 -0.05952489 -0.06680804 -0.07828958 -0.05530525
  0.09387227 -0.05830206  0.08332343 -0.03159447  0.15894486  0.09416207
 -0.05737348  0.22940484 -0.08994895  0.15780601  0.08189268  0.14005901
 -0.06319445 -0.03311627 ]
Activation
relu
Dense
32 1
[ 0.45381737 ]
[ 0.2169388 ]
[ -0.23170982 ]
[ -0.13235022 ]
[ -0.42960945 ]
[ -0.04230239 ]
[ -0.17627929 ]
[ -0.12080232 ]
[ 0.11594127 ]
[ -0.39335185 ]
[ 0.25190258 ]
[ -0.09776755 ]
[ 0.16887806 ]
[ -0.3960098 ]
[ -0.43332684 ]
[ -0.27271938 ]
[ -0.33674017 ]
[ -0.4708264 ]
[ 0.24432455 ]
[ -0.43648833 ]
[ 0.03471199 ]
[ 0.04618042 ]
[ 0.53154624 ]
[ 0.4485682 ]
[ -0.3781471 ]
[ 0.22117737 ]
[ -0.14809346 ]
[ 0.07944545 ]
[ 0.2930366 ]
[ 0.29485694 ]
[ -0.2498172 ]
[ -0.37953445 ]
[ 0.07928414 ]
Activation
sigmoid
